tree
version=v4
num_class=1
num_tree_per_iteration=1
label_index=0
max_feature_idx=35
objective=binary sigmoid:1
feature_names=return_1 return_3 return_5 return_10 momentum_accel sma_10 sma_20 sma_50 above_sma10 above_sma20 above_sma50 trend_score sma10_slope sma20_slope volatility atr atr_pct volume_sma volume_ratio volume_spike rsi rsi_oversold rsi_overbought macd macd_signal macd_hist macd_bullish body_pct is_green green_streak higher_high higher_low hh_hl_score bb_upper bb_lower bb_position
feature_infos=[-0.59275335073471069:0.56342554092407227] [-0.92796170711517334:0.7989037036895752] [-0.91845393180847168:0.77784717082977295] [-1.088247537612915:0.93849390745162964] [-0.62377923727035522:0.68901264667510986] [45.878429412841797:89706.203125] [45.902744293212891:89683.4140625] [45.919170379638672:89660.7734375] [0:1] [0:1] [0:1] [0:3] [-0.31945362687110901:0.27180826663970947] [-0.29692724347114563:0.24448136985301971] [0.0051783830858767033:0.22626163065433502] [0.018396547064185143:145.11759948730469] [0.020262902602553368:0.23422497510910034] [1.3786836862564087:16460.8828125] [0.0028442558832466602:17.922029495239258] [0:1] [0:100] [0:1] [0:1] [-158.60166931152344:167.54615783691406] [-142.84523010253906:146.62861633300781] [-77.056732177734375:60.909030914306641] [0:1] [1.8542887119110674e-06:0.99772292375564575] [0:1] [0:5] [0:1] [0:1] [0:2] [45.945285797119141:89775.984375] [45.782402038574219:89599.6953125] [-0.53822422027587891:1.5125150680541992]
tree_sizes=3388 3484 3477 3485 3462 3472 3489 3519 3469 3448 3514 3480 3478 3477 3466 3489 3475

Tree=0
num_leaves=31
num_cat=0
split_feature=34 33 23 17 34 5 7 7 33 33 5 14 5 5 17 17 6 17 34 33 33 34 6 13 33 17 34 14 14 7
split_gain=11114.1 930.65 128.161 137.14 126.372 161.391 201.329 81.31 80.7891 222.363 80.4164 76.5245 69.869 88.2847 73.4741 72.5441 64.6332 59.6414 59.509 55.0663 104.558 54.6118 50.4018 48.9355 50.8926 48.3994 47.6193 47.7149 46.8778 46.5424
threshold=2310.580444335938 1077.6834716796877 0.017936363816261295 1460.1776123046877 1114.0635986328127 1241.7090454101565 1791.270446777344 46.22157287597657 48.275386810302741 61.887718200683601 47.729909896850593 0.069409992545843138 1486.3017578125002 1559.572204589844 289.68722534179693 461.70382690429693 48.050077438354499 761.08557128906261 1550.8850708007815 75.494258880615249 75.181732177734389 46.303569793701179 84020.230468750015 0.010261647403240206 1026.2399902343752 51.61235427856446 48.287467956542976 0.058105075731873519 0.046400919556617744 48.804264068603523
decision_type=2 2 2 2 2 2 2 2 2 2 2 2 2 2 2 2 2 2 2 2 2 2 2 2 2 2 2 2 2 2
left_child=1 2 3 8 -3 17 12 -4 10 26 -1 19 14 18 -7 -15 -12 -6 -14 20 -9 -5 -2 24 -21 -11 27 -10 -16 -28
right_child=22 4 7 21 5 6 -8 11 9 25 16 -13 13 15 28 -17 -18 -19 -20 23 -22 -23 -24 -25 -26 -27 29 -29 -30 -31
leaf_value=-1.4797354048729843 -1.6008267030178138 -1.5718988845094515 -1.382777181406915 -1.4189467238080482 -1.5128555710356646 -1.5815347298103006 -1.5241036546869822 -1.5125692583510462 -1.6041759927710011 -1.5628736411411381 -1.3660444572304855 -1.4737716785857888 -1.5316317883027415 -1.5460903756423614 -1.5482854654158456 -1.6107564752253281 -1.4650910083977811 -1.3355962091643776 -1.4703082557230489 -1.5445263875762028 -1.38981339834179 -1.5150055054368352 -1.6112113865940154 -1.5398963835324648 -1.4526773598080938 -1.4835704895658424 -1.474692862825856 -1.4253867309237378 -1.4448324828224173 -1.5171391673887717
leaf_weight=1154.7752280831337 12922.291411221027 711.62334856390953 47.112973779439926 59.434828460216522 4269.3052023947239 991.69185730814934 7922.6626337468624 4030.1162585914135 100.31439340114594 77.120314002037048 124.52321377396584 450.83491832017899 465.33121794462204 3470.2691670954227 136.41017946600914 181.63863429427147 146.12270021438599 18.120374530553818 239.62383279204369 104.08343130350113 69.727201193571091 3326.7558008134365 7431.2380764782429 1345.8364571332932 141.77381032705307 7744.3581483662128 284.41739863157272 16.525781571865082 63.348829358816147 2821.8496848940849
leaf_count=7966 89142 4909 325 410 29451 6841 54653 27801 692 532 859 3110 3210 23939 941 1253 1008 125 1653 718 481 22949 51263 9284 978 53423 1962 114 437 19466
internal_value=-1.54434 -1.51405 -1.50018 -1.49541 -1.53061 -1.52895 -1.53433 -1.5124 -1.49056 -1.49347 -1.46812 -1.51342 -1.54894 -1.54307 -1.57039 -1.54933 -1.41899 -1.51206 -1.5107 -1.51657 -1.51044 -1.51328 -1.60462 -1.53238 -1.49145 -1.48436 -1.51559 -1.57801 -1.5152 -1.51323
internal_weight=60869.2 40515.7 22045.7 15856.2 18470 17758.4 13471 6189.49 12470 11044.6 1425.42 6142.37 5548.31 4356.86 1191.45 3651.91 270.646 4287.43 704.955 5691.54 4099.84 3386.19 20353.5 1591.69 245.857 7821.48 3223.11 116.84 199.759 3106.27
internal_count=419895 279490 152078 109381 127412 122503 92927 42697 86022 76189 9833 42372 38274 30055 8219 25192 1867 29576 4863 39262 28282 23359 140405 10980 1696 53955 22234 806 1378 21428
is_linear=0
shrinkage=1


Tree=1
num_leaves=31
num_cat=0
split_feature=5 33 33 6 23 17 5 7 33 33 33 33 5 26 5 5 17 5 14 3 6 6 23 5 7 17 17 33 7 7
split_gain=9192.23 711.157 104.154 156.734 95.2048 101.194 94.4265 159.409 66.5388 169.008 63.2458 68.1516 61.7325 58.9444 57.8451 69.9887 60.8603 52.4371 57.6403 50.5905 47.0269 46.8634 46.7927 46.2427 51.076 46.0046 74.8899 69.5914 45.873 44.1799
threshold=2314.2727050781255 1077.6834716796877 1125.1502685546877 1128.7719726562502 0.017936363816261295 1674.658142089844 1241.7090454101565 1791.270446777344 61.887718200683601 48.275386810302741 75.494258880615249 75.181732177734389 47.729909896850593 1.0000000180025095e-35 1486.3017578125002 1559.572204589844 289.68722534179693 46.211332321166999 0.069409992545843138 0.24539765715599063 48.050077438354499 84020.230468750015 44.322124481201179 78830.558593750015 78841.871093750015 72.609611511230483 160.9678649902344 1235.9507446289065 69.247528076171889 47.524057388305671
decision_type=2 2 2 2 2 2 2 2 2 2 2 2 2 2 2 2 2 2 2 2 2 2 2 2 2 2 2 2 2 2
left_child=1 4 -3 -4 5 8 19 14 9 12 11 17 29 -10 16 -16 -8 -6 -19 25 -14 23 -23 -2 -25 27 -27 -5 -15 -1
right_child=21 2 3 6 10 -7 7 -9 13 -11 -12 -13 20 28 15 -17 -18 18 -20 -21 -22 22 -24 24 -26 26 -28 -29 -30 -31
leaf_value=0.061098635837299575 -0.059637369530524967 -0.019954946745017941 0.093990903374353008 -0.0019356103574958057 0.16143117048558533 0.025009916149123696 -0.034351825609621196 0.017879865206505429 0.044162102711307806 0.024734753363454893 0.011715968954974197 0.12509544023952879 0.14454700241451543 0.073732411078928931 0.029578218069960072 -0.0045157936989444741 0.025684029059856058 0.028326834343291325 0.070220654528017221 -0.036966545710115685 0.06620937670081925 -0.065269206698387691 -0.033253819915956391 0.28015240425422461 -0.047548825767335857 0.049352824664533827 0.017744770927834101 0.11606510210481165 0.051232027141587144 0.0042141623659032405
leaf_weight=1126.018330425024 5554.6220330893993 955.23279196023941 240.23826551437378 699.56081134080887 30.464160442352295 2735.2437224984169 967.87354065477848 8027.9201895743608 4799.4574528038502 3500.4840444624424 1716.2575968503952 80.285159572958946 149.15633051097393 1611.2641660124063 720.36719700694084 3640.1979746222496 203.53135092556477 4134.0368680357933 356.85225315392017 120.44887936115265 164.46616281569004 6616.1978094875813 495.24723082780838 3.7715510576963416 6892.4397144019604 1559.9214962124825 1448.0271189212799 52.810998022556305 2119.2843713313341 155.96291208267212
leaf_count=7456 39761 6640 1624 4729 190 18496 6841 54665 31889 23704 11720 504 927 10703 4863 25192 1378 27930 2353 814 1081 47693 3570 27 49342 10545 9776 357 14089 1036
internal_value=-7.4068e-05 0.0266641 0.0121892 0.0139274 0.038557 0.0425858 0.0128187 0.00887998 0.0461111 0.0370465 0.028117 0.0342279 0.0640176 0.0515204 -0.00417959 0.00111975 -0.0238991 0.0325849 0.0316729 0.0265726 0.103839 -0.0565438 -0.063046 -0.0528244 -0.0473276 0.0286198 0.034151 0.00647697 0.06097 0.0541947
internal_weight=60877.6 41315.4 18636.1 17680.9 22679.2 16361.3 17440.7 13559.9 13626.1 5096.09 6317.9 4601.64 1595.6 8530.01 5531.97 4360.57 1171.4 4521.35 4490.89 3880.77 313.622 19562.3 7111.45 12450.8 6896.21 3760.32 3007.95 752.372 3730.55 1281.98
internal_count=419895 279502 127424 120784 152078 109381 119160 92939 90885 34204 42697 30977 10500 56681 38274 30055 8219 30473 30283 26221 2008 140393 51263 89130 49369 25407 20321 5086 24792 8492
is_linear=0
shrinkage=0.1


Tree=2
num_leaves=31
num_cat=0
split_feature=34 34 24 17 34 5 7 5 7 17 5 7 7 34 17 5 17 5 5 17 13 17 25 5 7 5 24 17 7 23
split_gain=7627.9 540.481 109.544 83.7339 78.5511 99.1387 128.443 75.7716 125.642 72.877 65.4009 65.1316 64.5066 101.816 78.3942 61.1751 52.452 47.8318 55.6777 62.3893 50.6241 50.4551 47.7261 47.6781 62.8236 59.624 45.6541 60.6166 45.3246 44.8067
threshold=2310.580444335938 1074.4660644531252 0.016896836459636692 2125.318969726563 1114.0635986328127 1241.7090454101565 1791.270446777344 61.802196502685554 48.203269958496101 616.58825683593761 47.729909896850593 55.783792495727546 47.742925643920906 46.522899627685554 2524.5666503906255 46.211332321166999 60.954870223999031 1486.3017578125002 1559.572204589844 469.63629150390631 -0.017824318259954449 289.68722534179693 0.28349986672401434 51.969015121459968 61.78722000122071 64.315704345703139 -0.0033743274398148056 927.50823974609386 47.742925643920906 0.99311572313308727
decision_type=2 2 2 2 2 2 2 2 2 2 2 2 2 2 2 2 2 2 2 2 2 2 2 2 2 2 2 2 2 2
left_child=1 2 3 7 -3 22 17 8 10 11 28 -4 13 -5 -15 -11 -9 21 20 -20 -19 -7 -6 -14 -25 -26 -10 -28 -1 -8
right_child=-2 4 9 12 5 6 29 16 26 15 -12 -13 23 14 -16 -17 -18 18 19 -21 -22 -23 -24 24 25 -27 27 -29 -30 -31
leaf_value=0.046016551184487185 -0.0530090839786087 -0.022156330083727374 0.0408383134708942 -0.027175396566249357 0.027414783326422016 -0.031672072427179017 0.018976974607247468 -0.015346901527498969 0.029495140958873303 0.21104981955013999 0.093145822782842808 0.0043096435429469801 -0.033999956337194319 0.021519256983381373 0.23112309884176471 0.031797826565383241 0.046782960454155635 -0.0062608415109891213 -0.0012200469918493806 -0.064299002062776181 0.047355370469357144 0.022735014117913521 -0.022563571515593794 0.06140324705677367 -0.058866951043006592 0.015528721135429852 0.022328899686862261 -0.020394894237858424 -0.11038827992751168 -0.0024715880406192469
leaf_weight=1411.1544544994831 18833.417950242758 688.86382861435413 607.86707185208797 49.015524312853813 4255.5227994471788 946.05750676989555 6988.0740101188421 137.21246731281281 2460.7448604553938 18.202041804790497 335.21612244844437 2467.2226568609476 202.61268247663975 28.237078487873077 49.083230301737785 3363.2174451649189 9302.6411044597626 291.02945584058762 3466.2729020416737 163.25190395116806 442.96753889322281 206.87944342195988 199.10675363242626 265.4170411080122 120.4204942882061 952.93743912875652 929.80945819616318 515.16140541434288 17.818815380334854 1130.4895206689835
leaf_count=9059 140405 4885 3995 316 28234 6841 47041 912 16391 106 2043 16432 1349 188 327 22248 60086 1926 24012 1180 2937 1378 1342 1767 802 6348 6184 3431 118 7612
internal_value=-0.000128144 0.0235778 0.0337748 0.038036 0.0109599 0.0122227 0.00798915 0.0403838 0.0312293 0.022696 0.053378 0.0115446 0.0167476 0.0851713 0.155956 0.0328278 0.0458773 -0.00378339 0.00100227 -0.00407695 0.0261034 -0.0218895 0.0251741 0.0110814 0.0179319 0.00712591 0.0212113 0.00708651 0.0439834 0.0159891
internal_weight=60845.9 42012.5 23234 16777.5 18778.5 18089.7 13635 15109.8 5669.91 6456.51 1764.19 3075.09 1667.72 126.336 77.3203 3381.42 9439.85 5516.46 4363.52 3629.52 733.997 1152.94 4454.63 1541.39 1338.77 1073.36 3905.72 1444.97 1428.97 8118.56
internal_count=419895 279490 152102 109321 127388 122503 92927 98224 37226 42781 11220 20427 11097 831 515 22354 60998 38274 30055 25192 4863 8219 29576 10266 8917 7150 26006 9615 9177 54653
is_linear=0
shrinkage=0.1


Tree=3
num_leaves=31
num_cat=0
split_feature=34 33 24 33 7 7 7 13 17 6 33 7 24 7 33 33 13 17 33 34 17 6 24 34 6 7 33 17 24 34
split_gain=6322.15 423.214 84.2741 73.4801 111.683 56.4796 103.114 55.1168 51.5862 61.0015 60.9259 105.555 52.0516 50.104 66.5735 61.1728 117.46 72.933 55.3969 54.4715 47.2267 44.3996 48.8407 45.0415 48.301 66.3194 66.1587 55.4227 42.7027 42.3278
threshold=2310.580444335938 1077.6834716796877 -0.012028106488287447 1125.1502685546877 1128.8746337890627 1241.9481201171877 1791.270446777344 0.067178200930356993 1250.6221313476565 48.808088302612312 63.026659011840827 67.077014923095717 0.011088818777352573 72.800247192382827 69.893028259277358 74.192554473876967 0.083657138049602522 2125.318969726563 74.394927978515639 75.258510589599624 761.08557128906261 84020.230468750015 36.419675827026374 79628.179687500015 82666.648437500015 82458.480468750015 82666.445312500015 51.61235427856446 12.233695507049562 85462.996093750015
decision_type=2 2 2 2 2 2 2 2 2 2 2 2 2 2 2 2 2 2 2 2 2 2 2 2 2 2 2 2 2 2
left_child=1 2 -1 -3 7 20 -7 -5 9 -4 -11 -12 -13 14 -10 16 -15 -18 -17 -20 -6 23 29 -2 25 -25 27 28 -27 -23
right_child=21 3 8 4 5 6 -8 -9 13 10 11 12 -14 15 -16 18 17 -19 19 -21 -22 22 -24 24 -26 26 -28 -29 -30 -31
leaf_value=0.037439445188354285 -0.052571323596184751 -0.017550260119831861 0.046253862001396973 0.09220386141450318 0.019850441361904017 -0.0034597744249746463 0.014235193693364321 -0.055922133591105407 0.0098220285747982888 0.012937231887935578 0.051991199528360212 0.036926662870467433 0.015469173815206969 0.048593221293258639 -0.097638148007343023 -0.071370801021899952 0.36240033564533602 0.043791573262495831 0.070002472928087187 0.0069064245634366146 0.17426092104894086 -0.065696999860119745 -0.030104793902947624 -0.036686212293484947 -0.045939498299563203 0.021901328167598908 -0.034100748048086563 0.39209352669890157 0.16053720824196946 -0.048189708968061885
leaf_weight=8948.1382953077555 5363.6938484460115 937.95705354213715 1657.8259252458811 230.97892199456692 3992.0904834419489 5500.5099202692509 8201.393080830574 27.416012674570084 2561.1851343810558 2762.1545495986938 1715.129323348403 1764.8665946125984 3157.9433708190918 326.05015927553177 57.969502404332161 64.590595498681068 19.604687705636028 11.617827057838438 190.58937291800976 481.12000739574432 18.941930264234543 3661.7827987372875 652.6763904094696 1506.2703101634979 4295.1668459773064 198.85273325443268 197.80888688564301 3.522981494665145 24.138947278261185 2255.2508585900068
leaf_count=56842 41428 6640 10385 1455 26136 38240 54653 176 16634 18007 10922 11068 20742 2112 375 417 127 75 1218 3154 112 28613 5028 11544 32918 1524 1516 27 185 17622
internal_value=-0.000168615 0.02088 0.0297766 0.00971903 0.0111437 0.0101885 0.00713124 0.076294 0.0251314 0.0285572 0.0254306 0.030625 0.0231698 0.0149205 0.00740345 0.0328917 0.0667986 0.249195 0.0163573 0.0249015 0.0206254 -0.0495785 -0.0561676 -0.0458379 -0.0400277 -0.0268531 0.00803312 0.0448596 0.0376031 -0.0590351
internal_weight=60787.2 42628.1 23718.8 18909.3 17971.3 17712.9 13701.9 258.395 14770.6 11057.9 9400.09 6637.94 4922.81 3712.73 2619.15 1093.57 357.273 31.2225 736.3 671.709 4011.03 18159.2 6569.71 11589.5 6225.76 1930.59 424.324 226.515 222.992 5917.03
internal_count=419895 279490 152078 127412 120772 119141 92893 1631 95236 71124 60739 42732 31810 24112 17009 7103 2314 202 4789 4372 26248 140405 51263 89142 47714 14796 3252 1736 1709 46235
is_linear=0
shrinkage=0.1


Tree=4
num_leaves=31
num_cat=0
split_feature=34 34 24 17 13 17 34 7 34 6 7 6 34 17 14 7 6 7 34 6 34 6 17 7 34 34 6 17 6 24
split_gain=5241.48 325.939 68.8113 58.2692 57.1083 55.652 50.6306 63.3151 88.2165 50.449 83.4451 48.6233 60.5706 62.129 47.7083 47.1655 46.3915 49.0896 48.0802 43.5236 43.3243 45.615 42.4056 42.3685 104.321 51.4114 41.6576 57.6942 40.401 44.1315
threshold=2310.580444335938 1074.4660644531252 0.016896836459636692 2125.318969726563 0.11322188004851343 616.58825683593761 1114.0635986328127 1241.9481201171877 1511.4917602539065 61.794843673706062 48.203269958496101 48.050077438354499 46.522899627685554 2909.415161132813 0.064755678176879897 55.783792495727546 51.977762222290046 61.78722000122071 64.213325500488295 1115.6496582031252 48.287467956542976 48.986600875854499 797.98803710937511 2209.1394042968755 2214.523803710938 1557.3483886718752 1115.6496582031252 95.124500274658217 84020.230468750015 36.419675827026374
decision_type=2 2 2 2 2 2 2 2 2 2 2 2 2 2 2 2 2 2 2 2 2 2 2 2 2 2 2 2 2 2
left_child=1 2 3 9 6 15 19 26 -9 10 22 12 14 -14 -5 -4 -13 -18 -19 -3 -12 -22 -1 25 -25 -10 27 -8 -2 -30
right_child=28 4 5 11 -6 -7 7 8 23 -11 20 16 13 -15 -16 -17 17 18 -20 -21 21 -23 -24 24 -26 -27 -28 -29 29 -31
leaf_value=0.054314008047964685 -0.04267753460907682 -0.020991158768811601 0.03222646411261456 -0.055937162475925277 -0.062273095883087465 0.026240879843993616 -0.076490987446181449 -0.017366133335603131 0.037715201764107011 0.035788765022476209 -0.030346751426135434 -0.040785516567935345 0.045810852088708193 0.20342677584385133 0.28952341700318385 0.0017225144934587663 0.050271526693403602 -0.056700681033279146 0.010656222011363244 0.19323912064628257 0.044517641990957146 0.013732226476020666 0.023625731664570812 0.083772942064285094 0.014317939435520963 0.0050252524553860483 0.019857097990491766 0.36934560992498705 -0.055522561496935331 -0.027704746672335481
leaf_weight=1088.0500417947769 11224.089704945683 656.53893940150738 634.67447833716869 45.37521781027317 111.55639180541039 3499.0544784665108 4.1153574585914594 1364.5890518277884 505.68308138847351 9915.0153761953115 191.35145129263401 181.00638784468174 65.583589643239975 40.470574244856834 3.3763454705476752 2506.7199404090643 279.41210621595383 117.79228456318378 980.1071270853281 8.6213162094354612 564.5663832873106 3262.9761022776365 774.60859361290932 242.00448527932167 1979.3748890012503 9591.02374792099 4552.0795186311007 6.7609443962574005 5675.5569973662496 639.12003606557846
leaf_count=6506 89142 4774 3995 295 756 22354 28 9720 3299 61018 1245 1215 407 242 21 16432 1767 802 6348 63 3587 21154 4714 1598 13080 64646 29378 46 46235 5028
internal_value=-0.00019612 0.0185316 0.0262431 0.0295317 0.00873993 0.0175669 0.00916264 0.0101512 0.00674739 0.031432 0.0240809 0.0119958 0.06527 0.107389 -0.0264724 0.00789688 0.00665856 0.012926 0.00337546 -0.0179135 0.0159611 0.0182862 0.0415768 0.00942067 0.0219234 0.00666706 0.0203521 0.207572 -0.0462943 -0.0527135
internal_weight=60711.3 43172.5 24150.1 17509.7 19022.3 6640.45 18910.8 18245.6 13682.7 15796.6 5881.55 1713.12 154.806 106.054 48.7516 3141.39 1558.32 1377.31 1097.9 665.16 4018.89 3827.54 1862.66 12318.1 2221.38 10096.7 4562.96 10.8763 17538.8 6314.68
internal_count=419895 279490 152102 109321 127388 42781 126632 121795 92343 98224 37206 11097 965 649 316 20427 10132 8917 7150 4837 25986 24741 11220 82623 14678 67945 29452 74 140405 51263
is_linear=0
shrinkage=0.1


Tree=5
num_leaves=31
num_cat=0
split_feature=34 33 24 33 7 17 5 3 17 7 34 35 17 24 13 7 7 7 34 24 34 34 5 7 5 33 15 24 5 33
split_gain=4343.56 258.888 56.366 53.1991 80.9554 43.983 54.4625 42.1397 39.3133 40.3606 94.659 43.8565 38.2044 37.3396 36.8538 36.322 46.2439 38.2825 36.3034 41.1316 43.0343 39.9502 50.1296 65.2986 46.2238 41.2635 40.4048 40.3514 46.9778 46.0234
threshold=2310.580444335938 1077.6834716796877 -0.012028106488287447 1125.1502685546877 1128.8746337890627 156.02045440673831 1128.7966918945315 -0.031594477593898766 1250.6221313476565 54.336570739746101 55.705913543701179 0.82188835740089428 469.63629150390631 -2.7411074638366695 0.11322188004851343 48.804264068603523 53.074718475341804 53.803539276123054 83982.164062500015 36.419675827026374 85462.996093750015 79628.179687500015 82664.929687500015 82458.480468750015 82442.328125000015 82520.878906250015 47.873529434204109 64.944393157958999 76904.082031250015 70607.144531250015
decision_type=2 2 2 2 2 2 2 2 2 2 2 2 2 2 2 2 2 2 2 2 2 2 2 2 2 2 2 2 2 2
left_child=1 2 -1 -3 5 6 -5 -7 15 -10 11 -11 -9 -6 -15 -4 -17 -18 21 20 -20 27 23 25 -25 26 -23 29 -29 -2
right_child=18 3 8 4 13 7 -8 12 9 10 -12 -13 -14 14 -16 16 17 -19 19 -21 -22 22 -24 24 -26 -27 -28 28 -30 -31
leaf_value=0.029408872294874839 -0.036137085986916166 -0.01563727437522083 0.035659636185992653 0.057970573708003015 -0.063475207321013652 0.038136233736276177 -0.092047375566069928 0.21568024954940013 -0.0053851444956046733 0.14924905181568651 0.013491644318011956 0.004913245034938481 -0.048378398426839338 0.0087445943768759624 -0.052901337450413123 -0.0041391501801412512 0.076781594928477845 0.021229782870172954 -0.05963575796316916 -0.024474046137861114 -0.041118099081633934 -0.017750614402143879 -0.040272432552760203 0.10606406563292825 0.0022802492541237869 0.071043062641530152 -0.052076061293506518 -0.025092442710605456 0.24512388462502585 -0.05555161123901952
leaf_weight=9311.2328781485558 2192.316827699542 924.08124162256718 1764.2632658034563 162.42211325466633 71.537458717823029 35.29460634291172 27.440815031528473 42.273845225572586 1104.6041155457497 76.206956148147583 2590.7901561409235 29.238954648375511 5.8301310986280432 17760.968941614032 96.484516218304634 730.2509159296751 125.13535395264626 8793.3184621632099 3196.6615919470787 594.22658511251211 2094.8067954480648 754.05959993600845 4231.4977165386081 47.670905061066151 365.20774710923433 37.888101011514664 632.37338626384735 16.814841851592067 9.2078717947006208 2796.344648629427
leaf_count=56842 18118 6640 10529 960 468 208 173 255 7054 486 16387 185 35 117996 677 4683 804 55108 27236 4768 17622 6110 34565 369 2876 307 5124 139 72 23099
internal_value=-0.000213237 0.0164761 0.0232771 0.00775418 0.00894305 0.0628699 0.0358675 0.123071 0.019522 0.0107041 0.0172989 0.109742 0.18314 0.00811712 0.00840802 0.0224565 0.0200379 0.0220189 -0.0431441 -0.0495113 -0.052316 -0.0397579 -0.03428 -0.0204583 0.0145146 -0.0306062 -0.0334404 -0.0463769 0.0756836 -0.0470307
internal_weight=60620.5 43651.4 24525 19126.3 18202.3 273.262 189.863 83.3986 15213.8 3800.84 2696.24 105.446 48.104 17929 17857.5 11413 9648.7 8918.45 16969.1 5885.69 5291.47 11083.4 6068.7 1837.2 412.879 1424.32 1386.43 5014.68 26.0227 4988.66
internal_count=419895 279490 152078 127412 120772 1631 1133 498 95236 24112 17058 671 290 119141 118673 71124 60595 55912 140405 49626 44858 90779 49351 14786 3245 11541 11234 41428 211 41217
is_linear=0
shrinkage=0.1


Tree=6
num_leaves=31
num_cat=0
split_feature=34 33 24 17 33 13 17 33 33 17 14 13 33 33 33 15 34 33 17 17 6 6 7 15 6 13 34 33 15 17
split_gain=3598.84 203.654 46.4685 43.9183 46.5689 43.8025 42.5039 40.7446 57.2243 50.7985 44.5571 44.1947 39.8223 67.7524 62.8816 65.1031 61.3187 125.705 123.592 91.878 50.4792 48.9497 34.685 42.0182 39.0657 36.0533 36.0212 58.2439 51.0887 47.0651
threshold=2310.580444335938 1077.6834716796877 0.016896836459636692 616.58825683593761 46.286342620849616 0.11322188004851343 1674.658142089844 54.922636032104499 55.345754623413093 1029.6047363281252 0.032281979918479926 0.083657138049602522 1125.1502685546877 1151.7087402343752 1160.0826416015627 0.89748951792716991 1136.7340087890627 1134.6267700195315 79.235759735107436 301.80923461914068 1866.9691162109377 1241.7871704101565 55.783792495727546 0.081424925476312651 75.377735137939467 0.012341793626546861 51.894248962402351 49.715335845947273 0.043552801012992866 392.53288269042974
decision_type=2 2 2 2 2 2 2 2 2 2 2 2 2 2 2 2 2 2 2 2 2 2 2 2 2 2 2 2 2 2
left_child=1 2 6 22 -5 12 -1 9 10 -6 -9 -10 -3 16 -15 21 17 -14 -18 -20 -17 -16 26 24 -24 -25 27 -4 -28 -30
right_child=-2 5 3 4 7 -7 -8 8 11 -11 -12 -13 13 14 15 20 18 -19 19 -21 -22 -23 23 25 -26 -27 28 -29 29 -31
leaf_value=0.025433621384370969 -0.040142595148395646 -0.013161912320079034 0.021792139483679668 0.16443696782172387 0.030169227686717259 -0.056856732852532926 0.01226934515082883 -0.056764703751134807 0.018400303020558114 -0.021398520290404913 0.17554954510384715 0.053182504275991783 0.039652784247739686 -0.027735201484487271 0.043758116972947014 0.00095017308830932764 -0.023252679403236387 -0.045835748920879021 0.11922842051597859 0.011660036887623652 0.012498288685905721 -0.0082456587418173067 -0.0021826053069395565 0.046926837862345833 -0.040787349920256732 0.0040867993536713478 0.15598145630275556 -0.098933153149253272 -0.034627199482966275 0.079198924660188977
leaf_weight=15137.356633484364 16446.857848495245 905.228939011693 420.9027459025383 21.585744604468346 326.71716441214085 106.00769056379795 2934.1333515644073 9.6995895355939847 2303.6538984328508 456.98528796434402 40.773126661777496 434.34386272728443 545.23614159226418 515.63623590767384 798.70520335435867 8559.6605956852436 139.38870503008366 250.03085595369339 262.39660778641701 114.31389802694321 6788.3334561735392 233.18931084871292 1225.3592735826969 270.81592710316181 332.73364491760731 711.54979671537876 43.494478419423103 43.135526597499847 60.007473513484001 88.998151704668999
leaf_count=90838 140405 6570 2530 109 2007 773 18479 60 14374 2877 247 2680 3285 3273 5064 57619 895 1585 1658 724 44314 1652 7817 1728 2191 4676 270 272 372 551
internal_value=-0.000224155 0.0146702 0.0206463 0.0135867 0.0211713 0.00693783 0.0232976 0.020257 0.0259171 9.78285e-05 0.130475 0.0239391 0.00729515 0.00831347 0.00661217 0.00769566 0.0302035 0.0127389 0.0570191 0.0867302 0.00605897 0.0319999 0.00505379 -0.000240515 -0.010454 0.0159427 0.0255244 0.0103598 0.0617858 0.033367
internal_weight=60527.2 44080.4 24862.2 6790.76 3593.76 19218.1 18071.5 3572.17 2788.47 783.702 50.4727 2738 19112.1 18206.9 16895.5 16379.9 1311.37 795.267 516.099 376.711 15348 1031.89 3197 2540.46 1558.09 982.366 656.538 464.038 192.5 149.006
internal_count=419895 279490 152078 42761 22354 127412 109317 22245 17361 4884 307 17054 126639 120069 111922 108649 8147 4870 3277 2382 101933 6716 20407 16412 10008 6404 3995 2802 1193 923
is_linear=0
shrinkage=0.1


Tree=7
num_leaves=31
num_cat=0
split_feature=34 33 33 13 13 34 23 5 34 5 7 33 33 5 7 33 13 7 33 13 15 35 23 12 13 7 33 23 14 33
split_gain=2977.87 161.139 95.4705 50.2576 43.0429 42.4301 37.776 41.6604 33.8302 39.5688 45.0566 36.9095 39.8934 39.3624 60.7082 43.8552 37.5941 36.2067 35.6545 35.2158 34.663 33.6866 33.356 41.9052 32.9982 31.9647 41.1966 43.3149 42.0709 31.6993
threshold=2310.580444335938 78.331878662109389 77.841785430908217 0.083657138049602522 0.11322188004851343 46.303569793701179 0.019074440933763984 78.204360961914077 83982.164062500015 84275.238281250015 84272.417968750015 78936.722656250015 70607.144531250015 82664.929687500015 82458.480468750015 82666.445312500015 0.091069024056196227 78841.871093750015 82520.878906250015 -0.011965082492679356 47.873529434204109 0.79821342229843151 -0.051667451858520501 -0.085460718721151338 -0.13473439961671826 83153.875000000015 83324.546875000015 6.7063331604003915 0.044261291623115546 76.580993652343764
decision_type=2 2 2 2 2 2 2 2 2 2 2 2 2 2 2 2 2 2 2 2 2 2 2 2 2 2 2 2 2 2
left_child=1 2 5 6 21 -1 7 -4 11 -10 -11 12 -2 14 17 -16 -14 -13 20 -15 -19 24 23 -7 -3 -21 27 -27 -28 -24
right_child=8 4 3 -5 -6 22 -8 -9 9 10 -12 13 16 19 15 -17 -18 18 -20 25 -22 -23 29 -25 -26 26 28 -29 -30 -31
leaf_value=0.045029488015852999 -0.030512800409249165 -0.043895710083659979 0.072069245638390497 0.26415254726977544 -0.049518846254713166 0.0030711511645629078 -0.0087267207186900297 0.23108726252382972 -0.06523986397297199 0.023828812280523297 -0.041741352432869618 0.23436107433732647 -0.050430912674906694 -0.021969025080091714 0.046869614348935489 -0.019101773951703944 0.10098134598227114 -0.01579577902819675 0.066565323146414515 -0.058162638091645361 -0.046428294290193788 -0.00050644461911347857 0.017247263188942621 0.042204034398250594 0.0096333058813469069 0.083933992285969483 -0.042137797941957052 -0.047901224262441373 0.019792447739324821 -0.0041611030496961033
leaf_weight=576.09470850229263 2077.7976084277034 114.91144536435604 188.20598931610584 12.916743487119673 133.30403836071491 367.96433877944946 51.469647720456123 17.484236985445023 737.04989140480757 106.40176410973072 4666.6664878204465 4.3219017833471289 2425.3917505741119 1455.5494941622019 223.99849736690521 181.45990550518036 15.574077576398848 833.27728939056396 38.725816681981087 795.95439342409372 666.95231272280216 4432.0956927239895 19741.139815658331 1074.8623892515898 17031.939441055059 57.72082606703043 1523.2143703848124 42.33631731569767 117.40036199986935 715.61839084327221
leaf_count=3290 18151 752 1120 81 978 2189 333 105 6730 943 41953 27 21493 12614 1736 1509 129 7076 307 6879 5786 29100 119388 6363 111402 499 13191 366 1016 4389
internal_value=-0.000230045 0.0130747 0.0189568 0.0779693 0.00691144 0.0182438 0.0675919 0.0866872 -0.0372679 -0.0436256 -0.0402729 -0.0339139 -0.040737 -0.0287165 -0.0170423 0.0173456 -0.0494198 -0.0260888 -0.0269784 -0.0344069 -0.0294425 0.00726278 0.0175367 0.0322399 0.00927145 -0.0415285 -0.0338874 0.0281307 -0.0376907 0.0164977
internal_weight=60427.8 44458 22745.8 270.077 21712.3 22475.7 257.16 205.69 15969.8 5510.12 4773.07 10459.7 4518.76 5940.91 1948.74 405.458 2440.97 1543.28 1538.96 3992.18 1500.23 21578.9 21899.6 1442.83 17146.9 2536.63 1740.67 100.057 1640.61 20456.8
internal_count=419895 279490 137258 1639 142232 135619 1558 1225 140405 49626 42896 90779 39773 51006 16441 3245 21622 13196 13169 34565 12862 141254 132329 8552 112154 21951 15072 865 14207 123777
is_linear=0
shrinkage=0.1


Tree=8
num_leaves=31
num_cat=0
split_feature=34 7 33 17 24 6 7 7 24 17 12 13 13 33 23 34 24 23 7 17 33 20 17 23 17 25 7 17 17 25
split_gain=2464.25 134.729 69.702 55.2523 46.8325 56.8479 121.667 51.3353 41.8688 41.6309 40.0605 39.7557 38.4521 37.9909 38.8759 36.4247 59.7032 75.024 52.8775 46.5405 43.0993 42.4065 63.9927 48.282 41.4204 40.9209 38.5261 39.1574 35.723 34.9189
threshold=2310.580444335938 1241.9481201171877 1516.233825683594 75.948604583740249 -0.012028106488287447 1193.314147949219 1217.932556152344 1075.927429199219 0.19689231365919116 301.80923461914068 0.027120764367282394 -0.031671388074755662 0.015332003124058248 1235.9507446289065 -1.4667815566062925 1557.3483886718752 -0.15939936041831967 0.59083849191665661 1791.270446777344 461.70382690429693 1555.2595825195315 78.08551406860353 326.69381713867193 -0.33473376929759974 385.14845275878912 0.18801429867744449 1553.3554687500002 72.609611511230483 295.57151794433599 0.0031223860569298272
decision_type=2 2 2 2 2 2 2 2 2 2 2 2 2 2 2 2 2 2 2 2 2 2 2 2 2 2 2 2 2 2
left_child=1 3 9 13 -5 7 8 11 -7 -3 -10 -6 -8 -1 -15 16 26 24 19 21 -19 23 -23 -17 25 -18 27 29 -9 -4
right_child=-2 2 15 4 5 6 12 28 10 -11 -12 -13 -14 14 -16 18 17 20 -20 -21 -22 22 -24 -25 -26 -27 -28 -29 -30 -31
leaf_value=-0.0056279095632624692 -0.034551154599597227 -0.025612019879769687 0.26735422935387393 0.02132604327153146 -0.0088865859161302522 0.02650209735695104 0.045459643366803665 0.0018840841252498173 0.15011104078272258 0.021568212609932177 0.062800509805022192 0.014876125318806286 -0.027999520503947189 0.35086178652635974 0.049007972697789268 0.010846667446382102 0.1506267951833821 0.091595428902092949 0.0090856680818449144 -0.056788107985662528 -0.043498847741420092 0.031820507276639001 0.28409998189526497 -0.013975533063343993 -0.082766063228921771 -0.0056032458544351326 0.0339781981742776 -0.064980553211390443 -0.037358885041513606 -0.0031684915153102032
leaf_weight=1578.1137366369367 15533.22733977437 1143.7714199870825 5.9339749962091473 11545.12440341711 738.08070066571236 80.936505883932114 111.24655611813068 1187.302180416882 119.65511044859886 222.51976899802685 98.258644133806229 14788.133944556117 194.10159280896187 3.643114134669303 64.348550572991371 1233.9743123650551 114.70373812317848 34.709986910223961 8450.2389436215162 166.5440738350153 68.707329623401165 108.22491130977869 10.153894342482088 2142.1901883855462 9.2817894369363767 19.381005361676216 150.73795486986637 106.76966866850853 287.1483791321516 14.998735859990118
leaf_count=10156 140405 8276 38 68666 4399 506 699 7637 745 1466 622 89647 1230 22 399 8439 714 220 54653 1241 439 752 73 14674 58 121 944 689 1869 96
internal_value=-0.000230443 0.0116699 0.00353594 0.0153679 0.0163744 0.0131256 0.0432529 0.0120518 0.0884997 -0.0179106 0.111255 0.0137454 -0.0011427 -0.00245001 0.0701779 0.00585681 0.0316169 0.0673231 0.00473635 -0.00529943 0.00219009 -0.00282716 0.055742 -0.00489963 0.113897 0.128097 -0.000121724 -0.0404017 -0.00577182 0.0817562
internal_weight=60332.2 44798.9 14002.8 30796.1 29150 17604.9 604.198 17000.7 298.85 1366.29 217.914 15526.2 305.348 1646.11 67.9917 12636.6 525.224 246.784 12111.3 3661.09 103.417 3494.54 118.379 3376.16 143.367 134.085 278.44 127.702 1474.45 20.9327
internal_count=419895 279490 92893 186597 176020 107354 3802 103552 1873 9742 1367 94046 1929 10577 421 83151 3319 1552 79832 25179 659 23938 825 23113 893 835 1767 823 9506 134
is_linear=0
shrinkage=0.1


Tree=9
num_leaves=31
num_cat=0
split_feature=33 7 33 17 17 34 14 17 16 17 33 17 33 24 6 7 17 17 33 34 17 33 7 6 34 14 16 34 14 33
split_gain=2036.02 111.979 55.7245 43.8731 40.8542 101.137 99.6338 89.5289 50.1585 37.6699 85.3633 63.1407 46.6585 37.2498 52.8706 99.0205 44.7581 36.3326 47.923 58.1009 41.6119 37.6148 55.6455 41.784 39.537 49.9588 35.7179 48.1825 35.1917 34.9783
threshold=67129.574218750015 1241.9481201171877 1516.233825683594 75.948604583740249 13.203453540802004 2310.580444335938 0.025730942375957969 4.542950153350831 0.046193746849894531 41.161884307861335 67560.015625000015 59.20653152465821 82374.523437500015 0.016896836459636692 1193.314147949219 1217.932556152344 616.58825683593761 2125.318969726563 47.820173263549812 46.522899627685554 2524.5666503906255 61.887718200683601 48.203269958496101 47.725809097290046 62.367406845092781 0.079649571329355254 0.068407136946916594 1197.026062011719 0.063569564372301116 82666.445312500015
decision_type=2 2 2 2 2 2 2 2 2 2 2 2 2 2 2 2 2 2 2 2 2 2 2 2 2 2 2 2 2 2
left_child=1 3 -3 -1 6 -6 7 -4 -9 -2 11 -11 -12 17 16 26 -15 21 19 28 -21 22 23 -5 25 -23 27 -16 -19 -14
right_child=9 2 4 13 5 -7 -8 8 -10 10 12 -13 29 14 15 -17 -18 18 -20 20 -22 24 -24 -25 -26 -27 -28 -29 -30 -31
leaf_value=-0.0021951760330509813 -0.03292234981107546 -0.016336547347226085 -0.063589063555971867 0.018492077978638884 0.0052406553378896081 -0.10360333044973447 -0.039609038528769389 0.011034754795579228 0.283794838174524 0.54211967308983156 -0.064349912914181337 -0.014900045857609035 0.1914645680939541 0.00028319359302748362 0.0034978759821833803 -0.0038578818985999111 0.015130684084932533 -0.057932922923897547 -0.0015486987406028606 0.0059820590836861835 0.14674046101040378 0.060221693738467336 0.0053960315860243149 0.05501429677206942 0.020358792097680652 -0.11981526919150441 0.062550223212403097 0.22319967592109899 0.20737024749990274 0.011702807404349235
leaf_weight=1643.2686155959964 14666.39875280112 1349.8188417702913 13.302201852202414 1617.9023548960686 12680.853765949607 84.941578097641468 46.230603158473969 8.6137208715081197 32.928401306271553 4.0342743322253218 90.026126131415367 3.2710332423448563 10.565178312361239 4465.8897767886519 14.388182222843168 289.98636454343796 3724.036851733923 45.097594559192657 1652.436276242137 30.898042380809784 66.198781505227089 371.14864349365234 4259.2753733247519 388.75488136708736 12189.336345598102 15.137139186263083 256.7721192240715 32.551819920539856 4.6129878610372534 175.68901822715998
leaf_count=10577 136089 9742 122 9152 83151 774 424 79 302 37 834 30 77 28225 85 1836 22471 292 10246 188 347 2143 25979 2068 71155 88 1534 187 24 1637
internal_value=-0.000227424 0.0103361 0.00298391 0.0137 0.00501264 0.00450758 0.068034 0.158034 0.229062 -0.0322243 0.00383047 0.31974 -0.00560964 0.0145881 0.00912971 0.0379246 0.00703673 0.0169099 0.00332417 0.0578793 0.102568 0.0182064 0.0118698 0.0255965 0.0213617 0.0528497 0.0777333 0.157542 -0.0295126 0.0229211
internal_weight=60234.4 45284.4 14216.7 31067.7 12866.9 12765.8 101.075 54.8443 41.5421 14950 283.586 7.30531 276.28 29424.4 8783.63 593.698 8189.93 20640.8 1799.24 146.807 97.0968 18841.6 6265.93 2006.66 12575.6 386.286 303.712 46.94 49.7106 186.254
internal_count=419895 281191 94594 186597 84852 83925 927 503 381 138704 2615 67 2548 176020 54338 3642 50696 121682 11097 851 535 110585 37199 11220 73386 2231 1806 272 316 1714
is_linear=0
shrinkage=0.1


Tree=10
num_leaves=31
num_cat=0
split_feature=34 33 33 6 14 17 6 5 34 34 5 33 33 13 34 13 33 13 14 15 13 34 17 33 34 13 5 5 5 17
split_gain=1680.83 86.2998 35.3937 51.1362 34.2193 33.583 32.2762 39.3213 55.2306 36.4023 39.1674 43.1931 35.4774 38.7917 36.686 33.5826 33.3356 35.5254 32.1195 32.0706 34.5016 31.6289 31.2651 42.1838 57.999 40.7183 34.6066 77.6729 36.5129 34.5789
threshold=2310.580444335938 1077.6834716796877 1125.1502685546877 1128.7719726562502 0.064755678176879897 345.89535522460943 84020.230468750015 85533.839843750015 85658.003906250015 79628.179687500015 82664.929687500015 82520.878906250015 80842.492187500015 0.039040096104145057 80126.167968750015 -0.01277812849730253 70607.144531250015 0.091069024056196227 0.071383319795131697 37.971944808959968 -0.0059259317349642507 46.303569793701179 1330.752624511719 71.051811218261733 73.729152679443374 0.091069024056196227 46.85606765747071 47.151132583618171 46.372087478637702 797.98803710937511
decision_type=2 2 2 2 2 2 2 2 2 2 2 2 2 2 2 2 2 2 2 2 2 2 2 2 2 2 2 2 2 2
left_child=1 21 -3 18 5 -5 9 -8 -9 16 11 12 13 14 -11 -12 -2 -18 -4 20 -13 -1 26 -24 25 -25 28 29 -23 -28
right_child=6 2 3 4 -6 -7 7 8 -10 10 15 19 -14 -15 -16 -17 17 -19 -20 -21 -22 22 23 24 -26 -27 27 -29 -30 -31
leaf_value=0.035802438746056924 -0.022991922414560887 -0.014851498358421792 0.055635297468477965 0.0072066931629394676 -0.01340988001377384 -0.0066033853191358105 -0.042775472459730172 0.029016718448869661 -0.029965721682935587 -0.013016127495192514 -0.013168333422702206 -1.9087669707391274e-07 -0.027273019060735922 -0.083389463400049851 0.054079211855537768 -0.033564864091938755 -0.041672511585753719 0.10221015572202169 -0.074086156538119424 0.012180663360173786 0.19697975099210671 0.10825044682528442 0.00033893340365931087 0.039395035243391975 0.0075066602280895942 0.1589323356571789 0.10576795998349689 0.014459584734334627 -0.021065833046997676 0.020651371104842997
leaf_weight=599.62693141400814 1936.0433754250407 918.59132125973701 272.64785465598106 15314.182959519327 998.40547063946724 1988.0876474231482 3193.0813441202044 172.48992309719324 1873.5095476284623 159.31457693874836 1256.5062298253179 15.58610378205776 901.19361409544945 38.855400182306767 164.76628368347883 2276.4414122030139 2395.0958317369223 16.325097396969795 19.603771544992924 355.80428475141525 19.394183844327927 22.103146463632584 3991.9413440525532 507.36409355700016 1377.3630747199059 29.428389608860016 134.46172058582306 18716.910295799375 394.90870533883572 75.086624756455421
leaf_count=3290 18151 6640 1511 99650 6538 12960 31573 1659 18031 1463 11601 131 8212 359 1510 21327 23146 131 113 2955 156 123 24144 2997 8245 157 750 109728 2216 428
internal_value=-0.00022275 0.00931856 0.00429703 0.00524436 0.00457965 0.005619 -0.029516 -0.0358325 -0.0249765 -0.0260411 -0.0203723 -0.00766216 -0.0166475 0.00971136 0.0211265 -0.0263194 -0.0327971 -0.0406523 0.0466767 0.0213468 0.111373 0.0131082 0.0125675 0.00619481 0.0183954 0.0462503 0.0145123 0.0151405 -0.0139451 0.0755589
internal_weight=60135.1 45360.7 19511.5 18592.9 18300.7 17302.3 14774.4 5239.08 2046 9535.33 5187.86 1654.91 1264.13 362.936 324.081 3532.95 4347.46 2411.42 292.252 390.785 34.9803 25849.2 25249.6 5906.1 1914.16 536.792 19343.5 18926.5 417.012 209.548
internal_count=419895 279490 127412 120772 119148 112610 140405 51263 19690 89142 47714 14786 11544 3332 2973 32928 41428 23277 1624 3242 287 152078 148788 35543 11399 3154 113245 110906 2339 1178
is_linear=0
shrinkage=0.1


Tree=11
num_leaves=31
num_cat=0
split_feature=33 5 7 17 5 5 7 23 23 33 33 34 17 12 5 7 17 34 24 33 14 17 17 33 24 5 7 23 17 13
split_gain=1388.72 75.7108 46.6036 32.313 60.2221 43.1267 89.7706 31.4513 31.5448 32.0042 65.1736 30.4159 97.5235 60.7801 43.2938 81.4103 76.472 62.3067 36.5853 38.7171 33.1454 29.556 29.2041 48.8939 31.0915 40.0895 67.7406 37.0786 84.2102 36.169
threshold=67129.574218750015 1241.7090454101565 1791.270446777344 41.161884307861335 67486.652343750015 85154.949218750015 85341.414062500015 0.99311572313308727 34.405784606933601 1888.1044921875002 1812.1102294921877 1798.0086059570315 74.273181915283217 0.013889449182897808 1866.5008544921877 1923.607604980469 181.23587799072268 2057.8076171875005 -0.77567934989929188 1836.1541748046877 0.031462494283914573 59.20653152465821 75.948604583740249 1235.9507446289065 -0.012028106488287447 1193.3713378906252 1217.932556152344 0.50334239006042492 139.98225402832034 -0.024513180367648598
decision_type=2 2 2 2 2 2 2 2 2 2 2 2 2 2 2 2 2 2 2 2 2 2 2 2 2 2 2 2 2 2
left_child=1 22 -3 -2 21 -6 -7 11 9 10 -9 12 13 20 18 16 -16 -17 19 -13 -4 -5 23 -1 -24 27 -27 29 -29 -26
right_child=3 2 7 4 5 6 -8 8 -10 -11 -12 14 -14 -15 15 17 -18 -19 -20 -21 -22 -23 24 -25 25 26 -28 28 -30 -31
leaf_value=-0.0056244599549433788 -0.028133730709162277 -0.0049294313915497013 0.046544842177149694 0.36619073057007456 -0.021772008930749084 0.49269926535980579 0.03650229207479621 -0.082743790379375015 0.22203694429492982 -0.015775280091286446 0.061436857883772816 0.067834996036637243 0.020278099663855971 -0.011872327419750155 0.059389155390226579 -0.0096928462285425735 -0.0032373017898631642 0.013974314099040994 -0.017597751708683686 -0.021650536219364219 0.3710921341935578 -0.0068882368360580343 0.015696917427429662 0.078539423793500457 -0.0071413139128059869 0.06460162320054505 -0.0013747577260305229 0.025185589686530858 -0.04606246969842296 0.010463109780923177
leaf_weight=1577.4583787098527 13984.190067574382 5552.0719154775143 4.3613597601652208 5.7617098540067655 219.26197534799576 3.7919216305017462 46.326770231127739 39.253517135977745 4.9317530393600455 1051.1528504118323 141.04734097421169 112.24857315421104 207.27359206974506 8.2346615940332395 606.97970759868622 1609.4523130655289 286.44759517908096 3593.7962996214628 966.44329276680946 83.480123236775398 15.592144668102263 2.9668613374233246 11880.595343306661 71.17544949054718 1261.2946853041649 334.19973123073578 289.86496131122112 294.51062117516994 377.11614223569632 15411.736246824265
leaf_count=10156 136089 38274 28 37 2073 37 440 256 42 7019 927 721 1334 53 3870 10272 1832 23154 6209 537 100 28 68745 418 7423 1909 1819 1903 2450 91740
internal_value=-0.000216098 0.00827226 0.00223208 -0.0274624 0.00624027 -0.00254099 0.0801764 0.00678745 -0.00798031 -0.00908902 0.0297087 0.00922586 0.0445337 0.215742 0.00807319 0.0114456 0.0393177 0.00665129 -0.00960447 0.0297017 0.306238 0.250679 0.0110107 -0.00193944 0.0117264 0.0090998 0.0339878 0.00820184 -0.0148141 0.00913041
internal_weight=60043 45780.7 14282.8 14262.3 278.109 269.381 50.1187 8730.7 1236.39 1231.45 180.301 7494.31 235.462 28.1882 7258.85 6096.68 893.427 5203.25 1162.17 195.729 19.9535 8.72857 31498 1648.63 29849.3 17968.7 624.065 17344.7 671.627 16673
internal_count=419895 281191 94628 138704 2615 2550 477 56354 8244 8202 1183 48110 1515 181 46595 39128 5702 33426 7467 1258 128 65 186563 10574 175989 107244 3728 103516 4353 99163
is_linear=0
shrinkage=0.1


Tree=12
num_leaves=31
num_cat=0
split_feature=33 33 5 17 33 17 24 33 15 14 5 17 5 14 17 17 7 7 15 23 13 15 5 5 25 24 17 5 33 5
split_gain=1143.83 61.1813 69.0947 84.0889 77.5788 56.2973 65.9958 50.4984 40.3525 36.0633 35.1948 34.0071 77.2725 69.8259 59.6856 31.8476 31.6164 72.4848 30.7612 30.2696 29.4205 36.3867 29.07 29.0234 32.9123 30.4131 27.3155 43.4562 38.0251 28.8907
threshold=67129.574218750015 1151.7087402343752 1138.2901611328127 79.235759735107436 1134.6267700195315 301.80923461914068 -0.078752785921096788 1160.0826416015627 0.89748951792716991 0.067666113376617446 1145.6336059570315 13.203453540802004 2314.2727050781255 0.025730942375957969 4.3126897811889657 199.0315856933594 2209.1394042968755 2217.9199218750005 30.806496620178226 -0.37962943315505976 -0.0055264497641474 1.5241020321846011 2208.9638671875005 1241.7090454101565 -0.16010076552629468 0.23725953698158267 41.161884307861335 67486.652343750015 82374.523437500015 84022.175781250015
decision_type=2 2 2 2 2 2 2 2 2 2 2 2 2 2 2 2 2 2 2 2 2 2 2 2 2 2 2 2 2 2
left_child=1 2 4 -4 -1 9 10 20 15 -5 -7 13 16 14 -10 23 22 -18 -16 -17 -3 -22 -13 24 -9 -26 29 -28 -29 -2
right_child=26 7 3 5 -6 6 -8 8 11 -11 -12 12 -14 -15 18 19 17 -19 -20 -21 21 -23 -24 -25 25 -27 27 28 -30 -31
leaf_value=0.010078158191023114 -0.022470031769998469 -0.0010472227059319405 -0.021744828061643171 0.099107974800777543 -0.045505551530243792 0.049863531598073087 -0.059149465061097674 -0.015971786471795167 -0.092256804423069369 -0.076707499690305228 0.25724645845360156 0.00086836080893111847 -0.0959929113201336 -0.036114970541486692 0.0030089166673434157 -0.052240594445342528 0.06267567374055516 0.0069804267686620382 0.20502369962043776 0.015435855824437534 -0.053117602831682431 0.24801668141509717 -0.10332798414032683 -0.0026822579740287179 0.036404800810499904 0.088989773544881801 0.20044136048306918 -0.058383492446337316 0.022751029782133871 -0.032077223662036886
leaf_weight=27687.247458331287 8795.2684499770403 228.4547199010849 137.89879958331585 278.51680777966976 252.36596170812845 43.293080925941467 63.154476091265678 78.84109765291214 9.7143834233283979 11.407218143343924 9.387778311967848 13357.249467007816 79.000747829675674 44.497630149126053 9.2855095788836461 91.985510498285294 262.47616386413574 2076.0505402982235 42.287502385675907 227.31448301672935 287.01926340907812 3.0853481218218795 25.828235149383545 171.89239114522934 351.44968177378178 161.85993725061417 10.005818963050841 82.542284943163395 186.14044110476971 4889.4687741622329
leaf_count=162018 85801 1431 896 1606 1615 262 410 466 95 67 54 87611 762 424 86 570 1604 13168 322 1397 1840 21 170 1239 2105 952 65 836 1714 50288
internal_value=-0.000207575 0.00740301 0.0102626 0.0455449 0.00957413 0.0684354 0.00929621 0.00274998 0.00368943 0.0919162 0.0911094 0.00241615 0.00203526 0.0586626 0.127111 0.0223558 0.00253456 0.0132601 0.169591 -0.00413172 -0.0279582 -0.0490396 0.000658818 0.0334292 0.0439155 0.0531464 -0.0252741 0.0056712 -0.00226137 -0.0259054
internal_weight=59955 45991.6 28483.3 543.658 27939.6 405.759 115.835 17508.3 16989.7 289.924 52.6809 15906.4 15800.6 105.785 61.2874 1083.34 15721.6 2338.53 51.573 319.3 518.559 290.105 13383.1 764.043 592.151 513.31 13963.4 278.689 268.683 13684.7
internal_count=419895 281191 166928 3295 163633 2399 726 114263 110971 1673 316 104242 103315 927 503 6729 102553 14772 408 1967 3292 1861 87781 4762 3523 3057 138704 2615 2550 136089
is_linear=0
shrinkage=0.1


Tree=13
num_leaves=31
num_cat=0
split_feature=34 33 33 17 23 12 17 23 5 12 17 17 7 23 6 7 17 7 34 7 33 23 14 5 33 7 7 23 34 12
split_gain=942.481 48.1921 69.5053 34.6766 58.829 32.0256 31.7564 32.0748 30.4773 28.2666 26.9222 41.3222 29.1766 42.0804 42.7711 66.4521 65.0831 61.9785 40.9982 56.0792 52.0479 33.7196 31.0822 29.7395 37.8143 32.5395 80.4464 34.6484 28.4431 28.9056
threshold=2310.580444335938 78.331878662109389 77.841785430908217 1414.637390136719 0.061919197440147407 0.088204320520162596 881.38949584960949 0.019074440933763984 78.204360961914077 -0.11650575697422026 66.017959594726577 49.475072860717781 84071.050781250015 44.322124481201179 86509.148437500015 85341.414062500015 10.433732509613039 84585.593750000015 86421.140625000015 87676.304687500015 88106.546875000015 4.1615595817565927 0.11803750693798067 78830.558593750015 70607.144531250015 82578.757812500015 82458.480468750015 -23.776628494262692 82361.421875000015 -0.036581916734576218
decision_type=2 2 2 2 2 2 2 2 2 2 2 2 2 2 2 2 2 2 2 2 2 2 2 2 2 2 2 2 2 2
left_child=1 2 -1 4 6 9 7 8 -4 -3 11 12 22 18 15 17 -17 -15 -14 21 -21 -20 23 24 -2 26 -25 -27 -13 -30
right_child=10 5 3 -5 -6 -7 -8 -9 -10 -11 -12 28 13 14 -16 16 -18 -19 19 20 -22 -23 -24 25 -26 27 -28 -29 29 -31
leaf_value=0.0092073266484998025 -0.015979869334156127 -0.048533275517640813 0.046199213962521087 0.0051030908416371326 0.30041575375012336 -0.03205066368435374 0.13598168694666565 -0.048477066650587361 0.19919532410326607 0.0039874856306322875 -0.084412438042054949 -0.022277712072242162 -0.037619554977398502 0.050475778263389851 -0.055209360201499892 0.015777205901061526 0.20898138329515148 -0.067024845290640317 -0.011165978187089297 -0.085540058564622698 -0.017307154483329156 0.044806529604800992 0.19234887651498922 -0.011475988390123633 -0.035917030603918029 -0.0012584181691667965 0.057722429502558674 -0.025251468770526638 0.31659772784395113 0.063677375148149126
leaf_weight=23553.093498811126 1776.9957060739398 101.93512426316738 101.57663622498512 87.07023885846138 10.599810838699339 251.84760430455208 49.130667105317116 29.651005521416664 14.234676897525786 21798.790684551001 70.374128386378288 39.319471381604671 3322.7751450240612 91.251060426235199 87.286726757884026 36.971393048763275 32.509747810661793 86.417798563838005 256.68488235771656 150.259759940207 433.5868022069335 183.73956418782473 5.897404506802558 1355.4746718779206 2059.6659786850214 762.38703861832619 190.7371865734458 2875.8013984709978 4.1126038804650298 52.080349259078503
leaf_count=135619 17515 652 550 501 58 1709 270 188 72 139871 712 391 35428 885 846 356 312 848 2659 1558 4488 1899 60 13089 21394 7322 1585 28552 37 469
internal_value=-0.000199832 0.00669071 0.00981068 0.0582031 0.0805527 0.00333159 0.0670506 0.0429309 0.0666343 0.00374037 -0.0230438 -0.0227241 -0.0231823 -0.0295962 0.00454638 0.0258282 0.108 -0.00667559 -0.0322257 -0.0146985 -0.035001 0.012211 -0.0198519 -0.020013 -0.0266921 -0.0150641 -0.00290158 -0.0202282 0.042486 0.0875747
internal_weight=59872.3 45997.9 23845.4 292.263 205.193 22152.6 194.593 145.462 115.811 21900.7 13874.3 13804 13708.4 4681.48 334.437 247.15 69.4811 177.669 4347.05 1024.27 583.847 440.424 9026.96 9021.06 3836.66 5184.4 1546.21 3638.19 95.5124 56.193
internal_count=419895 279490 137258 1639 1138 142232 1080 810 622 140523 140405 139693 138796 49279 3247 2401 668 1733 46032 10604 6046 4558 89517 89457 38909 50548 14674 35874 897 506
is_linear=0
shrinkage=0.1


Tree=14
num_leaves=31
num_cat=0
split_feature=33 7 5 17 14 17 17 34 7 33 7 16 5 25 24 24 34 14 14 7 14 17 13 20 17 24 33 17 17 34
split_gain=777.029 42.4373 41.7199 34.4479 32.5399 55.6088 31.407 30.2766 28.8556 39.3613 31.1235 27.3264 32.296 26.5873 25.4086 27.4544 25.2358 26.8274 27.6595 37.8692 36.9211 30.9367 26.5865 25.0005 25.0504 24.9019 33.1386 24.7784 37.4466 54.0164
threshold=67129.574218750015 1241.9481201171877 1486.3017578125002 289.68722534179693 0.046636741608381278 392.53288269042974 82.623004913330092 2310.580444335938 2294.7653808593755 2268.940307617188 2209.1394042968755 0.070501178503036513 1241.7090454101565 0.39031410217285162 0.47326387465000158 0.87191197276115429 46.303569793701179 0.041737107560038574 0.079649571329355254 46.374521255493171 0.083780623972415938 1869.4587402343752 0.070711173117160811 71.781394958496108 187.18266296386722 -1.6742072105407713 1711.5186157226565 6.6408889293670663 16.707531929016117 67413.070312500015
decision_type=2 2 2 2 2 2 2 2 2 2 2 2 2 2 2 2 2 2 2 2 2 2 2 2 2 2 2 2 2 2
left_child=1 13 3 11 14 -6 25 8 9 10 -8 12 -3 16 -5 -16 17 22 21 20 -20 -19 -1 -10 -25 26 -4 -2 -29 -30
right_child=27 2 6 4 5 -7 7 -9 23 -11 -12 -13 -14 -15 15 -17 -18 18 19 -21 -22 -23 -24 24 -26 -27 -28 28 29 -31
leaf_value=0.054291520252157027 -0.027026793288525825 0.20740381668331043 0.30568782819955853 -0.024365330154767544 0.16014748289244585 -0.016251115183522222 -0.0020893116163927441 -0.093122961706736451 0.023691655618547122 -0.045370573100855571 0.014271525364952867 -0.034600112193690878 -0.00013864588158348388 -0.048566183330484625 0.17520270616351521 -0.09725187527938238 0.0077253726146127091 -0.015408828823760119 0.20726802619889356 0.28044076476063567 -0.089054927227877723 0.11137307585724215 -0.054074635923574824 0.20998054288804524 0.0052135997244222481 0.0090560761860066473 0.041186240551209369 -0.013053949969989251 0.10260968816242544 -0.028133420744537885
leaf_weight=319.99392010271549 4902.7626693174243 6.8269930034875861 3.9416689276695243 125.07477527856827 35.582999289035797 34.430683240294456 7698.180521287024 33.829427346587181 195.2343206256628 191.02520827949047 1368.5185309350491 713.61008203774691 175.99324970692396 81.919547721743584 12.490169733762743 4.3058069646358481 31300.583583578467 232.95822642743587 5.508435443043715 7.2771310508251181 10.87391337752342 19.966650262475014 23.48051980137825 14.340694323182108 10.03774209320545 3570.9068866893649 151.15518340468407 5416.0863005667925 30.936434127390385 3098.3696323633194
leaf_count=1702 50725 41 27 842 225 218 50450 382 1232 1203 8527 5404 1342 537 84 29 182770 1230 29 39 57 111 122 94 67 23258 1169 55988 267 31724
internal_value=-0.000191024 0.00594928 0.00142877 -0.0171982 0.0189706 0.0742517 0.0029903 -5.76811e-05 0.000283251 -0.000567374 0.000380376 -0.02577 0.00864327 0.00797523 -0.00856956 0.103254 0.00812216 0.0280913 0.00483782 0.105955 0.016198 -0.00496171 0.0467189 0.0360265 0.12959 0.0107713 0.0498877 -0.0213527 -0.0180934 -0.0268053
internal_weight=59796.2 46348 14345.5 1108.31 211.884 70.0137 13237.2 9511.17 9477.34 9257.72 9066.7 896.43 182.82 32002.6 141.871 16.796 31920.6 620.059 276.584 23.6595 16.3823 252.925 343.474 219.613 24.3784 3726 155.097 13448.2 8545.39 3129.31
internal_count=419895 281191 94594 8185 1398 443 86409 61955 61573 60180 58977 6787 1383 186597 955 113 186060 3290 1466 125 86 1341 1824 1393 161 24454 1196 138704 87979 31991
is_linear=0
shrinkage=0.1


Tree=15
num_leaves=31
num_cat=0
split_feature=33 7 33 5 23 25 23 17 34 5 33 34 23 7 23 14 17 14 14 17 23 14 34 15 23 23 14 17 17 23
split_gain=638.26 34.1237 34.4529 33.3869 47.3347 60.8351 37.4271 36.9146 36.1381 32.8759 69.4278 68.0943 64.4828 49.9329 51.7623 46.3476 45.0919 40.0374 32.7979 31.225 29.2554 25.8721 26.8809 24.7168 24.5583 22.6143 32.0124 22.1532 29.2015 83.9769
threshold=67129.574218750015 1241.9481201171877 1516.233825683594 1559.572204589844 -0.1242244206368923 0.22893811762332919 0.6248498558998109 628.82611083984386 1550.8850708007815 1678.3731689453127 1622.684509277344 1706.9002685546877 0.56001666188240062 1791.270446777344 -0.42770737409591669 0.031812559813261039 345.89535522460943 0.064755678176879897 0.095564171671867384 301.80923461914068 1.2139948010444643 0.03481265343725682 1550.8850708007815 1.3139399886131289 0.99311572313308727 -0.75111299753189076 0.041573068127036102 75.948604583740249 160.9678649902344 0.50334239006042492
decision_type=2 2 2 2 2 2 2 2 2 2 2 2 2 2 2 2 2 2 2 2 2 2 2 2 2 2 2 2 2 2
left_child=1 27 19 4 7 6 -6 21 -8 10 16 12 15 14 -13 -11 18 -14 -5 -3 -18 -4 -23 -7 -15 26 -12 -1 -29 -30
right_child=-2 2 3 9 5 23 8 -9 -10 11 25 13 17 24 -16 -17 20 -19 -20 -21 -22 22 -24 -25 -26 -27 -28 28 29 -31
leaf_value=-0.0040949204405603184 -0.019562702566460841 -0.02100069617155044 -0.042059558314616413 0.0023595043668214128 0.11409776074065148 0.055052849575649522 0.084876989737392064 0.21152569007171521 -0.075345369093086756 0.073231594840027225 -0.062146992811499741 0.013293529945116324 0.13397769258570055 0.0071268588288698892 -0.02493492494586896 -0.0009067527631764175 -0.063981004503793071 -0.071832784988628037 0.1418535513984466 0.019843446957318902 0.1433569241599188 -0.018489255963279379 0.059499882233722323 -0.088001663135029565 -0.0080671434523284912 -0.076744957831849162 0.092467524677651514 0.016981337125888649 0.0074209959379950043 -0.036853846855444322
leaf_weight=1661.332557104528 13225.07141841948 1101.4422980472445 114.9774372279644 1067.1726793423295 135.00973722338676 17.952246904373169 31.717128209769726 7.063766971230506 23.701187402009964 120.58781903982162 34.525828406214714 500.61359475553036 87.513057850301266 7582.7155698686838 1203.4934470951557 274.19759030640125 140.80962754786015 9.8877401649951917 16.131439484655857 224.37698574364185 6.1957685351371756 91.65773219615221 83.484548717737198 32.524335086345673 1235.9127146303654 191.27726797759533 20.485943123698235 3085.4996734112501 26961.822361722589 434.26590664684772
leaf_count=10577 138704 8276 720 7269 783 112 192 44 147 822 233 3402 602 48110 8293 1877 1023 70 111 1466 43 598 505 205 8244 1309 138 18572 154639 2809
internal_value=-0.000179264 0.00533387 0.00127927 0.00284296 0.0272104 0.0600542 0.0858506 0.000440609 0.0160553 0.00179041 -0.0122147 0.00366971 0.0399874 0.00196641 -0.0136975 0.0218415 -0.00248601 0.112465 0.00457484 -0.0140711 -0.0542653 -0.00537343 0.0187556 -0.0368483 0.00499564 -0.0605663 -0.00376834 0.00714429 0.0077573 0.00671749
internal_weight=59723.4 46498.3 14355.4 13029.6 538.088 240.905 190.428 297.183 55.4183 12491.5 1476.6 11014.9 492.186 10522.7 1704.11 394.785 1230.31 97.4008 1083.3 1325.82 147.005 290.12 175.142 50.4766 8818.63 246.289 55.0118 32142.9 30481.6 27396.1
internal_count=419895 281191 94594 84852 3306 1439 1122 1867 339 81546 10126 71420 3371 68049 11695 2699 8446 672 7380 9742 1066 1823 1103 317 56354 1680 371 186597 176020 157448
is_linear=0
shrinkage=0.1


Tree=16
num_leaves=31
num_cat=0
split_feature=34 24 6 6 25 16 24 6 33 7 6 34 7 33 14 13 6 14 16 34 7 34 24 25 6 34 7 33 24 13
split_gain=523.867 31.6365 26.5865 37.0927 38.9446 32.1676 26.3658 37.0257 79.7367 33.809 33.1836 34.8933 46.1885 50.2168 32.5946 33.6347 51.0204 32.2075 50.3902 32.1632 51.7571 41.9782 41.3298 40.2077 31.9589 66.0635 33.0776 39.0657 31.6467 31.3057
threshold=2310.580444335938 -2.7411074638366695 48.050077438354499 47.725809097290046 0.0015260963700711729 0.090612918138504042 38.962068557739265 88667.363281250015 88106.546875000015 88021.425781250015 84020.230468750015 86421.140625000015 87676.304687500015 88106.546875000015 0.049817390739917762 0.0082071842625737208 87001.152343750015 0.058894792571663863 0.080573156476020827 79628.179687500015 80759.894531250015 80126.167968750015 -20.36452484130859 -9.1151700019836408 86509.148437500015 85269.886718750015 84585.593750000015 84060.613281250015 3.8850928544998173 0.053744824603199966
decision_type=2 2 2 2 2 2 2 2 2 2 2 2 2 2 2 2 2 2 2 2 2 2 2 2 2 2 2 2 2 2
left_child=1 -1 3 -3 -5 -6 10 8 24 -10 19 -12 14 -14 15 -13 -17 28 -19 -2 21 22 -21 -23 25 26 27 -8 -15 -11
right_child=6 2 -4 4 5 -7 7 -9 9 29 11 12 13 17 -16 16 -18 18 -20 20 -22 23 -24 -25 -26 -27 -28 -29 -30 -31
leaf_value=-0.061774752554238858 -0.022121023495832476 0.010295996802106641 0.0043343813379416937 0.012820700867464853 0.12391685886435402 0.030125646379947801 -0.012160048000363676 -0.10298167992050328 0.41264009752107605 0.24303056533775799 -0.031256153421331083 0.00056855256389836035 -0.081301475017560132 0.0072635259419819064 -0.10596513616709545 -0.033264264586371127 0.09987869609823731 0.4968888019238028 -0.076833006555868402 -0.087799922955681023 -0.0124539067440727 -0.067152405651808439 0.025594463100040699 0.084723179647540753 -0.075646970462155724 0.085983156427013763 -0.060256425012704645 0.043295014900459727 -0.050578852980478421 -0.089505270534404033
leaf_weight=70.198720932006836 3692.7059758082032 2364.4490977078676 43703.614062182605 163.24497382342815 84.614649087190628 65.85802748799324 514.55004515498877 33.902321100234985 5.1022821217775318 5.200661763548851 3210.8533081188798 264.6009117513895 135.66448703408241 250.89236554503441 20.096274323761463 39.849430672824383 98.068103663623333 2.1255120635032645 2.5014101639389992 44.270725503563881 4054.3256034180522 19.094731919467449 109.75347763299942 138.3305361494422 54.232956051826477 85.024134762585163 98.347637429833412 167.55099203437567 150.40312672406435 4.414098933339119
leaf_count=468 39465 12889 264519 838 432 344 5294 350 53 54 36464 2837 1553 2725 214 413 1018 23 27 446 41093 187 1108 1331 558 799 1042 1676 1629 46
internal_value=-0.000170443 0.00482526 0.00492761 0.0145992 0.0468642 0.0834028 -0.0177481 -0.00185026 0.00191443 0.225259 -0.0190054 -0.0262458 -0.0095355 -0.0288529 0.015206 0.0215281 0.0613743 -0.0111426 0.226413 -0.0152501 -0.0094325 0.0297809 -0.00728977 0.0659309 -0.00188943 0.00280285 -0.00634466 0.00149071 -0.0144624 0.0953728
internal_weight=59653.8 46452 46381.8 2678.17 313.718 150.473 13201.9 968.325 934.423 14.717 12233.5 4175.05 964.202 541.587 422.615 402.518 137.918 405.922 4.62692 8058.48 4365.78 311.449 154.024 157.425 919.706 865.473 780.449 682.101 401.295 9.61476
internal_count=419895 279490 279022 14503 1614 776 140405 9872 9522 153 130533 46903 10439 5957 4482 4268 1431 4404 50 83630 44165 3072 1554 1518 9369 8811 8012 6970 4354 100
is_linear=0
shrinkage=0.1


end of trees

feature_importances:
volume_sma=81
bb_upper=80
sma_50=65
bb_lower=61
sma_10=49
sma_20=30
macd_signal=28
volatility=27
macd=27
sma20_slope=26
atr=10
macd_hist=8
sma10_slope=6
atr_pct=5
return_10=2
rsi=2
bb_position=2
macd_bullish=1

parameters:
[boosting: gbdt]
[objective: binary]
[metric: binary_logloss]
[tree_learner: serial]
[device_type: cpu]
[data_sample_strategy: bagging]
[data: ]
[valid: ]
[num_iterations: 200]
[learning_rate: 0.1]
[num_leaves: 31]
[num_threads: 8]
[seed: 42]
[deterministic: 0]
[force_col_wise: 1]
[force_row_wise: 0]
[histogram_pool_size: -1]
[max_depth: 8]
[min_data_in_leaf: 20]
[min_sum_hessian_in_leaf: 0.001]
[bagging_fraction: 0.8]
[pos_bagging_fraction: 1]
[neg_bagging_fraction: 1]
[bagging_freq: 0]
[bagging_seed: 400]
[bagging_by_query: 0]
[feature_fraction: 0.8]
[feature_fraction_bynode: 1]
[feature_fraction_seed: 30056]
[extra_trees: 0]
[extra_seed: 12879]
[early_stopping_round: 0]
[early_stopping_min_delta: 0]
[first_metric_only: 0]
[max_delta_step: 0]
[lambda_l1: 0.1]
[lambda_l2: 1]
[linear_lambda: 0]
[min_gain_to_split: 0]
[drop_rate: 0.1]
[max_drop: 50]
[skip_drop: 0.5]
[xgboost_dart_mode: 0]
[uniform_drop: 0]
[drop_seed: 17869]
[top_rate: 0.2]
[other_rate: 0.1]
[min_data_per_group: 100]
[max_cat_threshold: 32]
[cat_l2: 10]
[cat_smooth: 10]
[max_cat_to_onehot: 4]
[top_k: 20]
[monotone_constraints: ]
[monotone_constraints_method: basic]
[monotone_penalty: 0]
[feature_contri: ]
[forcedsplits_filename: ]
[refit_decay_rate: 0.9]
[cegb_tradeoff: 1]
[cegb_penalty_split: 0]
[cegb_penalty_feature_lazy: ]
[cegb_penalty_feature_coupled: ]
[path_smooth: 0]
[interaction_constraints: ]
[verbosity: -1]
[saved_feature_importance_type: 0]
[use_quantized_grad: 0]
[num_grad_quant_bins: 4]
[quant_train_renew_leaf: 0]
[stochastic_rounding: 1]
[linear_tree: 0]
[max_bin: 255]
[max_bin_by_feature: ]
[min_data_in_bin: 3]
[bin_construct_sample_cnt: 200000]
[data_random_seed: 175]
[is_enable_sparse: 1]
[enable_bundle: 1]
[use_missing: 1]
[zero_as_missing: 0]
[feature_pre_filter: 1]
[pre_partition: 0]
[two_round: 0]
[header: 0]
[label_column: ]
[weight_column: ]
[group_column: ]
[ignore_column: ]
[categorical_feature: ]
[forcedbins_filename: ]
[precise_float_parser: 0]
[parser_config_file: ]
[objective_seed: 16083]
[num_class: 1]
[is_unbalance: 0]
[scale_pos_weight: 1]
[sigmoid: 1]
[boost_from_average: 1]
[reg_sqrt: 0]
[alpha: 0.9]
[fair_c: 1]
[poisson_max_delta_step: 0.7]
[tweedie_variance_power: 1.5]
[lambdarank_truncation_level: 30]
[lambdarank_norm: 1]
[label_gain: ]
[lambdarank_position_bias_regularization: 0]
[eval_at: ]
[multi_error_top_k: 1]
[auc_mu_weights: ]
[num_machines: 1]
[local_listen_port: 12400]
[time_out: 120]
[machine_list_filename: ]
[machines: ]
[gpu_platform_id: -1]
[gpu_device_id: -1]
[gpu_use_dp: 0]
[num_gpu: 1]

end of parameters

pandas_categorical:[]
