tree
version=v4
num_class=3
num_tree_per_iteration=3
label_index=0
max_feature_idx=229
objective=multiclass num_class:3
feature_names=open_time sma_5 sma_10 sma_20 sma_50 sma_100 sma_200 ema_5 ema_10 ema_20 ema_50 ema_100 sma_5_10_cross sma_10_20_cross sma_20_50_cross ema_5_20_cross price_dist_sma_10 price_dist_ema_10 price_dist_sma_20 price_dist_ema_20 price_dist_sma_50 price_dist_ema_50 rsi_7 rsi_7_oversold rsi_7_overbought rsi_14 rsi_14_oversold rsi_14_overbought rsi_21 rsi_21_oversold rsi_21_overbought rsi_momentum macd macd_signal macd_histogram macd_cross_up macd_cross_down macd_momentum macd_fast macd_signal_fast stoch_k_14 stoch_d_14 stoch_14_oversold stoch_14_overbought stoch_k_21 stoch_d_21 stoch_21_oversold stoch_21_overbought bb_upper_20 bb_lower_20 bb_middle_20 bb_width_20 bb_position_20 bb_squeeze_20 bb_upper_50 bb_lower_50 bb_middle_50 bb_width_50 bb_position_50 bb_squeeze_50 atr_7 atr_pct_7 atr_14 atr_pct_14 atr_21 atr_pct_21 atr_expansion adx plus_di minus_di adx_strong_trend di_cross obv obv_sma_20 obv_momentum obv_divergence vwap_20 price_vwap_dist_20 vwap_50 price_vwap_dist_50 vwap_100 price_vwap_dist_100 williams_r williams_r_oversold williams_r_overbought cci cci_oversold cci_overbought roc_5 roc_10 roc_20 roc_50 momentum_10 momentum_20 price_acceleration trend_strength body_size body_size_pct upper_wick lower_wick upper_wick_pct lower_wick_pct is_bullish is_bearish is_doji is_hammer is_shooting_star bullish_engulfing bearish_engulfing morning_star evening_star three_white_soldiers three_black_crows return_1 log_return_1 return_2 log_return_2 return_3 log_return_3 return_5 log_return_5 return_10 log_return_10 return_20 log_return_20 return_60 log_return_60 hl_range hl_range_avg hl_range_ratio gap_up gap_down gap_size close_position higher_high lower_low higher_close swing_high swing_low near_resistance near_support breakout_up breakout_down volume_sma_10 volume_sma_20 volume_ratio volume_spike volume_dry volume_momentum pv_trend volume_close_position accumulation_distribution ad_momentum mfi cmf volatility_5 volatility_10 volatility_20 volatility_50 volatility_ratio vol_of_vol parkinson_vol gk_vol high_vol_regime low_vol_regime vol_autocorr zscore_10 zscore_20 zscore_50 hurst_50 mr_momentum_indicator vwap_zscore extreme_oversold extreme_overbought avg_trade_size trade_intensity taker_buy_ratio taker_sell_ratio order_imbalance oi_momentum oi_sma buy_pressure sell_pressure net_pressure volume_delta cum_volume_delta cvd_momentum hour minute day_of_week is_weekend hour_sin hour_cos dow_sin dow_cos asian_session european_session us_session rsi_volume_interaction macd_trend_strength vol_momentum_interaction volume_breakout_up volume_breakout_down mean_reversion_signal order_flow_strength rsi_14_lag_1 rsi_14_lag_2 rsi_14_lag_3 rsi_14_lag_5 rsi_14_lag_10 macd_lag_1 macd_lag_2 macd_lag_3 macd_lag_5 macd_lag_10 return_1_lag_1 return_1_lag_2 return_1_lag_3 return_1_lag_5 return_1_lag_10 volume_ratio_lag_1 volume_ratio_lag_2 volume_ratio_lag_3 volume_ratio_lag_5 volume_ratio_lag_10 order_imbalance_lag_1 order_imbalance_lag_2 order_imbalance_lag_3 order_imbalance_lag_5 order_imbalance_lag_10
feature_infos=[1.0393184713511585:1.5935043387318466] [-0.50724385360880031:-0.5071692503437305] [-0.50724466474712837:-0.50717041244156091] [-0.50724637314075516:-0.5071728051897938] [-0.50725205862793021:-0.50717941665268584] [-0.50727126892983287:-0.50719005316938126] [-0.50746482734497955:-0.50721093088023228] [-0.50724427028523666:-0.50716976508107492] [-0.50724550208838559:-0.50717144746009024] [-0.50724808304928393:-0.50717472219118676] [-0.50725649732908473:-0.50718511466055782] [-0.50728362176125941:-0.50720222686742744] [-0.97714705954405601:1.0233833176210971] [-0.97253501775886086:1.0282364967220081] [-0.9646078965050302:1.0366865160682703] [-0.96453835685597911:1.0367612573328244] [-1.2033513415533676:1.2527119253601988] [-1.544570402929671:1.4379176964774518] [-1.1764423439493172:0.82625901728626872] [-1.4215298283372737:0.99131414572558951] [-1.0353028300352252:0.64000315733827284] [-1.1954744748597803:1.2265798365331129] [-2.1976583416858348:2.2413330889706398] [-0.53480248836224009:1.8698417103133238] [-0.51436675576273805:1.9441303083933565] [-2.9327667237740429:2.9358135714359141] [-0.38541253609094911:2.5946120215664683] [-0.36186303486065774:2.7634654635558569] [-3.4139189085311457:3.3440839374681159] [-0.29734440704066245:3.3630899912341858] [-0.27349883864616553:3.6563080273542585] [-4.9505727143150153:4.3300207622332874] [-0.011265853304506581:-0.0078072589701424118] [-0.011787204995054704:-0.008475697830021868] [-0.0017421808603497973:0.0017485253773145688] [-0.20375135089897475:4.907923282793317] [-0.20376199843448625:4.9076668204117473] [-0.0018529761656888924:0.0026519457926576415] [-0.0083934924381551569:-0.0047561635155816207] [-0.0088436297702097506:-0.0053087065246036624] [-1.6711221701196897:1.7287825835717003] [-1.7930099885452462:1.8548206136586582] [-0.52213621115021802:1.9152013941144492] [-0.49707226845798658:2.0117718548258834] [-1.6708836267496183:1.739462083250366] [-1.754184584021796:1.8261164455401113] [-0.52330231145769635:1.910933656546622] [-0.49494377448661403:2.0204234320033336] [-0.50721741713834712:-0.50714374035056919] [-0.50725924445160575:-0.50718492011731664] [-0.50724637314075516:-0.5071728051897938] [-0.066325185457874719:1.2760232038559389] [-3.1241091016417961:3.090895059774557] [-0.29946680076402765:3.3392549582156521] [-0.5071915630185162:-0.50711940648250831] [-0.50725625239040339:-0.50718174384517689] [-0.50725205862793021:-0.50717941665268584] [-0.072678616583278732:1.1396464478989479] [-3.8498848921960462:3.5672627474484604] [-0.2308605765558458:4.3316014107138345] [-0.30351336697133552:-0.30050417650674105] [-0.64987141477770238:5.3417617511971072] [-0.35740996232129146:-0.35480440636919869] [-0.82577048089529703:5.2284185001749979] [-0.38348201513473562:-0.3810729867713889] [-0.89594129020987645:5.4849354914660546] [-0.88440503478712862:1.1306991256982997] [-2.330218104861169:4.7204947942159432] [-2.1958236368120727:7.1507186968871759] [-2.9582802003581592:8.6409997502714742] [-1.8631849401041651:0.53671322582937731] [-0.17990729068440542:5.5583961886599882] [0.098731651902198792:0.1257697194814682] [0.098828924704565543:0.12562476349495877] [-0.13255804777145386:0.19140461087226868] [-1.1892183673054091:0.84088509485421259] [-0.50724605091566644:-0.50717243286627478] [-0.40152011116068009:0.3741926050149072] [-0.5072528681534334:-0.50718003458493743] [-0.45779158824327143:0.40114074176522757] [-0.50726226358738369:-0.50719003354427383] [-0.57361720466829924:0.93139707075350997] [-1.6712521679372323:1.7286392849054344] [-0.52150338427175114:1.9175254268169939] [-0.49766665436935698:2.0093691042366286] [-4.7606051783348713:4.2256185590630722] [-0.53091062473922401:1.8835486669875825] [-0.50352779441796092:1.9859797425046184] [-0.45854702591896057:0.50871139764785767] [-0.46853238344192505:0.39273777604103088] [-0.53467291593551636:0.44374874234199524] [-0.37251028418540955:0.24707290530204773] [-0.0066566853784024715:-0.0028820910956710577] [-0.0088689709082245827:-0.0045603769831359386] [-0.38304758071899414:0.48138406872749329] [-0.38334739465381379:5.3835313460655163] [-0.29442453384399414:-0.28294041752815247] [-0.0082447053864598274:2.4455583095550537] [-0.33138012886047363:-0.31910768151283264] [-0.33580055832862854:-0.31754085421562195] [-5.4729561805725098:0.0065317517146468163] [-2.7383575439453125:0.0059494921006262302] [-0.95510856268210476:1.0469972091878481] [-0.96267796627957336:1.0387648150547804] [-0.38626091271569252:2.5889132616973196] none none none none [-0.13177369111789797:7.5887378578566738] [-0.13283791139978912:7.527941292740298] [-0.35969637829585965:2.7801113931414627] [-0.36307783666612942:2.7542193391884058] [-0.47383597493171692:0.60858798027038574] [-1.5648571252822876:2.0024392604827881] [-0.43082240223884583:0.48291486501693726] [-1.421760082244873:1.5923733711242676] [-0.41165435314178467:0.52446746826171875] [-1.3571180105209351:1.7262972593307495] [-0.45854699611663818:0.50871139764785767] [-1.5146321058273315:1.674121618270874] [-0.46853235363960266:0.3927377462387085] [-1.5488566160202026:1.3005660772323608] [-0.53467291593551636:0.44374874234199524] [-1.7771543264389038:1.4626246690750122] [-0.3489048182964325:0.22146347165107727] [-1.1266926527023315:0.7676272988319397] [-1.3374158143997192:23.530519485473633] [-2.1125035696027679:12.778369695828419] [-1.6352000532974731:17.917207536567034] [-0.18519492754380101:5.3996943228723939] [-0.18513715536890882:5.4013793011461431] [-0.12271112203598022:0.17436389625072479] [-1.4900918006896973:1.5897930860519409] [-0.97955103609434924:1.0208717695681131] [-0.99117295676808503:1.0089016177970302] [-0.95464924313298072:1.0475009609998447] [-0.559892185276748:1.7860510037955379] [-0.56058855115914619:1.7838323623687908] [-4.6641266035703373:0.2144015555364239] [-4.8581232977859194:0.20583997928643724] [-0.22351007111590196:4.4740534243843495] [-0.2336155422133521:4.2805199929032058] [-0.3144170859317586:-0.20806812185553525] [-0.34395827015056646:-0.2662599706924601] [-0.7201505516361455:12.129449491107492] [-0.38222989770725274:2.6162160662957965] [-0.93896118747386703:1.0650024867263646] [-0.010584802366793156:70.828323364257812] [-1.8698196232326001:1.8975650827536628] [-0.29441632011509822:-0.16695156054532745] [0.21185648441314697:0.22682353854179382] [-0.092826470732688904:0.168582484126091] [-2.1033395696085435:2.1635159743872747] [-3.9956716333460967:3.4191449447772748] [-0.077813604304196607:1.049117604837756] [-0.085061628487496543:0.7244860157586871] [-0.056372151702350701:0.56409927198036103] [-0.038410996921208022:0.39733228652044122] [-2.5585461260144426:3.3352117039415323] [-0.037901186595976667:0.27331585181905521] [-1.6552422875021766:11.928817806644583] [-2.1841675120083344:12.541006866948807] [-0.31242231345406651:3.2007829026091139] [-0.070887978623948703:14.106707746165792] [-8.0196302797358872:1.3203250503863568] [-2.3541831033143357:2.3958957424635408] [-3.1243991775961506:3.0914384051162727] [-3.8508950469191818:3.5691369578186043] [-6.6937121964162065:1.4732026583997364] [-0.49014836207342233:0.053928246030891691] [-0.006338441786477229:-0.0062798238970833272] [-0.24293344215742807:4.1163373401679397] [-0.23264279247142708:4.298418139116043] [-0.50763297080993652:-0.50716125965118408] none none none none none none [-1.4900918006896973:1.5897930860519409] [-1.5033458471298218:1.5746752023696899] [-1.5839124917984009:1.5985486507415771] [-0.18951360881328583:0.23377889394760132] [0.21185638010501862:0.22682340443134308] [-0.092826470732688904:0.168582484126091] [-1.6729950082560068:1.6547669749649587] [-1.7038262801307233:1.7034936333052759] [-1.4956020530490239:1.5197246668078792] [-0.6236083171030592:1.6035642439792948] [-1.4072154127792305:1.4233010001219253] [-1.4074789481269954:1.4189901814975256] [-1.1155569327426265:1.3711828238628296] [-1.2660109911524646:1.4200366106180726] [-0.69863673357930367:1.4313533078210121] [-0.71135228408636941:1.4057676090278248] [-0.71135228408636941:1.405767609027825] [-23.107676401786776:18.946520790291583] [0.046348140748914107:0.058768137178039491] [-0.0086605988629490406:-0.0060557652545116256] [-0.099524419453913923:10.047745100724912] [-0.10452772572996082:9.5668014498770724] [-1.6861050444588734:5.2655857265675126] none [-2.9327006845862957:2.9357727653567185] [-2.9326400830290593:2.9357304515334013] [-2.9325274684940705:2.9356778567070694] [-2.932410039488325:2.9356081009972579] [-2.9319884722423342:2.9353065274180765] [-0.01126581596604101:-0.0078072216546395895] [-0.011265783186402147:-0.0078071888955419007] [-0.011265779728038064:-0.0078071854353092968] [-0.011267092337688991:-0.007808497400045078] [-0.011275265527572855:-0.0078166712144853677] [-0.47383594512939453:0.60858803987503052] [-0.47383645176887512:0.60858750343322754] [-0.4738362729549408:0.60858768224716187] [-0.47383585572242737:0.60858815908432007] [-0.47383812069892883:0.6085858941078186] [-0.72022967671142368:12.129805346513651] [-0.72033284180748636:12.130106549822736] [-0.72029165297372455:12.130005516400317] [-0.72034570113202112:12.130048974345964] [-0.72043876814283092:12.128996919409326] none none none none none
tree_sizes=3441 3383 3432 3467 3444 3474 3460 3447 3470 3469 3474 3488 3489 3443 3483 3461 3471 3497 3481 3468 3476 3477 3458 3493 3490 3475 3491 3473 3473 3497 3483 3440 3462 3474 3460 3486 3487 3474 3507 3474 3488 3483 3487 3472 3478 3484 3441 3474 3477 3478 3490 3477 3506 3476 3490 3459 3432 3477 3470 3450 3503 3451 3497 3506 3481 3482 3480 3459 3485 3489 3459 3495 3464 3492 3475 3490 3472 3482 3476 3472 3508 3480 3274 3464 3482 3490 3470 3501 3478 3471 3473 3458 3480 3453 3432 3482 3494 3490 3471 3464 3462 3485 3493 3463 3467 3478 2815 3507 3480 3480 3496 3481 2486 3488 3486 3443 3473 3498 3450 3470 3484 2853 3486 3237 3463 3473 3467 2804 3467 3490 3476 3464 3490 3483 3477 3469 3437 3450 3491 1890 3496 3470 3453 3448 3464 3480 3441 3471 3462 3479 3491 3476 3477 3492 3442 3472 3455 3474 3264 3489 3460 3456 3492 3468 3470 3486 3463 3463 3444 2816 3495 3465 3491 3494 3478 3465 3479 3492 3461 3492 3481 3480 3478 3498 3503 3462 3490 3503 3483 3497 2413 3161 3461 3473 3448 3489 3498 3491 2953 3466 3462 3483 3475 3484 3485 3463 3520 3489 2938 3463 3506 3460 3503 3487 3490 3464 3471 3458 3488 3452 3445 3492 3455 3470 3498 3473 3467 3456 3280 3458 3488 3495 3480 3476 2730 3488 2909 3449 3344 3465 3480 3446 3460 3484 3432 3465 3450 2600 3481 3444 3477 3462 3488 3479 3460 3499 3485 3484 3460 3460 3487 3123 3486 3475 3450 3454 3477 3473 2845 3470 2506 3478 3454 3458 3457 3475 3430 3474 3467 3481 3485 3458 3453 3510 3423 3473 3447 3458 3479 3422 3478 3477 3474 3511 3474 3471 3471 3156 3447 3467 3487 3499 3466 3518 3491 3494 3481 3432 3474 3482 2516 3477 3470 3469 3499 3483 3468 3499 3477 3412 3473 3466 3471 3476 3477 3486 3465 3456 3471 3481 3447 3462 3483 3421 3472 3481 3476 3432 3433 3458 3498 3470 3414 3471 3472 3505 3441 3472 3431 3477 3455 3506 3470 3480 3489 3453 3471 3481 3456 3483 3475 3489 3496 3493 2608 3488 3471 3490 3494 3464 3473 3493 3491 3475 3470 3486 3443 3504 3498 3372 3473 3512 3504 3472 3440 3440 3463 3473 3476 3491 3458 3493 3454 3479 2609 3473 3486 3488 3464 3458 3480 3465 3263 3488 2967 3467 2175 3447 3485 3490 3473 3472 3495 3426 3040 3488 3504 3447 3440 3444 3493 2633 3481 3466 3479 3496 3489 3467 3499 3494 3436 3358 3452 3490 3463 3445 3469 3490 3461 3502 3497 3469 3446 3484 3471 3494 3477 3466 3473 3468 3502 3481 3477 3483 3446 3489 3476 3269 3473 3470 3499 3475 3496 3466 3467 3498 3463 3472 3490 3484 3485 3467 3497 3480 3457 3467 3496 3495 3440 3457 3475 3473 3475 3444 3481 3473 3472 3464 3463 3506 3466 3483 3444 3444 3483 3484 3493 3491 3474 3418 3431 2938 3173 3473 3476 3458 3467 3427 3472 3472 3468 3470 3454 3461 3449 3477 3487 3437 3472 3473 3469 3471 3476 3506 3473 3471 3479 3473 3503 3457 3454 3502 3475 3466 3466 3487 2504 3477 3479 3477 3455 3502 3419 3478 3488 3491 3456 3477 3465 3487 3474 3455 3493 3474 3476 3492 3483 3484 3477 3482 3499 3480 3465 3469 3492 3482 3187 3447 3477 3064 3462 3488 3465 3396 3470 3513 3494 3483 3487 3512 3487 3474 3434 3421 3492 3458 3446 3459 3492 3466 3463 3484 3463 3489 3438 3485 3489 3479 3463 3502

Tree=0
num_leaves=31
num_cat=0
split_feature=81 90 72 169 162 169 89 151 67 52 151 162 191 78 9 154 10 208 55 81 192 51 156 51 126 192 126 128 186 128
split_gain=37.8882 33.8561 25.0696 23.4561 20.0477 18.8503 18.3903 19.8559 27.7379 17.2873 16.89 19.0783 15.5878 19.5112 18.1634 16.6074 16.1528 21.3187 15.399 14.9303 14.8186 14.1617 13.7824 12.9458 12.7191 12.7029 12.9564 12.5424 12.1571 14.2327
threshold=-0.00050731895423291879 -0.11840860173106192 0.12152692303061487 -0.10751274946541264 -1.413344365403802 -1.2994204022733176 -0.020986406132578846 0.22383237630128863 0.8087272581514372 0.22359067436246818 0.21426641941070559 -0.96200823837040994 1.3991891231357163 -0.50719615877554813 -0.50718049581381419 1.5924541862200241 -0.50724993089109371 1.4390521753197563 -0.50718718639343963 -0.068477686932846768 1.1173580060950814 0.025464561648611394 0.023188716962987192 -0.026013591761283279 -0.11631126701831816 -0.70086166572086517 -0.1475674510002136 -0.8816143294365808 0.0099899331107735651 -0.74651016974921702
decision_type=2 2 2 2 2 2 2 2 2 2 2 2 2 2 2 2 2 2 2 2 2 2 2 2 2 2 2 2 2 2
left_child=1 -1 4 9 5 -2 28 10 -9 -3 -8 -12 13 16 15 -15 17 -6 -4 -10 27 -13 24 -14 -11 -24 -27 -18 29 -5
right_child=2 3 18 6 12 -7 7 8 19 22 11 21 23 14 -16 -17 20 -19 -20 -21 -22 -23 25 -25 -26 26 -28 -29 -30 -31
leaf_value=-0.81530418416806338 -0.79081871482695587 -0.90435071014834134 -0.78650753259909578 -0.91188318073778341 -0.95142419147605861 -0.93147926146244342 -0.80695998222315313 -0.79620420400023273 -0.93430527595657842 -0.93570676591464574 -0.84602312722996786 -0.93146971199720008 -0.80575032061157592 -0.96154778313770739 -0.776386695311168 -0.82922809429226663 -0.79689427719660144 -0.80053706256354973 -0.88357586519627451 -0.84225490694714134 -0.80310109725873824 -0.87516647176972373 -0.93204450223312563 -0.92860750188307117 -0.8407696961851755 -0.77997234169141283 -0.88718610120233332 -0.85437857949193052 -0.90680826855124463 -0.86386326523970214
leaf_weight=75.159594118595123 10.215867161750792 618.42481568455696 73.700184524059296 78.808118104934692 30.282749086618423 63.849169760942459 32.836715877056122 96.321033239364624 27.728782296180725 14.958948343992232 95.956180840730667 81.726937294006348 9.4861623644828779 38.674354255199432 8.0267527699470502 11.675276756286619 40.498616248369217 12.404981553554533 20.431734323501587 44.511992633342743 77.713560909032822 98.145295232534409 57.281826585531235 47.065959423780441 121.13099634647369 12.040129154920576 82.091789692640305 488.5373617708683 178.04797053337097 271.08533218502998
leaf_count=206 28 1695 202 216 83 175 90 264 76 41 263 224 26 106 22 32 111 34 56 122 213 269 157 129 332 33 225 1339 488 743
internal_value=-0.872872 -0.880678 -0.856255 -0.883283 -0.861804 -0.91111 -0.872773 -0.858552 -0.831059 -0.894944 -0.87362 -0.881801 -0.856969 -0.852914 -0.907802 -0.930418 -0.847919 -0.906696 -0.807573 -0.877807 -0.843718 -0.900986 -0.874635 -0.907017 -0.85166 -0.895355 -0.872745 -0.849824 -0.885612 -0.874731
internal_weight=2918.82 1986.26 932.563 1911.1 838.431 74.065 1005.17 477.227 168.562 905.929 308.665 275.828 764.366 707.814 58.3764 50.3496 649.437 42.6877 94.1319 72.2408 606.75 179.872 287.504 56.5521 136.09 151.414 94.1319 529.036 527.941 349.893
internal_count=8000 5444 2556 5238 2298 203 2755 1308 462 2483 846 756 2095 1940 160 138 1780 117 258 198 1663 493 788 155 373 415 258 1450 1447 959
is_linear=0
shrinkage=1


Tree=1
num_leaves=31
num_cat=0
split_feature=128 161 69 208 158 169 22 81 209 44 18 187 162 188 188 39 169 61 49 81 162 128 160 207 93 45 221 166 169 214
split_gain=135.62 32.556 15.0782 16.2802 14.3918 12.4966 13.4667 15.8368 12.5406 11.9653 11.2623 10.869 11.6157 13.4269 17.959 19.6093 11.1047 10.7627 9.81787 9.44422 9.73879 10.8068 9.54093 9.06755 8.31488 8.14105 9.0779 7.88733 11.3226 7.64597
threshold=0.040786752580473894 -0.53793677617685864 5.1248638973603216 -0.79402324898380827 0.11819472493635989 -1.2262165731590626 -1.2577222771982659 0.0075553415588434083 -0.45730566193939237 -1.3866813752876241 0.094966905115824604 -1.1665964455919466 -0.37599032982239194 -0.057917508386215219 0.98160382113663214 -0.0066492361671843924 -1.4297507436488248 -0.1560780880355028 -0.50719060312285236 -0.064435667281965398 -0.59878740150641241 -0.37411365650579448 0.050334904845537355 1.7384614363261273 -0.0068862568587064734 -1.3847897046710658 -0.65206770040180517 0.95467934206283567 0.6871413726280079 -0.009036792727527429
decision_type=2 2 2 2 2 2 2 2 2 2 2 2 2 2 2 2 2 2 2 2 2 2 2 2 2 2 2 2 2 2
left_child=1 2 3 17 25 6 -5 8 -8 24 27 16 19 -14 15 -15 -11 29 -4 20 21 -13 23 -21 -3 -2 -27 -7 -29 -1
right_child=4 9 18 5 -6 10 7 -9 -10 11 -12 12 13 14 -16 -17 -18 -19 -20 22 -22 -23 -24 -25 -26 26 -28 28 -30 -31
leaf_value=-1.4725855644208623 -1.6297119400561206 -1.5022338671504425 -1.6347457370848888 -1.6005263129553517 -1.625354151154029 -1.5451522601448786 -1.5393099752896993 -1.6124291837010827 -1.4340019588458988 -1.5049211560952971 -1.4208626513387592 -1.5362975921346256 -1.5696003638533178 -1.3776179602894321 -1.5702022047707407 -1.5492548921651383 -1.5987579586257326 -1.5675066452266502 -1.5034657187582399 -1.5721322205860178 -1.5895301677856537 -1.4373840376661684 -1.4576572384407727 -1.4984652153622111 -1.6029429610970152 -1.6396701020023896 -1.5860349479043472 -1.6172372882061543 -1.4909894470976743 -1.5671024430132525
leaf_weight=86.826300621032715 61.666406691074371 7.8933000564575186 21.459909528493885 11.346618831157683 266.39887690544128 211.14577651023865 17.513259500265121 7.8933000564575186 37.493175268173218 13.319943845272062 5.6733094155788413 39.466500282287598 30.833203345537186 18.253256380558017 16.033265739679337 10.853287577629088 104.09289449453354 17.759925127029419 6.6599719226360312 365.06512761116028 18.253256380558014 15.293268859386442 6.9066375494003287 16.526596993207932 104.83289137482643 33.793190866708755 368.02511513233185 34.28652212023735 7.8933000564575186 9.8666250705718976
leaf_count=352 250 32 87 46 1080 856 71 32 152 54 23 160 125 74 65 44 422 72 27 1480 74 62 28 67 425 137 1492 139 32 40
internal_value=-1.57262 -1.55254 -1.53201 -1.52754 -1.60681 -1.53895 -1.50293 -1.48501 -1.46616 -1.56532 -1.54954 -1.56012 -1.5541 -1.51807 -1.48392 -1.43838 -1.58755 -1.495 -1.602 -1.56016 -1.52739 -1.50656 -1.56644 -1.56873 -1.59525 -1.59605 -1.59073 -1.55304 -1.59204 -1.48197
internal_weight=1973.33 1243.44 475.818 447.698 729.884 333.245 74.2464 62.8997 55.0064 767.623 258.999 654.897 537.484 75.973 45.1398 29.1065 117.413 114.453 28.1199 461.511 73.013 54.7598 388.498 381.592 112.726 463.485 401.818 253.326 42.1798 96.6929
internal_count=8000 5041 1929 1815 2959 1351 301 255 223 3112 1050 2655 2179 308 183 118 476 464 114 1871 296 222 1575 1547 457 1879 1629 1027 171 392
is_linear=0
shrinkage=1


Tree=2
num_leaves=31
num_cat=0
split_feature=21 5 161 65 209 171 34 22 158 151 6 157 161 154 67 81 6 157 69 91 214 91 81 161 81 169 150 169 203 45
split_gain=49.7349 35.9335 31.1835 25.7456 23.3523 19.1109 18.5066 16.1681 22.5531 16.0246 15.5975 16.7519 14.9339 17.8382 14.6952 13.9752 17.2759 13.717 13.2613 13.2606 12.7968 17.7254 12.7602 12.5723 12.1404 11.5755 11.5096 10.9441 10.9391 10.8266
threshold=-0.028039136149720926 -0.50719507767583882 -0.060907513535661047 -0.032340462191035389 -1.5180662021210241 -0.0063197547446122168 -0.00049902554548458074 -1.322160238841412 -0.008334395474409468 0.22582865506410602 -0.50726549677140509 0.10314249021328949 -0.90117518336391511 0.66092179170070831 2.6158583460735918 -0.025138751900895002 -0.50727750542604133 0.12852169279034345 3.3124506954763469 -0.31480741500854487 -0.0092138307478818564 -0.0055368917528539887 -0.074025142772145655 5.4999596377878675 -0.1196781467535153 -0.27658290647494427 -0.29394625938674579 -1.0543427402922612 0.67975853459016289 0.80317213146173583
decision_type=2 2 2 2 2 2 2 2 2 2 2 2 2 2 2 2 2 2 2 2 2 2 2 2 2 2 2 2 2 2
left_child=2 3 5 12 19 14 -6 -7 25 -8 11 -5 13 -2 28 16 -10 -13 20 -4 21 29 -16 -19 -11 -9 -18 -15 -1 -12
right_child=1 -3 4 10 6 7 9 8 15 24 18 17 -14 27 22 -17 26 23 -20 -21 -22 -23 -24 -25 -26 -27 -28 -29 -30 -31
leaf_value=-1.0476096163136606 -1.0003723205660409 -1.0578881391856934 -0.87374742105296255 -0.98182556016933631 -1.0125739368760371 -0.92928073397390709 -0.93568207926395663 -0.98649045930619883 -1.0687659239380145 -0.95098537098401903 -0.91447062569734849 -0.84511900305295873 -1.0072474879382345 -0.9897033601245947 -0.88444390247795612 -1.017814358292275 -0.88844293830758936 -0.96707107452376573 -1.0493026962963901 -1.0043492639190863 -0.98824886049571159 -0.87118710078984218 -0.99802802622559406 -0.85160307763601406 -1.0485123791253927 -1.0583529219369334 -0.95531078534991165 -0.88510769524781197 -0.99914279732297251 -0.99826226119323624
leaf_weight=70.996667802333832 66.427575320005417 82.243664681911469 7.3808417022228232 67.833449929952621 37.607145816087723 77.674572199583054 515.25304454565048 46.393862128257751 10.192590922117232 27.41455489397049 21.43958780169487 20.385181844234467 699.07114979624748 14.410214751958845 16.167558014392853 34.795396596193314 33.038053333759308 43.582112908363342 27.766023546457291 105.44059574604034 334.59815716743469 22.493993759155273 22.493993759155273 11.246996879577635 22.142525106668472 43.230644255876541 114.93024936318398 29.523366808891296 137.42424312233925 48.151205390691757
leaf_count=202 189 234 21 193 107 221 1466 132 29 78 61 58 1989 41 46 99 94 124 79 300 952 64 64 32 63 123 327 84 391 137
internal_value=-0.981496 -0.994026 -0.967389 -0.990234 -0.953254 -0.984039 -0.945438 -0.969377 -0.980579 -0.940904 -0.974508 -0.94583 -1.00185 -0.967821 -1.00542 -0.961305 -0.94866 -0.913657 -0.983571 -0.994846 -0.979169 -0.94635 -0.949532 -0.941304 -0.994827 -1.02173 -0.939789 -0.919057 -1.01594 -0.972006
internal_weight=2811.75 1489.17 1322.58 1406.93 715.239 607.338 602.417 360.255 282.581 564.81 597.497 143.048 809.432 110.361 247.082 192.956 158.161 75.2143 454.449 112.821 426.683 92.0848 38.6616 54.8291 49.5571 89.6245 147.968 43.9336 208.421 69.5908
internal_count=8000 4237 3763 4003 2035 1728 1714 1025 804 1607 1700 407 2303 314 703 549 450 214 1293 321 1214 262 110 156 141 255 421 125 593 198
is_linear=0
shrinkage=1


Tree=3
num_leaves=31
num_cat=0
split_feature=125 82 51 6 0 191 211 6 157 51 124 153 128 49 3 80 8 149 153 3 0 54 57 9 72 162 156 81 4 185
split_gain=32.1024 25.9085 20.4125 18.3882 17.6244 16.5327 16.7107 16.3454 14.0851 12.2994 13.7968 13.8333 13.9059 11.4768 15.2502 14.3217 16.2134 11.2544 11.2153 10.9286 26.113 19.5411 19.4553 17.4495 15.2001 13.9915 13.4556 12.8763 11.7362 14.5822
threshold=0.0040824969764798888 -0.3962962493736088 0.27649301251238961 -0.50726549677140509 1.3937992802589334 1.3043847997607283 -0.0089261789869146384 -0.50722404717504277 0.022723282036516055 -0.027321358488624738 -0.1707714572548866 -1.788083884881994 -0.44073365893890276 -0.50720000669816312 -0.50720983574352652 -0.50722818113080403 -0.5072095926805068 0.58127901225545664 -0.097407173764098673 -0.5072101087413271 1.1900412310069515 -0.5071706032983746 -0.050285190790155761 -0.50722546751770536 0.1210903972387314 5.7265398359395538 0.057281574867532346 -0.0073550485967638314 -0.50723633949450553 0.21562471985816958
decision_type=2 2 2 2 2 2 2 2 2 2 2 2 2 2 2 2 2 2 2 2 2 2 2 2 2 2 2 2 2 2
left_child=1 2 9 17 7 6 19 13 -9 -1 11 -11 -13 14 15 16 -5 -2 -6 21 24 28 27 -23 -21 -25 -26 -22 29 -3
right_child=3 5 -4 4 18 -7 -8 8 -10 10 -12 12 -14 -15 -16 -17 -18 -19 -20 20 22 23 -24 25 26 -27 -28 -29 -30 -31
leaf_value=0.0048700268980195775 -0.028391640504580064 0.026413585358416272 0.047768011577855554 -0.0082579827206265156 0.10756400161604196 -0.024514324833239301 0.077132615089110623 0.0068947626959502302 0.11122574679710107 -0.05852942433194265 -0.031115275065140408 0.065328927989678889 -0.0043254005719374853 -0.060482717139599441 0.061134823049573073 -0.07505048635323873 0.078299675468716121 0.028591107080120776 0.042653680384257459 -0.06915357281974778 -0.059183891237728874 -0.080814000531579527 0.072907842442266765 -0.01148451944141908 0.020944577632051632 0.11409167016904781 -0.031167472193994628 0.07516247796866643 0.050396625124774955 -0.043707564369398884
leaf_weight=177.99876946210861 96.059358328580856 88.487214684486389 46.770655661821365 96.706124067306519 39.640239030122757 166.16106578707695 34.13137224316597 22.668740540742874 30.289757519960403 35.63859361410141 661.06580564379692 34.185951918363571 152.99299857020378 22.121586501598358 49.833680123090744 21.948873221874237 26.775042980909348 52.842087924480438 87.704408884048462 26.178509682416916 21.149627476930622 35.695158213376999 112.82511934638023 347.68762454390526 217.71536192297935 8.0977814495563489 62.99910843372345 9.5159610807895643 87.055206805467606 43.332851260900497
leaf_count=490 264 242 127 265 108 456 93 62 82 98 1821 94 420 61 136 60 73 145 239 72 58 98 308 953 596 22 173 26 239 119
internal_value=9.25088e-06 -0.00502809 -0.016175 0.0218357 0.0330415 0.00476895 0.00924052 0.0184204 0.0677079 -0.019043 -0.0238701 -0.00228694 0.00862253 0.00611236 0.0139776 -0.00242029 0.0109086 -0.00804708 0.0636177 0.00697595 0.0187755 -0.00173112 0.0538322 -0.0151142 0.00223038 -0.00828657 0.00914476 -0.0161215 0.0221202 0.00313204
internal_weight=2916.27 2369.68 1108.65 546.59 397.688 1261.03 1094.87 270.344 52.9585 1061.88 883.883 222.818 187.179 217.385 195.264 145.43 123.481 148.901 127.345 1060.74 450.384 610.356 143.491 391.481 306.893 355.785 280.714 30.6656 218.875 131.82
internal_count=8000 6505 3050 1495 1086 3455 2999 739 144 2923 2433 612 514 595 534 398 338 409 347 2906 1233 1673 392 1073 841 975 769 84 600 361
is_linear=0
shrinkage=0.1


Tree=4
num_leaves=31
num_cat=0
split_feature=128 161 63 69 208 40 144 187 160 20 213 74 160 88 3 57 162 25 188 68 222 16 218 57 156 214 95 187 161 150
split_gain=114.008 26.0773 13.3906 12.6093 12.5388 9.67681 13.2506 10.9687 9.20666 14.1177 10.8364 9.30597 8.82048 8.8553 7.86952 7.78839 10.0298 7.5927 7.4178 10.8777 8.40096 7.4117 8.26703 7.28485 12.8724 10.5204 8.98249 9.58205 8.79234 8.27229
threshold=0.040786752580473894 -0.53793677617685864 0.68230714084581001 5.1248638973603216 -1.6180472711003797 -1.3311470963734122 -0.33996073172411134 -1.3112817492102493 -0.010566013968010103 -0.081015338298440473 -0.0091081529542056377 0.0029244155157357459 0.050334904845537355 -0.023788253776729103 -0.50717867020103513 0.012098141195252333 -1.4321922446731479 -0.14109102702072923 0.69284789626917453 1.016528168381754 0.12583166541410459 0.0091176397319077864 -0.04298713989555835 -0.049835011320423353 -0.025999481544224028 -0.0091787956904671869 1.0000000180025095e-35 -1.3112817492102493 -0.87390508305274528 -0.29422095390046138
decision_type=2 2 2 2 2 2 2 2 2 2 2 2 2 2 2 2 2 2 2 2 2 2 2 2 2 2 2 2 2 2
left_child=1 3 -2 4 15 -3 12 -8 11 -10 -11 -9 13 18 -5 16 -1 -13 20 -20 -7 -15 -23 24 -6 -26 -25 -28 -29 -27
right_child=2 5 -4 14 23 6 7 8 9 10 -12 17 -14 21 -16 -17 -18 -19 19 -21 -22 22 -24 26 25 29 27 28 -30 -31
leaf_value=0.12037835680777811 -0.021090572286785389 -0.01575838170764083 -0.049460670641958061 -0.060145522374052456 -0.035553124018919767 -0.01982092590178252 -0.015145368116522546 -0.015967492165553192 0.15585120948073586 -0.0077360725040288222 0.077591089927669957 0.080433468678756004 0.11769978799841983 -0.033548502085015544 0.054171576969674423 0.19659178067689137 -0.013631317485187656 0.019348587282666179 0.0057088989269869451 0.15797395421467897 0.050435550809125179 0.095959135886133792 -0.0037590804194448909 0.0071713723834632903 0 0.014171787728044128 -0.019037471028943112 0.023258536784000521 0.065794121726513458 0.11351579221853166
leaf_weight=13.405492633581165 437.7657545953989 154.4158992767334 272.39467146992683 20.335904970765117 10.970265924930571 39.212574705481529 44.005724236369133 41.110740140080452 13.789440304040907 23.605075970292091 37.656483933329582 30.917546465992928 5.2577381730079642 93.467722967267036 7.423484429717063 6.3370429724454871 8.6154092848300934 60.437510624527931 9.848342493176462 8.3607582300901395 28.448950901627541 7.7266359478235236 173.93411976099014 123.58307571709156 14.149080723524092 10.792248979210852 23.221540242433548 87.423083364963531 116.07827854156494 47.568227618932724
leaf_count=51 1813 631 1146 85 43 158 180 164 53 94 150 123 20 377 29 24 33 243 40 33 114 31 701 489 56 42 92 345 456 184
internal_value=-9.80584e-06 0.0180166 -0.0320407 0.0360436 0.0399894 0.00653501 0.0121399 0.0297634 0.0393617 0.0672444 0.0449563 0.0231038 0 -0.00204567 -0.0284062 0.103735 0.0691997 0.0407771 0.0257729 0.0807267 0.00987778 -0.0108263 0.000929642 0.0355702 0.0621858 0.0773917 0.0290401 0.0408327 0.0477731 0.0958614
internal_weight=1972.26 1262.1 710.16 489.903 462.144 772.195 617.779 251.523 207.517 75.051 61.2616 132.466 366.257 360.999 27.7594 28.3579 22.0209 91.3551 85.8706 18.2091 67.6615 275.128 181.661 433.786 83.4798 72.5096 350.306 226.723 203.501 58.3605
internal_count=8000 5041 2959 1929 1815 3112 2481 1007 827 297 244 530 1474 1454 114 108 84 366 345 73 272 1109 732 1707 325 282 1382 893 801 226
is_linear=0
shrinkage=0.1


Tree=5
num_leaves=31
num_cat=0
split_feature=62 77 54 151 143 48 159 169 20 69 127 69 138 20 158 73 82 149 10 68 0 45 80 222 152 213 125 162 153 6
split_gain=41.6597 29.4571 22.0356 21.1194 21.0329 17.0815 16.7284 14.783 14.5307 14.4112 14.3853 13.4272 13.2628 11.606 15.4496 11.7996 11.1186 12.596 13.2453 17.7004 16.8753 15.3641 14.5819 10.6907 10.6471 15.2691 14.252 12.2488 16.6523 10.0103
threshold=-0.35706075980787549 -0.026707025842355143 -0.50712531530701599 0.21312093734741214 -0.30969391538979096 -0.5071503175082922 -1.1539253626353718 0.35885930657892401 -0.035198607698845877 -1.7994678672608624 0.083571676164865508 4.6099114236300007 1.0000000180025095e-35 -0.016362873088240592 0.045346462196082148 0.11752921762681828 -1.6712521588709812 1.3106861823274552 -0.50722295425781894 -1.0205070528523106 1.1900412310069515 1.3487702855772947 -0.50723178559112825 -0.093388686861312104 0.010537632741034033 -0.0091081529542056377 -0.005467063281685113 -1.2605795317743469 -1.7670985883515182 -0.50724925847432056
decision_type=2 2 2 2 2 2 2 2 2 2 2 2 2 2 2 2 2 2 2 2 2 2 2 2 2 2 2 2 2 2
left_child=1 3 4 -1 9 12 -5 8 -4 -3 -6 13 16 14 -11 -15 23 18 19 -18 21 -20 -21 -2 25 27 -27 -8 -29 -26
right_child=5 2 7 6 10 -7 24 -9 -10 11 -12 -13 -14 15 -16 -17 17 -19 20 22 -22 -23 -24 -25 29 26 -28 28 -30 -31
leaf_value=0.11212965127951324 0.016431602649860835 0.11692258718482734 0.047231566646830758 0.058710643200101123 -0.054684287008205934 -0.057776256929219554 -0.050950652385565759 -0.09924669769616129 -0.048050737621337297 -0.0040984145679964518 0.022380590760064902 0.032855416543292916 0.053058855820208695 -0.034563769804096416 0.071032571330674782 -0.00086510720122618366 -0.038250215365116733 -0.020571881409145475 0.041810024849774835 0.020582868219242767 -0.017657575939235903 -0.044674494870317383 0.064898944145558329 0.075137061010909431 -0.0081631357430335377 0.049076597031531881 -0.048673329336077126 0.082934725991120006 -0.018432617294951215 0.052700699097463478
leaf_weight=18.47396332025528 78.37713685631752 8.4001918733119947 18.032790392637253 51.900928378105164 161.44257661700249 31.20199328660965 95.487222015857697 48.113029479980469 101.56071954965591 213.937993735075 27.699718058109283 72.91020730137825 88.627676665782928 271.23312875628471 30.345653921365738 169.13084703683853 39.822890907526016 122.87256520986557 114.77778267860413 331.20918837189674 224.4036280810833 24.00598019361496 95.934944689273834 51.830468386411667 47.594103366136551 62.657490462064743 18.50936633348465 17.942847818136215 110.88935074210167 60.079397141933441
leaf_count=52 221 24 52 147 462 90 273 140 293 610 79 208 251 778 86 485 113 349 325 936 638 69 272 146 135 177 53 51 315 170
internal_value=0 -0.0105385 -0.019423 0.0100689 -0.0135072 0.0140618 0.00576131 -0.0527749 -0.0333282 -0.00609353 -0.0432873 -0.00762312 0.0160307 -0.01199 0.00544536 -0.021675 0.0129458 0.00916376 0.0135965 0.0247182 -0.000704415 0.0265663 0.0306878 0.0402707 -0.000991711 -0.0105485 0.0263428 -0.0239992 -0.00370781 0.0258779
internal_weight=2809.41 1606.34 1122.81 483.535 955.1 1203.06 465.061 167.707 119.594 765.958 189.142 757.558 1171.86 684.648 244.284 440.364 1083.23 953.027 830.154 466.967 363.187 138.784 427.144 130.208 413.16 305.486 81.1669 224.319 128.832 107.674
internal_count=8000 4590 3217 1373 2732 3410 1321 485 345 2191 541 2167 3320 1959 696 1263 3069 2702 2353 1321 1032 394 1208 367 1174 869 230 639 366 305
is_linear=0
shrinkage=0.1


Tree=6
num_leaves=31
num_cat=0
split_feature=21 90 169 72 126 0 72 18 171 191 91 34 169 89 0 143 8 78 73 0 72 169 158 78 72 54 4 51 61 73
split_gain=30.8015 27.8072 18.341 22.9971 18.8807 17.5545 14.9635 20.251 16.3638 16.1763 13.6511 13.1765 12.0469 11.8827 11.6398 15.504 14.8935 12.0496 15.0338 11.4505 18.2733 10.967 10.2202 10.217 18.0292 16.9461 12.2261 17.5308 11.1483 15.8987
threshold=-0.019457534619123546 -0.11840860173106192 0.8992087572707429 0.1018839292228222 0.021072876639664177 1.5527319443133527 0.12196001783013345 -0.044132656385100312 -0.0063163343511924786 1.3991891231357163 -0.31480741500854487 -0.00011042779906326836 -0.66681970433697757 -0.034802637994289391 1.4990384767274001 -0.30470767364756041 -0.50723315597483698 -0.50723756776274265 0.10250514278721819 1.1412667778708088 0.12245997413992883 0.97722834064115649 0.013857147367980759 -0.50719615877554813 0.1210903972387314 -0.50715582678573567 -0.50718864662161445 -0.00093024052035493604 1.2643013809235055 0.11813444700925795
decision_type=2 2 2 2 2 2 2 2 2 2 2 2 2 2 2 2 2 2 2 2 2 2 2 2 2 2 2 2 2 2
left_child=1 10 4 -4 5 14 8 -8 -2 23 -1 -11 -9 21 17 16 -16 -3 -19 20 -15 -5 -6 25 -25 -10 -26 -28 29 -27
right_child=6 2 3 13 22 -7 7 12 9 11 -12 -13 -14 19 15 -17 -18 18 -20 -21 -22 -23 -24 24 26 28 27 -29 -30 -31
leaf_value=-0.064079147395168637 -0.079658055351449375 -0.077345857091392328 -0.059143323378932279 0.073104215998865171 -0.037358437569095911 -0.07841339574075093 -0.07808936819863449 0.013248677404075199 0.0095085198643458223 0.066391793897320417 0.062183123981593591 -0.048197041216385968 0.065733240743858293 -0.1017608506106229 0.0078326445536189403 -0.080909798005635164 0.10766658809099904 0.025865359613746898 -0.022764187393157942 0.075225153855624227 0.060903885113617995 -0.036926641394482505 0.045522592628000152 -0.099027406077994581 -0.047262448394135612 0.098545729290071091 -0.026351376689317897 0.061342133413805927 -0.054904875767926624 0.02675173969981004
leaf_weight=8.8322750329971296 20.643547832965851 36.46921694278717 31.112060844898224 11.287586361169813 18.042968571186066 49.485863775014877 13.471805244684218 73.930431514978409 810.89619189500809 10.593046963214872 70.464511573314667 75.566016882658005 110.32443457841873 10.142109006643297 88.853980123996735 14.902810901403425 17.083777993917465 67.405145168304443 897.74058201909065 69.765313357114792 17.160999536514282 33.356635451316833 67.67566379904747 19.979756325483322 36.099552243947983 49.904162794351578 41.440993577241898 48.260625511407852 9.1499023437499982 82.50012668967247
leaf_count=24 57 102 86 31 50 138 37 202 2216 29 190 209 299 28 245 41 47 186 2483 191 47 92 185 56 100 135 114 131 25 224
internal_value=2.50783e-05 -0.00988087 -0.0130925 0.0173506 -0.0172943 -0.020617 0.0106933 0.0361318 0.00648451 0.00806032 0.0473723 -0.0333938 0.0449135 0.0345111 -0.0179925 0.0111959 0.0248819 -0.0215316 -0.0193343 0.0539988 -0.000627318 -0.00789587 0.027732 0.011349 -0.0132007 0.015127 0.00102489 0.0208747 0.0469497 0.0544222
internal_weight=2912.54 1509.78 1430.48 172.825 1257.66 1171.94 1402.76 197.727 1205.03 1184.39 79.2968 86.1591 184.255 141.713 1122.46 120.841 105.938 1001.61 965.146 97.0684 27.3031 44.6442 85.7186 1098.23 145.781 952.45 125.801 89.7016 141.554 132.404
internal_count=8000 4166 3952 475 3477 3242 3834 538 3296 3239 214 238 501 389 3104 333 292 2771 2669 266 75 123 235 3001 401 2600 345 245 384 359
is_linear=0
shrinkage=0.1


Tree=7
num_leaves=31
num_cat=0
split_feature=128 161 60 69 44 143 187 150 61 67 61 51 165 169 143 74 125 82 91 89 151 169 129 127 151 149 8 49 160 73
split_gain=96.3705 20.6603 12.4319 10.4286 8.93684 8.91014 9.14728 8.45745 10.2019 8.45193 13.0776 14.7676 12.0697 11.813 9.99808 9.60917 9.45654 8.90333 8.70643 9.07673 8.20057 8.14427 8.12977 7.8527 8.54191 10.2116 8.41461 7.80874 7.76411 7.48117
threshold=0.040786752580473894 -0.53793677617685864 -0.3028720460615138 5.1248638973603216 -1.3508488452007958 -0.30571141082236097 -1.0219111419736437 -0.28931156386573315 -0.2262015476925964 1.1888844742175684 -0.14290105374221709 -0.030828474612076908 0.77685915845689868 0.51918042043891954 -0.31306334298695915 0.0048836264759302148 -0.028928106650710102 -1.6712521574543133 0.0059924011584371337 0.015219689812511207 0.22545816749334338 -1.4297507436488248 0.69084080292294725 1.4291222095489504 0.22372375428676608 0.2632081176072692 -0.5072138551884634 -0.50719060312285236 -0.020793551348362343 0.11752921762681828
decision_type=2 2 2 2 2 2 2 2 2 2 2 2 2 2 2 2 2 2 2 2 2 2 2 2 2 2 2 2 2 2
left_child=1 3 -2 9 -3 6 21 -7 -9 12 11 14 15 16 -11 17 -14 29 19 -17 -19 -6 -18 24 25 -8 -26 -5 -13 -1
right_child=2 4 -4 27 5 7 23 8 -10 10 -12 28 13 -15 -16 18 22 20 -20 -21 -22 -23 -24 -25 26 -27 -28 -29 -30 -31
leaf_value=-0.0016508624603791891 -0.020707866895373607 -0.020123134895647828 -0.049513505557650876 -0.058886190614704903 0.048760135427806078 0.10281936919818431 0.011666193468763623 0.12406364609040466 -0.011794007012640381 0.078982214077442089 -0.034675496388773985 0.1239217986908806 0.017877062499316417 -0.017127075865531947 -0.022210235853141379 0.065941978975221291 0.14348856884395214 -0.00099798104093706146 0.14154092262908055 -0.041180005294339309 0.078866175968723723 -0.025356387263785182 0.044212746092562268 -0.039470298297313966 0.085971597947584022 0.0503917164249209 -0.006926086455107474 0.056152391331860951 0.047121111273645121 0.10908616393517651
leaf_weight=9.6281242370605487 469.46445907652378 111.07204113900661 222.75008404254913 20.041207641363147 15.945202082395552 18.412796601653099 174.70563332736492 6.0217076838016537 24.914764791727066 15.738497987389563 12.538157448172567 43.302184239029884 16.04236526787281 13.585458949208258 22.433108031749725 26.44168895483017 25.817014247179031 206.52673846483231 9.429730147123335 10.205608040094374 12.694901734590529 116.81220035254955 14.14213392138481 25.478488400578499 9.3759686201810819 112.44082137942314 159.97620885074139 7.2269359529018393 22.003496363759041 14.73762772977352
leaf_count=37 1985 462 974 87 62 70 693 23 99 59 48 159 61 53 86 101 97 798 36 40 47 479 54 102 37 443 642 27 83 56
internal_value=-2.01123e-05 0.016252 -0.0300498 0.0320292 0.00598271 0.0103878 0.00704401 0.0508748 0.0173939 0.0354946 0.0590187 0.0706904 0.0277273 0.0649167 0.0202082 0.0185661 0.0849465 0.0104755 0.0599941 0.0355434 0.00391858 -0.0160817 0.110535 0.0134546 0.0165102 0.0269873 -0.00124974 -0.0271356 0.099297 0.0665942
internal_weight=1969.91 1277.69 692.215 502.535 775.156 664.084 614.735 49.3493 30.9365 475.267 116.015 103.477 359.251 69.587 38.1716 289.664 56.0015 243.587 46.077 36.6473 219.222 132.757 39.9591 481.977 456.499 287.146 169.352 27.2681 65.3057 24.3658
internal_count=8000 5041 2959 1929 3112 2650 2458 192 122 1815 435 387 1380 265 145 1115 212 938 177 141 845 541 151 1917 1815 1136 679 114 242 93
is_linear=0
shrinkage=0.1


Tree=8
num_leaves=31
num_cat=0
split_feature=21 73 161 156 209 57 45 162 79 34 0 161 91 126 65 188 57 213 69 5 3 28 0 152 150 187 171 157 191 125
split_gain=35.3183 31.4503 24.5174 22.9401 21.6961 19.9198 21.0087 19.1154 13.7695 13.4756 13.3063 16.2161 13.228 13.1557 13.0164 14.1792 13.0085 19.7811 18.2929 15.8804 12.9357 12.6786 11.1664 11.0948 20.732 11.6669 12.3532 10.5394 10.646 10.4342
threshold=-0.025974835008168547 0.12142963718022491 -0.72087869867155063 -0.0050433930084436106 -1.6000249249067671 0.058734132549516725 0.29170868493035806 4.392603432208408 0.080890052410316757 -0.00018675031608678301 1.1523518808562958 0.029406814868818871 -0.31480741500854487 0.0056999945081770429 0.5665146181786801 0.34634078642822541 0.010311450990326066 -0.0090196163423060822 0.58152510289807435 -0.50726178976931491 -0.50723023997190986 1.7152796660861425 1.5742093313477337 0.0019643389387056236 -0.29101542364723793 0.85899780506429313 -0.006315207748638552 -0.003980046349276521 0.0080427936713475551 0.0083493525162339228
decision_type=2 2 2 2 2 2 2 2 2 2 2 2 2 2 2 2 2 2 2 2 2 2 2 2 2 2 2 2 2 2
left_child=2 5 3 -1 12 10 8 21 -7 -5 11 29 -4 22 16 -16 17 20 -19 -18 -12 -8 27 24 -15 -25 -27 28 -6 -2
right_child=1 -3 4 9 13 6 7 -9 -10 -11 14 -13 -14 23 15 -17 19 18 -20 -21 -22 -23 -24 25 -26 26 -28 -29 -30 -31
leaf_value=0.017356287903785305 0.11945440668513041 -0.044361803844372022 0.10068612734261323 0.055151751243813045 0.045510109934919635 0.072579208952179369 -0.02096927826944462 0.090233791679699957 -0.03032009484086011 -0.055273996294171658 0.018467832451400649 -0.019307426132136846 -0.027964778951007064 0.12819928003132075 -0.020839641479401226 0.098724860276289905 0.092498301273265693 -0.03624349296740724 0.066680167114406164 -0.048232054198992229 -0.025634297104853727 0.033102624634005005 0.1282204327832818 -0.055236168181173509 -0.076845462198540215 0.081987363299144786 -0.047673783512466143 0.027523362244379575 -0.067039280597902137 -0.0058996920808169684
leaf_weight=103.01693227887154 21.330857723951343 234.37722140550613 7.5265985131263724 11.273465931415556 12.007764250040053 78.772405982017517 174.86248582601547 20.829801470041275 14.807481050491331 120.1980682015419 77.830726265907288 30.134918242692947 126.51401022076607 12.460258066654207 18.700160056352615 19.205537229776382 7.4498964846134177 24.171970188617706 54.490407675504684 175.91276961565018 423.94833782315254 56.499298989772797 9.7883850634098035 52.844895303249359 6.8885368406772605 15.254100203514101 12.426515609025953 850.07224878668785 22.88003334403038 9.1097813844680768
leaf_count=294 60 684 21 32 34 223 498 58 42 347 223 86 363 35 53 54 21 70 156 506 1224 160 27 150 20 43 35 2389 66 26
internal_value=-8.3473e-06 -0.0109154 0.0115253 -0.0178219 0.0176416 -0.00438683 0.015849 0.000732465 0.0560429 -0.0453848 -0.0125218 0.0322651 -0.0199747 0.022736 -0.0159543 0.0404631 -0.0188164 -0.0114193 0.0348695 -0.0419893 -0.0187506 -0.00763607 0.0265797 -0.0115218 0.0545191 -0.0279869 0.0237979 0.0253008 -0.0278344 0.0826279
internal_weight=2805.59 1442.43 1363.15 234.488 1128.66 1208.06 345.771 252.192 93.5799 131.472 862.285 60.5756 134.041 994.623 801.71 37.9057 763.804 580.441 78.6624 183.363 501.779 231.362 894.748 99.8743 19.3488 80.5255 27.6806 884.96 34.8878 30.4406
internal_count=8000 4144 3856 673 3183 3460 981 716 265 379 2479 172 384 2799 2307 107 2200 1673 226 527 1447 658 2516 283 55 228 78 2489 100 86
is_linear=0
shrinkage=0.1


Tree=9
num_leaves=31
num_cat=0
split_feature=21 124 81 169 151 191 171 67 152 57 67 0 40 77 151 57 3 0 78 191 81 57 151 95 76 69 158 4 80 154
split_gain=24.703 24.4232 17.8296 13.9415 19.4843 11.6258 13.5587 13.2975 10.9384 10.2659 11.2137 10.2269 12.2935 9.74267 15.1421 19.0595 16.4704 12.2957 12.7685 11.5893 11.1383 13.4276 14.628 10.1628 9.95811 14.2411 10.4669 9.55869 12.6012 12.4737
threshold=-0.019457534619123546 -0.1707714572548866 0.014870876308171443 0.8821956367599203 0.22395801544189456 1.3991891231357163 -0.0063163343511924786 -0.55088063826739819 -0.0040776121895760289 -0.015713760379775645 0.22192256778351502 1.1412667778708088 -1.1044668749408679 -0.016753299516838193 0.22370582073926928 -0.023284516430068104 -0.50721428293674653 1.3207761643420382 -0.50721677741095872 -0.52891964672481961 0.029940606754447326 0.064235534218527554 0.214991070330143 0.23039360863214622 -0.50717822495451459 2.4104651495670777 0.063518583758086125 -0.50723053025346643 -0.50723100732412207 -1.7902163294256972
decision_type=2 2 2 2 2 2 2 2 2 2 2 2 2 2 2 2 2 2 2 2 2 2 2 2 2 2 2 2 2 2
left_child=1 11 3 8 9 6 -2 -7 -3 -5 -11 -1 -13 20 17 -16 -17 24 19 -19 -8 -22 -23 -18 26 -26 -15 -10 -29 -30
right_child=5 2 -4 4 -6 7 13 -9 27 10 -12 12 -14 14 15 16 23 18 -20 -21 21 22 -24 -25 25 -27 -28 28 29 -31
leaf_value=-0.035368816719460371 -0.051291170782819542 -0.073318858712185173 0.075038611229475013 0.094547960977240997 0.071167816639480463 -0.061215525580133448 -0.025233448922253973 0.015187155062354683 -0.0011712187545052568 0.042989749534671634 -0.039242390623215925 0.0039270096884804311 0.044928776146574811 -0.033282440508257322 0.0057984046187079773 -0.07991711705639265 0.038808758876230739 0.038083191071460597 0.075220297149060283 0.004106187171622362 0.10077650185235087 -0.095499602160181149 0.024933367729296357 0.086707914938376485 -0.038230335722636566 0.11998828438667153 0.015113752757233574 -0.051157348616909321 0.03621915912977821 -0.022125245922442624
leaf_weight=35.418499678373337 32.039370477199554 38.486087501049042 20.226014703512192 7.4080474972724906 38.995778769254684 47.030026763677597 123.28472584486008 42.409399747848511 222.64896947145462 20.437134057283401 72.278057456016541 180.23338705301285 122.99699676036835 133.88417530059814 130.76156505942345 7.7279157340526572 98.891578823328018 138.21163213253021 35.151892960071564 364.07431897521019 16.261808604001999 11.605352848768232 49.424285173416138 85.880176961421967 9.1919280588626879 12.222075432538984 65.784797459840775 145.86981534957886 38.194772660732269 559.78815200924873
leaf_count=99 89 108 55 20 106 132 337 117 618 56 201 495 335 371 356 21 267 376 95 995 44 32 134 231 25 33 179 409 106 1558
internal_value=1.75451e-05 -0.00888554 -0.0157623 -0.0174404 0.0121136 0.00955606 0.0119398 -0.0251098 -0.0215494 -0.0112641 -0.020744 0.0147054 0.0206841 0.0135662 0.0173196 0.0354232 0.0553611 0.0095547 0.017718 0.0135324 -0.00661341 0.0229019 0.000700328 0.0614726 -0.0102351 0.0529514 -0.0172917 -0.019404 -0.0248391 -0.0183277
internal_weight=2906.82 1502.98 1164.33 1144.11 139.119 1403.84 1314.4 89.4394 1004.99 100.123 92.7152 338.649 303.23 1282.36 1081.78 323.261 192.5 758.521 537.438 502.286 200.576 77.2914 61.0296 184.772 221.083 21.414 199.669 966.502 743.853 597.983
internal_count=8000 4166 3237 3182 383 3834 3585 249 2799 277 257 929 830 3496 2949 875 519 2074 1466 1371 547 210 166 498 608 58 550 2691 2073 1664
is_linear=0
shrinkage=0.1


Tree=10
num_leaves=31
num_cat=0
split_feature=128 161 158 69 162 157 45 221 28 28 188 68 148 0 25 205 205 58 2 72 81 74 79 69 213 170 187 161 188 115
split_gain=81.5996 16.5258 11.871 8.75511 7.79307 10.6096 7.7375 8.90586 7.61663 12.8011 12.7485 9.28104 7.89723 9.45525 8.31618 7.70967 8.68823 7.42513 7.13396 7.07963 6.9251 10.8559 8.86872 9.71426 8.6987 8.00325 7.50943 10.2568 6.91167 6.70842
threshold=0.040786752580473894 -0.53793677617685864 0.11819472493635989 5.1248638973603216 -0.37599032982239194 -0.0008709617521510531 -1.3847897046710658 -0.65206770040180517 -0.75435633061677132 -0.56759958271708444 -1.0396876529355705 -0.54343683022916534 -0.010584786068648098 1.5591751604236668 -0.62689710967552592 -0.98027597019154333 -1.0536356192604253 0.43033160305846446 -0.50721127235175845 0.11171078309416772 0.017995222855776215 0.0048836264759302148 0.031923844477233294 4.234593400683603 -0.0090379288931006409 0.019356849472415543 -0.87722583835534096 -1.2818911293508009 0.11533604653425931 0.045630270615220077
decision_type=2 2 2 2 2 2 2 2 2 2 2 2 2 2 2 2 2 2 2 2 2 2 2 2 2 2 2 2 2 2
left_child=1 3 6 20 8 -6 -2 -8 15 10 -10 -12 13 14 -11 16 -3 -15 -14 -13 22 -22 23 25 -23 28 -25 -28 -1 -20
right_child=2 4 -4 -5 5 -7 7 -9 9 12 11 19 18 17 -16 -17 -18 -19 29 -21 21 24 -24 26 -26 -27 27 -29 -30 -31
leaf_value=0.011871768593888925 -0.052520534791752609 -0.0089093134804770647 -0.046133588265699146 -0.026066758339366409 0.13615998384470296 0.020831201552490977 -0.063501861355140965 -0.0083446494048283575 0.14482807607321199 -0.076192832793308546 -0.062803825288280185 0.11621705607946958 -0.037826244959044859 0.11591404718462364 0.0087028188386792851 -0.046469879778453106 0.10494334756777453 0.022597165415385242 -0.0068920708807759246 0.0071340308960793578 -0.022825613198589084 -0.027995451572766068 0.12535523592713474 -0.007303013915664478 0.11682352510429075 0.13412426422853369 -0.0097656838197653119 0.11294865666219467 0.040061587637120075 0.074465816651929015
leaf_weight=182.6094775646925 56.619851648807526 88.069018706679344 237.99916626513004 26.800236687064171 7.8243505954742423 96.650636360049248 31.107128366827965 349.71200872957706 11.456134125590323 11.033009082078932 8.1099386811256426 9.7995000332593936 75.344843313097954 13.203498438000677 273.68877558410168 57.874858260154724 6.2475386708974829 23.844783186912537 69.704359620809555 14.036766737699507 48.329275831580162 5.6722757071256664 10.135259255766867 9.0998481661081296 11.068329617381094 6.038841411471366 7.9936835616827002 35.776811212301254 169.61099238693714 10.815937951207159
leaf_count=683 250 361 1080 114 29 381 137 1492 44 45 33 39 299 50 1092 239 25 94 280 57 188 21 37 35 40 21 30 132 628 44
internal_value=-1.56589e-05 0.0147129 -0.0281586 0.0286294 0.0054929 0.0307723 -0.0182731 -0.0130309 0.00151527 0.00728014 0.0586505 0.0239852 0.00247848 0.0114371 0.00512295 -0.0180746 -0.000240911 0.0582893 -0.015907 0.0552562 0.0317114 0.00116695 0.0363918 0.0338755 0.0683782 0.027776 0.0737382 0.0905968 0.0255498 0.00469311
internal_weight=1966.28 1290.84 675.438 513.135 777.704 104.475 437.439 380.819 673.229 521.038 43.4023 31.9462 477.635 321.77 284.722 152.191 94.3166 37.0483 155.865 23.8363 486.335 65.0699 421.265 411.13 16.7406 358.259 52.8703 43.7705 352.22 80.5203
internal_count=8000 5041 2959 1929 3112 410 1879 1629 2702 2077 173 129 1904 1281 1137 625 386 144 623 96 1815 249 1566 1529 61 1332 197 162 1311 324
is_linear=0
shrinkage=0.1


Tree=11
num_leaves=31
num_cat=0
split_feature=126 62 77 54 214 125 151 68 151 64 74 152 69 160 39 58 41 166 151 157 207 10 85 198 150 125 153 213 205 72
split_gain=32.0466 29.1322 22.6713 25.8182 20.9822 15.0736 14.6969 14.2651 14.0965 15.3506 14.0913 21.3407 14.9254 14.0722 13.1844 12.5881 18.9486 14.0071 13.7877 12.5793 12.2795 12.1923 11.2452 10.9267 10.3521 9.37838 10.7789 9.52152 9.3031 9.04975
threshold=-0.22024444490671155 -0.35643560888429598 -0.037087445339143627 -0.50712447319354925 -0.0091531931987046088 -0.019248188473284241 0.21493402868509295 1.7265971550095609 0.22572520375251773 -0.38315505302330349 0.0056175808422267446 0.013073177542537453 -1.1073039390013224 0.0039080173717793935 -0.0065591633065425941 -0.38203293872161281 -0.57709544727685491 -0.70563891278794733 0.21786248683929446 0.0076036097088156467 -0.089759395159355312 -0.50719287557101655 -0.92434526901924741 -0.13915126986229012 -0.28576702016688449 -0.090608820319175706 0.68985294942630271 -0.009587271236106084 -1.5777815881716946 0.11938870325684549
decision_type=2 2 2 2 2 2 2 2 2 2 2 2 2 2 2 2 2 2 2 2 2 2 2 2 2 2 2 2 2 2
left_child=1 7 4 8 20 19 22 25 9 10 11 12 -4 -12 -13 16 -11 -17 -18 -6 -2 -19 -7 -8 -21 26 27 -1 -5 -3
right_child=2 29 3 28 5 6 23 -9 -10 15 13 14 -14 -15 -16 17 18 21 -20 24 -22 -23 -24 -25 -26 -27 -28 -29 -30 -31
leaf_value=0.027066386018684736 -0.016141140687723574 0.0029436438405445985 0.060870217820352769 0.054789206497032332 -0.0026893563382754371 0.01151264466602268 -0.02796099723590826 -0.031277810035707301 -0.05171834727282533 -0.034906465824041617 -0.050729252771697556 0.036628689837585549 -0.016198700760344686 0.046105090336957456 -0.051128483784619538 -0.047136690256090297 -0.056639077436804776 0.010520142756984043 0.083805436372396402 0.06917070634499288 0.049502667225101507 -0.061944326237959646 0.14894357877061795 0.024005422390737854 -0.047997982534293333 0.036546661445697563 -0.0034878589084677428 0.12638205118365972 -0.057399277092809155 -0.094022035352045008
leaf_weight=12.643788546323774 230.85673391819 75.186211138963699 25.000203371047974 6.9932504296302787 36.276082962751389 12.314371258020403 81.010304123163223 13.20556655526161 62.291436195373535 22.94999897480011 130.81107524037361 143.32204803824425 735.76883107423782 16.042118549346924 18.451244652271271 50.657736599445343 7.0845367908477774 525.12046352028847 61.314284145832062 135.32309919595718 31.460873007774353 23.271116375923157 11.205621689558027 78.805153995752335 7.2009703814983359 43.268136590719223 9.3619790077209455 57.545721709728241 124.92558512091637 10.002939015626906
leaf_count=35 653 213 71 20 103 35 231 37 181 64 381 412 2126 46 54 144 20 1489 170 373 88 68 31 224 20 121 26 159 376 29
internal_value=-3.6465e-06 0.0364313 -0.00314631 -0.00845002 0.0134208 0.0289963 0.00870098 0.064994 -0.00533696 -0.00366108 -0.0111652 -0.00655113 -0.0135764 -0.0398432 0.0263054 0.00794737 0.0423218 0.00262717 0.068508 0.0495866 -0.00807212 0.00731974 0.0808007 -0.00228419 0.062888 0.0755949 0.0959917 0.109264 -0.0510093 -0.00928485
internal_weight=2799.67 221.214 2578.46 1954 624.453 362.136 183.335 136.025 1822.09 1759.79 1069.4 922.542 760.769 146.853 161.773 690.398 91.3488 599.049 68.3988 178.8 262.318 548.392 23.52 159.815 142.524 122.82 79.5515 70.1895 131.919 85.1892
internal_count=8000 620 7380 5622 1758 1017 521 378 5226 5045 3090 2663 2197 427 466 1955 254 1701 190 496 741 1557 66 455 393 341 220 194 396 242
is_linear=0
shrinkage=0.1


Tree=12
num_leaves=31
num_cat=0
split_feature=125 40 34 6 0 169 158 191 169 210 188 40 214 6 188 39 212 157 74 212 154 91 174 169 76 125 4 60 154 91
split_gain=21.1118 16.5247 15.1264 13.362 14.0142 12.8958 12.3795 12.1535 14.3022 14.3682 13.965 13.3443 17.9311 11.5191 11.4088 19.5032 18.2798 11.0627 10.6578 10.4664 10.2251 10.3415 9.85955 9.82326 18.0454 11.1351 11.3645 10.8909 10.4585 9.71016
threshold=0.0040824969764798888 -0.39614522271573643 -0.00063191444722648373 -0.50726549677140509 1.3937992802589334 -2.5499160333249153 0.01413715186871725 1.3043847997607283 -0.10751274946541264 -0.0089363160567199756 1.5013644858980559 1.4197083704844722 -0.0091598967508720146 -0.50722404717504277 -0.11566869335970671 -0.0067458433067654278 -0.0092910778707835616 0.022723282036516055 -0.0027379186358302827 -0.009057223017875914 1.0693973151658172 -0.02675745356827974 -0.50716903805732716 0.8992087572707429 -0.50722947002325569 -0.087859079241752611 -0.50724441043017543 -0.30313328236415321 -1.813061130014711 0.071510247886180892
decision_type=2 2 2 2 2 2 2 2 2 2 2 2 2 2 2 2 2 2 2 2 2 2 2 2 2 2 2 2 2 2
left_child=1 2 -1 6 13 -4 -2 8 11 10 14 12 -3 18 16 -16 -10 -15 -5 -9 23 -22 -13 25 -25 26 -7 -27 -26 -20
right_child=3 7 5 4 -6 20 -8 19 9 -11 -12 22 -14 17 15 -17 -18 -19 29 -21 21 -23 -24 24 28 27 -28 -29 -30 -31
leaf_value=0.070003802905377319 0.074319417421534584 -0.035246924593997912 -0.068247712294913138 -0.079237604197107236 0.054237567453673287 0.052377293491502268 -0.017858089518339483 -0.0073444346538287025 -0.023914480907498231 0.08881122789498784 0.072120487954680068 0.008209210141248556 0.0083446606944178204 0.0016205055354194524 0.025823543665697526 -0.029585680717171381 0.040678085441374433 0.09359741198539534 0.0012522834260730528 -0.066677088062941522 -0.080628468445926291 -0.010056368961946329 0.073134508380557614 -0.079658680710266772 -0.029064875784695094 -0.016648307334205272 -0.071959663474781832 0.01148560030738828 0.047849557909895604 0.06662229724490476
leaf_weight=20.4796002805233 15.332194507122038 196.05356869101524 42.33394530415535 13.435339361429213 128.9788821041584 7.7197747230529776 133.06371107697487 126.09652665257454 56.097381055355072 26.831794500350952 38.654536694288254 126.23593759536743 179.9166017472744 22.750252664089203 115.17817109823227 139.0545337498188 187.96966275572777 30.605428665876389 178.68096476793289 38.240415304899216 41.536792486906052 41.916763693094254 27.95101734995842 15.722326397895811 21.40512415766716 588.88537940382957 51.263348430395126 178.24013283848763 84.278129816055298 25.099965214729309
leaf_count=55 42 542 120 37 347 21 367 349 155 72 105 344 493 62 317 383 512 82 490 107 117 116 76 44 59 1650 143 495 230 68
internal_value=3.7237e-05 -0.00407898 -0.0130655 0.0176996 0.0272036 -0.0147235 -0.0078337 0.00372893 0.00754893 0.0186259 0.0149416 -0.00422478 -0.0143933 0.0141278 0.0103505 -0.00444095 0.0257541 0.0553148 0.00375787 -0.0215311 -0.012452 -0.045839 0.0204387 -0.00945564 0.0169701 -0.0133671 -0.0549177 -0.010092 0.0320511 0.00963884
internal_weight=2900.01 2352.06 1093.78 547.947 399.551 1073.3 148.396 1258.28 1093.94 563.786 536.954 530.157 375.97 270.572 498.3 254.233 244.067 53.3557 217.216 164.337 1030.97 83.4536 154.187 947.514 121.406 826.109 58.9831 767.126 105.683 203.781
internal_count=8000 6505 3050 1495 1086 2995 409 3455 2999 1544 1472 1455 1035 739 1367 700 667 144 595 456 2875 233 420 2642 333 2309 164 2145 289 558
is_linear=0
shrinkage=0.1


Tree=13
num_leaves=31
num_cat=0
split_feature=61 162 188 42 25 68 188 21 88 60 166 45 159 91 72 207 39 189 210 81 126 188 224 153 39 21 219 215 165 169
split_gain=60.7473 13.1458 11.3669 10.9705 11.3162 12.5728 16.1846 10.7081 10.8108 10.3931 8.42642 10.3865 8.02897 11.3496 8.73844 7.99864 9.39494 9.17126 8.80882 9.81947 8.6671 8.35996 8.11917 7.8277 8.61805 11.0776 7.68662 7.67071 9.35709 10.2988
threshold=0.13158071789399928 -1.0803921459063084 -0.51992698817414718 1.0000000180025095e-35 -0.30707988238237433 1.2329669594531951 0.51959434134869997 -0.006688941739110648 0.0109508503228426 -0.3028720460615138 1.02122187443488 1.5071509890217996 0.87836174956368362 -0.010630441363900898 0.11810195446014406 -1.2673683044560791 -0.0065511385117310869 1.0000000180025095e-35 -0.0089686788855437762 -0.0038497077995337009 0.21895563602447513 1.4436133009245642 -0.57087771216023631 -0.82869960775940776 -0.00683392984751135 -0.03394553704453171 0.036733407527208335 -0.038582997396588319 0.37041763189509097 0.10179742122547909
decision_type=2 2 2 2 2 2 2 2 2 2 2 2 2 2 2 2 2 2 2 2 2 2 2 2 2 2 2 2 2 2
left_child=1 2 26 4 5 23 -7 8 12 10 -2 -12 -4 14 -14 17 20 -6 19 -18 21 -17 -20 24 -3 -26 -1 28 -5 -30
right_child=9 3 7 27 15 6 -8 -9 -10 -11 11 -13 13 -15 -16 16 18 -19 22 -21 -22 -23 -24 -25 25 -27 -28 -29 29 -31
leaf_value=-0.0017429394835271981 -0.025265590885535372 0.013447234922525595 0.028412311696292894 -0.025369729680859567 0.14622712310453151 0.0236834344728017 0.18591336817349191 0.0085353011443188281 0.1232759207945736 -0.045774188192134156 0.043104880874865775 -0.038045590099566998 0.0013604339663410951 0.18438451815771395 0.089552478435043631 -0.0055014606387251697 0.00046877158493056252 0 0.077064800649650156 0.12473209428414951 0.067333925761294419 -0.057710843007783535 -0.016266240950335142 -0.0017740854424886246 0.15616814983764665 -0.016598628629182786 0.087457574312298142 -0.035982917105624485 0.09906028404999051 -0.013556476995502132
leaf_weight=198.6153888553381 265.00026868283749 24.230006292462349 208.55191235244274 40.303054943680763 7.0609539002180126 14.307765096426012 10.499880313873289 139.95497368276119 14.983260855078695 211.39694145321846 43.209906682372093 23.489328682422638 20.14476703107357 6.9620165824890128 25.180621013045311 343.85344670712948 10.578467309474947 9.3312638103961927 11.177731171250342 15.612752988934515 13.967045471072195 32.799370184540749 38.563747614622116 67.516034692525864 11.658326312899591 4.8576218187808982 9.1456524729728681 108.48687291145325 16.292951062321666 14.65055415034294
leaf_count=754 1154 98 770 170 27 56 37 537 55 992 184 101 75 25 90 1384 44 37 45 63 57 134 157 271 45 20 34 456 66 62
internal_value=-3.20212e-05 0.0108472 0.0217089 0.00230695 0.00866217 0.034369 0.0972782 0.0312365 0.0426468 -0.028449 -0.017273 0.0142387 0.0375239 0.0724632 0.0514471 0.00150191 -0.000957124 0.0680964 0.0309685 0.0767737 -0.00725193 -0.0102152 0.00561515 0.0191038 0.0531518 0.106737 0.0025359 -0.0193469 0.00599379 0.0466723
internal_weight=1962.38 1419.29 623.539 795.748 616.014 133.07 24.8076 415.778 275.823 543.096 331.7 66.6992 260.839 52.2874 45.3254 482.945 466.553 16.3922 75.9327 26.1912 390.62 376.653 49.7415 108.262 40.746 16.5159 207.761 179.733 71.2466 30.9435
internal_count=8000 5569 2340 3229 2475 527 93 1552 1015 2431 1439 285 960 190 165 1948 1884 64 309 107 1575 1518 202 434 163 65 788 754 298 128
is_linear=0
shrinkage=0.1


Tree=14
num_leaves=31
num_cat=0
split_feature=126 62 77 5 171 162 68 151 205 151 125 188 152 161 51 153 69 169 151 126 188 209 69 125 155 171 206 68 162 126
split_gain=26.8812 24.468 18.6206 21.9114 18.3835 12.9812 12.9246 12.703 12.0411 11.8355 11.264 15.5607 13.8067 11.7307 15.878 11.6231 10.7248 10.5809 12.2676 10.4933 9.42531 9.25827 9.07742 8.43098 9.50318 7.98844 9.25606 10.272 10.2601 7.90694
threshold=-0.22024444490671155 -0.35641420276653174 -0.037087445339143627 -0.50719507767583882 -0.0063263097614614352 4.392603432208408 1.7265971550095609 0.21312093734741214 -1.5777815881716946 0.22572520375251773 -0.064937647432088838 0.98160382113663214 0.0017133039655163886 -0.66637938998941681 0.1157830414084574 -0.38959104225047764 -1.4533686598314037 1.22634177729118 0.22346691042184832 -0.0083549953997135145 0.17308723150775085 0.81703268113934635 1.4005397191942575 -0.059769634157419198 0.060846186086879597 -0.0063117306920035523 -0.27501631894891404 -0.29819737786501183 -1.252899364604394 -0.90861263871192921
decision_type=2 2 2 2 2 2 2 2 2 2 2 2 2 2 2 2 2 2 2 2 2 2 2 2 2 2 2 2 2 2
left_child=1 6 4 5 23 9 -1 -6 -5 16 15 12 22 -13 -15 -9 -4 21 -19 -14 -7 -18 -12 24 -2 26 -10 -28 -29 -3
right_child=2 29 3 8 7 20 -8 10 25 -11 11 13 19 14 -16 -17 17 18 -20 -21 -22 -23 -24 -25 -26 -27 27 28 -30 -31
leaf_value=0.068320967000320074 0.049818714945689152 0.042046856607585198 0.066257475041753819 0.074193886028474862 0.097762262647345444 -0.0046752704468170257 -0.032168778242343182 -0.040108086337793822 -0.063482540430365178 -0.048584493221185174 0.0020872048084830731 -0.013445355747733714 0.018823236113989453 0.11135426203805304 -0.0033136738535892705 0.062245224178361515 -0.0015233915567880677 0.12454302157263192 -0.031612178757511489 -0.018899587805907992 0.1232210354004618 -0.018564234491500964 0.084973325925159271 -0.057851243617403382 -0.046151747152480549 -0.088457791625333348 0.099483034800730716 -0.070570977123211295 0.03189853111437102 -0.028060686742571336
leaf_weight=127.04811671376228 20.652624785900116 20.641798764467239 20.368703961372375 7.1110376417636862 18.814613968133926 9.6272425949573535 13.493500947952269 57.779014557600021 51.947206377983093 61.104803681373596 20.260358095169067 15.752000927925108 196.1337476670742 45.566395789384842 16.001083135604858 12.678845494985579 1248.5692837834358 12.182855963706972 7.4518915712833396 116.67862206697464 12.590915054082869 427.97724696993828 38.687757790088654 48.06561753153801 18.684854179620743 41.231383889913559 7.2719533145427695 20.079585611820221 17.239982903003693 61.370365679264069
leaf_count=348 59 58 57 20 51 27 38 162 158 181 57 46 545 126 45 35 3588 34 22 333 34 1238 107 139 53 131 21 61 50 176
internal_value=-1.25819e-05 0.0332446 -0.00290767 -0.00773841 0.012078 -0.00470831 0.0584431 0.019001 -0.0450229 -0.00568073 0.0159472 0.0217899 0.0131811 0.0623573 0.0818162 -0.0209364 -0.00412025 -0.00500982 0.0661336 0.00470542 0.0695577 -0.00588789 0.0571624 -0.0301832 0.00397188 -0.0517386 -0.0352074 -0.00137875 -0.0233765 -0.0100008
internal_weight=2793.06 222.554 2570.51 1944.75 625.756 1799.87 140.542 538.352 144.881 1777.65 519.538 449.08 371.76 77.3195 61.5675 70.4579 1716.55 1696.18 19.6347 312.812 22.2182 1676.55 58.9481 87.4031 39.3375 137.77 96.5387 44.5915 37.3196 82.0122
internal_count=8000 620 7380 5622 1758 5181 386 1507 441 5120 1456 1259 1042 217 171 197 4939 4882 56 878 61 4826 164 251 112 421 290 132 111 234
is_linear=0
shrinkage=0.1


Tree=15
num_leaves=31
num_cat=0
split_feature=125 77 62 158 79 128 158 6 31 0 73 49 0 6 154 192 52 54 72 150 91 174 209 54 73 38 69 199 208 80
split_gain=17.4611 14.1293 19.006 14.9696 13.6556 11.5034 15.4274 14.4729 12.2033 11.1998 14.6655 11.0448 10.998 10.9305 10.7722 13.0383 17.9085 12.3156 11.1142 10.8495 13.6341 9.95143 9.82895 9.05519 8.70027 8.61723 9.69038 8.55518 13.0471 9.09943
threshold=0.0040824969764798888 -0.017595133759687128 -0.3569321643297792 0.068139039479136118 -0.004052929799233238 -1.1322931946341981 0.017197112681195597 -0.50726549677140509 0.50652846815554586 1.3937992802589334 0.11147898233137911 -0.50719013130344093 1.300892260861821 -0.50722404717504277 -1.0498872469883993 0.54195026817362335 -0.83208785684530506 -0.50717595764356005 0.101689700037241 -0.2921129001723764 -0.061562590301036828 -0.50716486573219288 -1.8194396331338625 -0.50712404247483411 0.10972358344811957 -0.0063382468894047249 1.1025897852718007 0.057458833468559775 0.87188096738194221 -0.5072294680764734
decision_type=2 2 2 2 2 2 2 2 2 2 2 2 2 2 2 2 2 2 2 2 2 2 2 2 2 2 2 2 2 2
left_child=1 2 3 14 23 8 -7 -8 -2 10 24 27 13 -12 15 22 17 -17 19 20 -16 -13 -1 25 -9 -4 -27 -3 -29 -30
right_child=5 11 4 -5 -6 6 7 9 -10 -11 12 21 -14 -15 18 16 -18 -19 -20 -21 -22 -23 -24 -25 -26 26 -28 28 29 -31
leaf_value=0.050551339096354245 -0.078976279726238593 -0.0090711314763714367 0.0055598120749476045 -0.076727020523313039 -0.064852702228364631 0.075749380380648976 -0.013953465833675556 0.052628315360160695 0.032243473135149525 0.048787746237644737 0.0023911446152927772 0.097962733223866102 0.11090198176353183 0.066726583879909401 -0.049828876547647699 -0.076398915323079061 0.064663852068842897 0.010423553887767462 -0.031177492336504738 -0.085809311312785408 0.059370049398991966 0.011722346275530919 -0.029922744927521956 0.091462187161631167 -0.05357478408851607 0.11360029994310179 -0.0010376584152898397 0.018713398473944948 -0.026299841938935656 0.011042661239691729
leaf_weight=15.919528424739836 23.8855339884758 456.82917526364326 199.19375455379486 41.935038238763809 20.45704984664917 44.584922432899475 127.3654460310936 8.4475256800651533 15.461766868829725 127.27495384216309 111.72127288579941 21.810038238763809 13.038180768489836 33.762328684329987 14.788045197725294 18.974932223558426 54.0013547539711 88.409392327070236 425.89787238836288 8.4759950339794141 40.771883964538574 33.891837686300278 146.9328647851944 14.902943998575209 42.426254779100418 15.759236305952074 12.829104036092756 451.81064572930336 142.35389959812164 118.53482067584991
leaf_count=44 67 1269 550 118 57 121 352 23 43 341 305 59 35 91 42 54 149 247 1201 24 113 91 417 40 117 43 36 1234 393 324
internal_value=3.08157e-05 -0.00372334 -0.0118429 -0.019067 0.0116056 0.0160887 0.0201459 0.0146305 -0.035308 0.025483 0.0111058 0.00368931 0.0261153 0.0177433 -0.0159944 -0.00181022 0.0182436 -0.00538915 -0.0253383 0.0132261 0.0297613 0.0467982 -0.0217345 0.0183313 -0.0350725 0.013124 0.0635218 0.00158936 0.00843972 -0.00931771
internal_weight=2892.45 2344.48 1119.25 856.107 263.142 547.968 508.621 464.036 39.3473 336.671 209.396 1225.23 158.522 145.484 814.172 324.238 161.386 107.384 489.934 64.0359 55.5599 55.7019 162.852 242.685 50.8738 227.782 28.5883 1169.53 712.699 260.889
internal_count=8000 6505 3135 2409 726 1495 1385 1264 110 912 571 3370 431 396 2291 911 450 301 1380 179 155 150 461 669 140 629 79 3220 1951 717
is_linear=0
shrinkage=0.1


Tree=16
num_leaves=31
num_cat=0
split_feature=157 158 161 188 4 188 76 22 162 54 69 208 187 162 69 51 77 74 125 159 153 217 162 207 49 200 77 19 61 211
split_gain=55.9126 14.0166 10.7152 9.24035 8.81253 8.66102 8.61562 8.56069 8.2601 10.0239 6.90936 7.75992 7.78931 9.78189 9.22853 8.05799 7.29686 7.47031 7.27524 7.14207 6.89475 6.8295 10.4274 7.39817 6.80402 6.79864 6.3845 9.70298 6.20531 6.12736
threshold=0.05103987026558391 0.1114868923335834 -0.53793677617685864 1.5013644858980559 -0.50723738227714743 1.2703597460040899 -0.50723143848048025 -1.3739789824187592 -0.5902970873183937 -0.50715604474256093 5.1248638973603216 -0.79402324898380827 -0.15379932026382687 -1.6180094829738088 3.7743764205684074 -0.0090869590372879405 -0.041297282897957234 0.0065576971974223861 -0.047050988301634782 -0.25658015907413861 -1.3958725024738921 0.11479568481445314 -0.056455012389257604 1.2129227086768732 -0.50719060312285236 -0.0086364462064145043 0.019107450662496535 -0.071022019592715965 -0.1560780880355028 -0.0088465477252842317
decision_type=2 2 2 2 2 2 2 2 2 2 2 2 2 2 2 2 2 2 2 2 2 2 2 2 2 2 2 2 2 2
left_child=2 7 10 4 -4 6 -6 -2 -8 -10 11 28 16 15 -15 -14 19 20 -16 -13 -18 23 -23 29 -12 -21 27 -7 -1 -9
right_child=1 -3 3 -5 5 26 8 21 9 -11 24 12 13 14 18 -17 17 -19 -20 25 -22 22 -24 -25 -26 -27 -28 -29 -30 -31
leaf_value=0.05543861034433855 -0.052460945493573774 -0.042599114349130253 -0.026384497786145811 -0.040061529367089135 0.11229514091970712 -0.02053125617348904 -0.0017340453724379362 -0.0079008404459459981 0.043626037351078201 -0.0030504893681599036 -0.056626506444006589 -0.0087471735342515324 -0.049459997322727461 0.037672297873755284 0.014983441827498348 0.075602187580339264 0.040616411910523405 0.083477265713858911 0.15448069153298585 0.17870450688158759 -0.0068696463091913983 0.15938917211186343 -0.018013676947162837 -0.043767957100273369 0.050276639043008955 0.028996465027774559 -0.011264468201063485 0.11042000370476737 -0.0048281384881478564 0.051238593766340906
leaf_weight=115.13332569599152 47.434429034590721 231.91083139181137 67.593536183238029 42.259051129221916 6.859600603580474 6.9472196102142361 378.98626047372818 342.75299705564976 107.5633090287447 78.975784704089165 19.043483093380932 7.7604165822267559 17.308251008391384 61.5235216319561 5.5569825768470791 6.1595069319009772 35.109345659613609 10.35518032312393 13.622862026095389 5.998868167400361 198.40431283414364 5.063002735376358 6.7193194180726987 55.844681173563004 7.4919762015342704 6.5063408315181706 9.9346140176057798 22.261911690235138 19.5004892796278 17.436778366565704
leaf_count=392 217 1124 273 175 25 30 1517 1469 422 323 87 28 64 224 20 22 126 36 48 21 737 21 30 244 27 24 41 86 72 75
internal_value=-1.1875e-05 -0.0224731 0.0126863 0.00472786 0.00758443 0.0113924 0.00820723 -0.0125623 0.00673105 0.0239002 0.0234809 0.0261224 0.0184801 0.0415356 0.0579242 -0.0144783 0.00922721 0.00426634 0.117305 0.0654464 0.000370106 -0.00800322 0.0639417 -0.0102132 -0.0253507 0.109468 0.0563535 0.0792944 0.0466646 -0.00487628
internal_weight=1958.02 707.162 1250.86 721.381 679.122 611.529 572.385 475.251 565.525 186.539 529.475 502.939 368.306 104.171 80.7034 23.4678 264.134 243.869 19.1798 20.2656 233.514 427.817 11.7823 416.034 26.5355 12.5052 39.1437 29.2091 134.634 360.19
internal_count=8000 3180 4820 2892 2717 2444 2287 2056 2262 745 1928 1814 1350 378 292 86 972 899 68 73 863 1839 51 1788 114 45 157 116 464 1544
is_linear=0
shrinkage=0.1


Tree=17
num_leaves=31
num_cat=0
split_feature=62 25 72 143 127 58 186 157 188 160 192 158 169 143 74 55 67 0 138 21 214 192 214 17 1 154 82 58 57 143
split_gain=23.818 17.524 19.3514 15.1901 16.6385 15.2867 25.9697 15.1292 17.0954 14.993 14.3991 11.2059 10.5098 10.3397 10.3281 10.2848 14.6875 10.5329 10.2791 10.1845 12.4019 10.0089 14.4192 9.69825 9.32074 8.88178 8.56946 8.70792 11.12 11.6221
threshold=-0.35706075980787549 -0.79417507633008888 0.12242480367422105 -0.30908978689570743 0.083571676164865508 1.0015992895167622 0.013073174282908441 0.018198090409246494 -0.23117106330668971 -0.032909361465589225 -0.53043903480309251 -0.010109371704694756 0.31336629653653608 -0.31291765934010923 0.0050801474135369071 -0.50718903965912976 1.8849422899596271 1.147917839662101 1.0000000180025095e-35 -0.030319749060994699 -0.0090867731117592627 1.1173580060950814 -0.0090165267365604988 0.032381363128614386 -0.50717629505631689 -0.43296888223285462 -1.6712521650095347 -1.3552783271611435 -0.016231448993356264 -0.30628832434742553
decision_type=2 2 2 2 2 2 2 2 2 2 2 2 2 2 2 2 2 2 2 2 2 2 2 2 2 2 2 2 2 2
left_child=1 7 3 5 -5 6 9 15 10 -3 -9 -11 19 -2 -7 17 25 -1 24 -4 -21 22 -8 -6 26 -17 -15 -28 -29 -30
right_child=13 2 12 4 23 14 21 8 -10 11 -12 -13 -14 18 -16 16 -18 -19 -20 20 -22 -23 -24 -25 -26 -27 27 28 29 -31
leaf_value=-0.072887017331964066 0.073843983429987659 0.0565464675504622 0.0083536176037094702 -0.051585906790203119 0.10257539585314507 -0.013543756563107971 0.079681579290552668 0.066151894709811795 0.067634576028816257 -0.042710309541131891 -0.030267706591827259 -0.0034605948793695698 -0.078103221221883498 0.049883690425081041 -0.072188939635714919 -0.027006848923648859 0.11494870139347171 -0.007313268838836426 0.041280739005605104 -0.062196313544969656 0.018171313525213072 0.0037519504871003553 -0.042396733225028814 -0.02181797418662763 -0.057151697736090801 0.04552675411763385 -0.024653786400374945 0.040433363153777664 -0.0047925841057737664 0.019071616545185029
leaf_weight=28.68238365650177 24.327602624893188 34.954052209854126 52.330330044031143 126.25783029198647 11.114336997270586 92.725978672504425 73.472204387187958 21.446452051401138 76.758998394012451 87.06488111615181 48.957273453474045 423.72379690408707 56.225933164358139 45.351882070302963 44.28725728392601 37.985283732414246 13.707328557968138 144.7800569832325 91.092836320400238 86.98234549164772 23.840874284505844 41.290489464998245 10.368656814098356 12.182483196258543 21.544998675584793 28.735691159963608 84.570148169994354 97.647948324680328 500.21779721975327 342.86428242921829
leaf_count=82 68 100 151 373 31 272 209 59 211 257 138 1224 177 125 132 113 39 413 254 267 74 120 30 35 68 83 238 276 1418 963
internal_value=-2.00612e-05 -0.00811117 -0.014264 -0.00809188 -0.0372602 -0.00264054 0.00357618 0.00990883 0.0353124 -0.00584919 -0.000241119 -0.0102407 -0.0409966 0.0105415 -0.032958 -0.00485738 0.024457 -0.018569 0.00917034 -0.0277501 -0.0448099 0.0444833 0.0641444 0.0388947 0.00644776 0.00429556 0.00778906 0.00587056 0.00864854 0.00491175
internal_weight=2785.49 1577.87 1176.82 957.442 149.555 807.887 670.874 401.053 147.163 545.743 70.4037 510.789 219.379 1207.62 137.013 253.891 80.4283 173.462 1183.29 163.154 110.823 125.131 83.8409 23.2968 1092.2 66.721 1070.65 1025.3 940.73 843.082
internal_count=8000 4590 3452 2783 439 2344 1940 1138 408 1581 197 1481 669 3410 404 730 235 495 3342 492 341 359 239 66 3088 196 3020 2895 2657 2381
is_linear=0
shrinkage=0.1


Tree=18
num_leaves=31
num_cat=0
split_feature=125 169 89 38 199 157 185 187 161 81 199 192 25 185 64 41 69 67 6 72 11 4 166 57 49 51 209 6 22 149
split_gain=14.9386 12.0254 14.9629 14.1513 11.9925 11.8486 12.7049 11.693 14.6275 17.4551 13.7035 11.2839 12.8238 13.473 11.9082 16.5516 11.1636 10.8136 10.7786 10.7589 10.3122 10.2954 9.74658 10.2778 10.3381 10.2962 11.2748 9.58759 11.069 9.42809
threshold=0.0040824969764798888 -0.50381341707520966 -0.020986406132578846 -0.0067673253634213766 0.057691364200694935 -0.010256000744998104 0.21312081813812259 -1.1665964455919466 1.0493767741420907 0.019633459235509895 0.057226830266727279 0.37152763725585064 1.9393615686709977 0.22456953674554828 -0.38269846848364125 -1.1850285588307228 4.2905908416034828 -1.3982318477469293 -0.50725050269531702 0.10128723084926607 -0.50724686025777732 -0.50722977987867413 1.0776136321100347 -0.051558488701345634 -0.50722092384251771 -0.026426997373030888 -1.4208554752028675 -0.50726549677140509 1.8977809841320166 1.0258126900788833
decision_type=2 2 2 2 2 2 2 2 2 2 2 2 2 2 2 2 2 2 2 2 2 2 2 2 2 2 2 2 2 2
left_child=1 3 5 -1 7 -3 -7 8 9 10 -4 12 13 19 15 -15 17 -9 20 -5 -6 -21 23 24 -13 -25 -27 -2 -29 -19
right_child=27 2 4 11 18 6 -8 16 -10 -11 -12 22 -14 14 -16 -17 -18 29 -20 21 -22 -23 -24 25 -26 26 -28 28 -30 -31
leaf_value=0.088300180647979912 -0.0067752283077361771 -0.050583706721477634 -0.017234655063653972 0.035015521169486453 0.03876101573300024 -0.084885901880740869 -0.0026000194421561197 -0.03585094834327953 -0.074686048630356813 -0.091841275153737398 0.074419186422638714 -0.070924576450084029 0.073466986112549357 -0.06953694502252572 -0.078024549295570664 0.090962614740956987 -0.043964366549495398 0.0035093891627920788 0.084099096485223693 -0.091254235820648524 -0.086573798991596382 -0.033844583834388181 0.046356094284867685 0.053215841068182092 0.028859546939256148 0.082507020985333232 -0.01350378170108181 0.028430335706848515 -0.027153642751189783 0.037885271122691945
leaf_weight=12.302526295185087 147.61992558836937 60.761141777038574 19.57003715634346 19.397442162036896 24.038723945617679 18.307927817106247 687.96125167608261 56.135752767324448 10.069392383098601 7.5834774672985068 83.985636502504349 41.140738487243652 11.442843765020369 7.6761283576488486 7.9938997328281394 24.707723677158356 48.576500415802002 430.17580324411392 39.400129467248917 34.651922047138214 7.8875679075717917 307.74919128417969 36.412002563476562 31.865036398172379 12.994620323181151 12.077690482139586 185.58959820866585 360.70134380459785 38.792771488428116 97.27705791592598
leaf_count=33 409 172 54 54 65 53 1925 155 28 22 228 116 31 22 22 68 136 1186 106 99 22 865 99 88 36 33 520 980 106 267
internal_value=5.36085e-05 -0.00342542 0.00148033 -0.0138941 0.0108298 -0.00856007 -0.00486418 0.00707003 0.0353903 0.0460297 0.0570035 -0.0157391 -0.0266296 -0.0296775 0.0244911 0.0516756 0.00157691 0.00545349 0.0497565 -0.0358013 0.00580375 -0.0399325 -0.00159582 -0.00792735 -0.0467021 0.00133724 -0.00720131 0.0149163 0.0229536 0.00992788
internal_weight=2884.85 2337.73 1591.73 746.001 824.7 767.03 706.269 753.374 121.209 111.139 103.556 733.699 413.619 402.176 40.3778 32.3839 632.165 583.589 71.3264 361.799 31.9263 342.401 320.08 283.668 54.1354 229.532 197.667 547.114 399.494 527.453
internal_count=8000 6505 4419 2086 2269 2150 1978 2076 332 304 282 2053 1161 1130 112 90 1744 1608 193 1018 87 964 892 793 152 641 553 1495 1086 1453
is_linear=0
shrinkage=0.1


Tree=19
num_leaves=31
num_cat=0
split_feature=128 187 169 169 60 127 157 31 67 125 88 125 1 199 211 117 216 33 188 171 88 166 90 31 31 221 31 157 152 69
split_gain=52.0244 9.95003 10.0811 10.0464 9.04659 8.70302 7.24353 13.0067 7.42079 7.33283 7.08261 6.89825 6.85191 6.56407 10.4372 9.56388 10.7863 9.05125 7.60864 7.46927 6.46288 11.7966 14.1286 6.00534 6.24869 9.76896 8.35382 7.23866 5.98866 5.92611
threshold=0.040786752580473894 -1.3112817492102493 -0.99559093313085001 1.055831949821733 -0.3028720460615138 1.4291222095489504 -0.021507156477276679 -8.9787967325906468e-05 0.47170901485548683 -0.01865294016897678 0.062470490112900741 -0.026079335249960419 -0.50717041273395447 0.057668694932309951 -0.0089761378329408763 0.016688045114278797 0.034826466813683517 -0.0094980612684492198 0.63509671129568301 -0.0063096545826642871 0.080972950905561461 1.0692338485561315 0.0033986199414357547 2.0762877984400818 -0.75932484229612573 0.95694139914824727 -0.90350870305842446 0.073594054729337902 0.010131098330020906 4.6524600338566904
decision_type=2 2 2 2 2 2 2 2 2 2 2 2 2 2 2 2 2 2 2 2 2 2 2 2 2 2 2 2 2 2
left_child=1 2 11 5 10 6 7 8 9 -3 23 -1 -4 14 18 19 -17 -16 -8 -15 21 -12 -23 24 25 26 -2 -28 -5 -10
right_child=4 3 12 28 -6 -7 13 -9 29 -11 20 -13 -14 15 17 16 -18 -19 -20 -21 -22 22 -24 -25 -26 -27 27 -29 -30 -31
leaf_value=-0.00020037007678693343 -0.025733130716379445 -0.01021010908676255 -0.034699678303494907 0.0032116450204381346 -0.041573146478549018 -0.026556845593772749 0.0098761073149569618 -0.016746568950680156 0.14698294123787911 0.083121936737987331 -0.042511471859101993 0.087104764322353312 0.052636987432368269 0.052580455303699848 0.10831579402117403 0.10249170755572995 -0.017570112644151828 -0.01174703585686656 0.029922994197393589 -0.041298926336099329 -0.021103803044862594 -0.017453771843348568 0.18420801338176485 0.080416256656288473 -0.027539460937898108 0.095600078113506612 0.14530493799104446 0.0080276243383257968 -0.065118908166803602 0.039128664825013829
leaf_weight=24.441118985414505 65.221308752894402 15.805689305067064 105.43040028214455 26.595295920968056 192.90418301522732 44.19745609164238 582.808478936553 22.287358269095421 16.310804784297947 16.168060556054115 6.5399217009544399 13.159229427576063 8.8426168262958509 8.8647523373365384 21.750223383307461 13.115043476223947 15.157722786068915 8.2229259610176069 282.47144351899624 60.559886604547501 15.374494999647139 5.0481560826301566 8.6373255252838117 4.9529389292001715 309.41476465761662 8.9829292148351652 4.5879214406013515 13.266729086637495 23.157395973801613 8.9544118195772153
leaf_count=94 295 59 441 103 974 183 2224 80 53 57 30 49 33 34 80 50 60 31 1043 243 69 22 37 21 1390 40 20 61 91 33
internal_value=-1.01848e-05 0.0113097 -0.0126692 0.0144486 -0.0235101 0.0164199 0.0182234 0.0471817 0.0721055 0.0377711 -0.0155286 0.0315603 -0.0274567 0.0158489 0.0185371 -0.00862112 0.0393807 0.0757387 0.016459 -0.0285932 0.0266015 0.062622 0.113017 -0.0192996 -0.0207514 0.00200698 -0.00901091 0.0496684 -0.0290522 0.112083
internal_weight=1953.23 1318.3 151.873 1166.43 634.931 1116.67 1072.48 79.5263 57.239 31.9737 442.026 37.6003 114.273 992.95 895.253 97.6974 28.2728 29.9731 865.28 69.4246 35.5999 20.2254 13.6855 406.427 401.474 92.0589 83.076 17.8547 49.7527 25.2652
internal_count=8000 5041 617 4424 2959 4230 4047 282 202 116 1985 143 474 3765 3378 387 110 111 3267 277 158 89 59 1827 1806 416 376 81 194 86
is_linear=0
shrinkage=0.1


Tree=20
num_leaves=31
num_cat=0
split_feature=125 62 91 162 153 95 188 40 81 54 21 25 51 81 45 126 213 81 199 21 156 187 28 192 7 169 187 161 67 162
split_gain=20.0998 25.5703 14.1728 13.7625 14.6902 15.4475 12.0229 11.6466 11.4208 11.5743 13.163 10.9588 10.5472 12.8722 10.0637 9.80227 12.071 10.4189 14.9618 9.63211 14.8351 9.4766 9.25081 9.23355 12.678 12.7596 9.7487 10.1655 9.19836 8.69728
threshold=-0.087859079241752611 -0.35643560888429598 -0.31480741500854487 -0.92582268745255025 -1.788083884881994 0.92614616758147816 -1.3861947627765197 -0.82112571798555722 0.088228987556146443 -0.50712439991953573 -0.1044033260669132 -2.0867342042123478 0.32635049221583984 0.19693407056742188 -0.79067891029250092 0.10773447528481485 -0.0090897275079008539 -0.023888574468276632 0.057688812595590534 -0.028039136149720926 -0.0055661751973912045 -0.73254053473703817 0.80620347352916077 0.85871812998131491 -0.50718702356657575 -1.0191273875481344 -0.87722583835534096 0.36640645169472935 -1.7154164360474338 2.1746903350769671
decision_type=2 2 2 2 2 2 2 2 2 2 2 2 2 2 2 2 2 2 2 2 2 2 2 2 2 2 2 2 2 2
left_child=1 14 -3 8 -5 7 -4 23 9 15 -11 -7 -9 -14 -1 16 19 -18 -19 20 -2 -21 -10 26 25 -25 -6 -28 -13 -16
right_child=3 2 6 4 5 11 -8 12 22 10 -12 28 13 -15 29 -17 17 18 -20 21 -22 -23 -24 24 -26 -27 27 -29 -30 -31
leaf_value=0.10141534200732186 0.031387692684584967 0.092708845907453555 0.074406237321136631 0.061003394233782406 -0.047897781864239902 0.07188518038549617 -0.041535149894513151 -0.0026021137735622126 0.13786211397815981 0.053519548406986486 -0.053147363339887413 0.018624825909923374 0.086636693871451051 -0.043554965074870861 0.01392060653449431 -0.061168862962656625 0.054073377065265438 -0.010751001546486059 0.063905665502796541 0.00091576370168481398 -0.015212868749991663 -0.039768644489626886 -0.0079192108300886691 -0.0075022879968728905 -0.04633893968916411 0.076253077347566423 0.044172145645459258 0.0012701175861285633 -0.051666909310220804 0.1016182674002907
leaf_weight=43.136409133672714 91.973475784063339 10.729806065559385 9.403394401073454 42.307975113391876 25.425043731927872 8.6820818483829481 63.292035490274429 974.56843268871307 8.2097785472869891 12.059289336204527 106.85988299548626 22.064434945583344 26.679085671901703 9.6438568830490095 44.743803024291992 33.353950440883636 47.251724004745483 156.719223767519 31.340860933065414 80.240051329135895 256.24413713812828 194.4278119802475 7.8274581730365744 23.432662427425385 12.824206888675688 74.808649212121964 83.215629577636719 162.11903375387192 99.602858871221542 14.499105095863341
leaf_count=116 261 29 27 117 72 24 182 2802 23 35 341 62 74 27 122 102 131 460 91 236 736 582 24 65 38 205 232 455 290 39
internal_value=-4.49142e-05 0.0316322 -0.00934371 -0.00233094 0.00356477 0.00192369 -0.0255959 0.00501831 -0.011326 -0.0126918 -0.0418911 -0.0308511 -0.000597009 0.0515616 0.0648861 -0.00874329 -0.0066253 0.0126116 0.00191011 -0.0139171 -0.00282116 -0.0278868 0.0698337 0.0198738 0.0440523 0.0563006 0.00979345 0.015983 -0.03879 0.0368803
internal_weight=2777.69 185.805 83.4252 2591.88 1565.37 1523.07 72.6954 1392.72 1026.51 1010.47 118.919 130.349 1010.89 36.3229 102.379 891.551 858.197 235.312 188.06 622.885 348.218 274.668 16.0372 381.825 111.066 98.2413 270.76 245.335 121.667 59.2429
internal_count=8000 515 238 7485 4463 4346 209 3970 3022 2975 376 376 2903 101 277 2599 2497 682 551 1815 997 818 47 1067 308 270 759 687 352 161
is_linear=0
shrinkage=0.1


Tree=21
num_leaves=31
num_cat=0
split_feature=81 0 22 90 169 188 153 21 187 7 143 39 74 151 81 45 160 72 203 22 161 188 63 211 162 81 81 17 129 129
split_gain=12.9198 14.0744 13.3933 14.5178 9.80164 12.3669 14.3682 11.4162 9.61879 10.0504 12.9248 10.6845 10.3976 10.7146 10.0604 12.0568 9.8107 13.6436 12.2125 12.583 12.4601 10.3789 9.18305 9.08747 9.06532 10.9603 9.73456 8.98766 8.912 9.63649
threshold=0.010137237554253654 1.5548796830167906 1.1169913244170273 -0.11840860173106192 -0.53080052256015375 0.4618431563752084 -1.788083884881994 0.004684657422739315 1.4377390195375046 -0.507235820796062 -0.31024935565424755 -0.0064848435234610797 0.0022184875560924415 0.21404295414686206 0.01407140746948621 1.8261164383227693 0.031247011838236034 0.10702230781316759 -1.1029593072010395 1.8654366640619442 5.2051959163044561 0.51959434134869997 -0.034622589014349378 -0.0091043025180397603 -1.1061600170147357 -0.023313575615019195 -0.017570773433296875 0.028116100891306454 -0.081701801500963553 0.54240141544374565
decision_type=2 2 2 2 2 2 2 2 2 2 2 2 2 2 2 2 2 2 2 2 2 2 2 2 2 2 2 2 2 2
left_child=1 2 3 -1 28 6 -6 -8 9 11 12 -2 -11 -14 -15 -16 18 -18 -12 20 -20 -19 23 -7 25 -3 -27 -4 -5 -30
right_child=8 24 27 4 5 22 7 -9 -10 10 16 -13 13 14 15 -17 17 21 19 -21 -22 -23 -24 -25 -26 26 -28 -29 29 -31
leaf_value=0.037586645723638373 -0.089572294311365805 -0.070909949945704862 0.099964247051127345 -0.030432193986646722 -0.048096852479054326 -0.017656385485619732 0.0047515452813399863 0.044244946339454472 0.078612688661790275 0.051266560877949542 -0.045263440361106411 0.032618292597635906 0.058114247479460174 0.058017029242961399 -0.026446883068255995 0.045791625424809843 -0.047632325420593737 0.05366300134133957 0.051403384437292976 -0.018633145163310848 -0.060281330510554912 -0.040326539666474127 0.0021338478759212179 -0.064651484703444825 -0.06989738422604673 0.096431487027738821 -0.012164355527362246 0.01550157905918401 0.022606250128480325 -0.017937183624393581
leaf_weight=75.514353215694427 19.168478161096576 19.344761043787003 12.495895922183989 279.13996487855911 45.260335952043533 186.90598917007446 624.71279138326645 82.116613060235977 19.671604782342911 30.89804619550705 17.609636157751083 10.288810849189757 21.102802366018295 17.001049429178238 230.92706564068794 24.657368868589401 39.860116481781006 41.405989527702332 228.20857468247414 32.920968562364578 9.5528843700885755 15.297537207603453 168.19475749135017 52.69540736079216 49.853998482227325 10.622539609670637 27.473538666963577 218.58788871765137 85.62553858757019 179.93775951862335
leaf_count=204 54 58 34 788 131 528 1744 223 53 84 48 28 57 46 640 67 110 112 618 90 27 43 467 147 144 30 77 598 241 509
internal_value=4.40774e-05 -0.00396271 -0.00206546 -0.00501328 -0.00692728 -0.00171643 0.00587661 0.00940988 0.0112376 0.00932654 0.0117378 -0.0468957 -0.00293224 -0.00882288 -0.014235 -0.0192874 0.0241119 -0.0033604 0.0333281 0.0386256 0.0466405 0.0278737 -0.0157247 -0.0282593 -0.0390858 -0.0114343 0.0195523 0.020523 -0.0179814 -0.00479149
internal_weight=2877.05 2118.48 2011.19 1780.1 1704.59 1159.89 752.09 706.829 758.571 738.899 709.442 29.4573 324.586 293.688 272.585 255.584 384.856 96.5636 288.292 270.682 237.761 56.7035 407.796 239.601 107.295 57.4408 38.0961 231.084 544.703 265.563
internal_count=8000 5923 5614 4982 4778 3240 2098 1967 2077 2024 1942 82 894 810 753 707 1048 265 783 735 645 155 1142 675 309 165 107 632 1538 750
is_linear=0
shrinkage=0.1


Tree=22
num_leaves=31
num_cat=0
split_feature=157 60 169 217 208 127 218 90 203 40 165 200 148 67 169 117 168 165 41 74 166 144 203 73 39 161 7 219 161 216
split_gain=40.6998 10.694 10.583 9.91782 8.88375 8.45628 7.82023 6.5536 6.52131 8.58994 6.57721 7.18454 6.82777 6.75737 6.45982 11.5679 6.60514 6.1028 12.3839 7.23649 6.09119 8.08382 7.41307 7.1418 9.89602 8.00622 7.14399 6.15958 5.8083 5.60471
threshold=0.05103987026558391 -0.3028720460615138 1.055831949821733 0.11175473034381868 -1.1386490618389062 1.4581332206726076 0.076613068580627455 0.037267776206135757 2.441672288748657 -0.82115949232859642 -0.49589324473776492 -0.0086494115798451589 -0.010584769304841755 2.2500332540087586 -1.3320222611751986 -0.025798539631068703 0.52807143314215466 0.55535440805892422 -1.4666477078382354 0.0037711480399593715 1.0692338485561315 -0.34129415389165058 -0.86276078432344638 0.11304636027881841 -0.0068404445528473341 0.13490451492373981 -0.50722089045146113 -0.038998320698738091 0.11681058268959447 -0.078881021589040742
decision_type=2 2 2 2 2 2 2 2 2 2 2 2 2 2 2 2 2 2 2 2 2 2 2 2 2 2 2 2 2 2
left_child=2 3 4 20 8 6 7 14 9 17 -11 13 -13 -12 15 -6 -16 19 -19 -1 22 -22 -2 25 29 26 -24 -26 -9 -25
right_child=1 -3 -4 -5 5 -7 -8 28 -10 10 11 12 -14 -15 16 -17 -18 18 -20 -21 21 -23 23 24 27 -27 -28 -29 -30 -31
leaf_value=-0.034310557039398955 -0.058571263602727457 -0.039865281795067854 -0.033002101713558087 0.073557847130626727 -0.020704081037905556 -0.043496687667253259 0.095426039148282085 0.080831719749904996 0.13057761086295008 0.099442184374505263 -0.022943713039610413 0.081243683843338937 -0.030261431454477697 0.086318851096371371 0.0095699292668486122 0.039362789524168447 -0.011045640835594547 0.095216409007540359 -0.030583519856164504 0.047615893298380105 0.096218250412101303 -0.00066787594312619884 0.10512263723058689 0.063320080823319677 -0.020935665864530037 -0.032216632203797273 -0.010019829858206162 0.035430371231704609 -0.00093380495020675626 -0.045710076333078914
leaf_weight=41.82049959897995 41.755993962287903 189.43476733565331 52.332029968500137 12.216019496321676 41.094541177153587 28.911660850048065 9.7469294518232328 22.525694563984871 5.7185580134391776 20.356688439846039 26.257886558771133 32.2027637809515 5.891748994588851 6.1433614343404761 570.10797743499279 134.14955574274063 212.23698422312737 17.097586989402775 12.95526649057865 13.38673624396324 8.8678841143846494 66.022742748260498 7.212894111871722 4.3335116356611243 25.252630725502968 195.99461208283901 14.853934422135351 73.207256153225899 13.35899844765663 42.86932809650898
leaf_count=160 187 987 209 52 157 122 36 84 21 72 97 117 22 21 2179 479 830 61 49 49 37 287 28 20 114 898 59 319 55 192
internal_value=-2.2881e-05 -0.0197053 0.0105773 -0.011867 0.0124898 0.00886735 0.0104282 0.00948911 0.032836 0.0288865 0.0501231 0.0345499 0.0634094 0 0.00787455 0.0251829 0.00395755 0.00582225 0.0414257 -0.0137733 -0.0142085 0.0117894 -0.019052 -0.0143395 0.00274114 -0.0257553 0.0301085 0.0208081 0.0509212 -0.034387
internal_weight=1948.32 682.022 1266.3 492.587 1213.96 1032.13 1003.22 993.474 181.831 176.113 90.8524 70.4958 38.0945 32.4012 957.589 175.244 782.345 85.2601 30.0529 55.2072 480.371 74.8906 405.48 363.724 145.663 218.061 22.0668 98.4599 35.8847 47.2028
internal_count=8000 3180 4820 2193 4611 3942 3820 3784 669 648 329 257 139 118 3645 636 3009 319 110 209 2141 324 1817 1630 645 985 87 433 139 212
is_linear=0
shrinkage=0.1


Tree=23
num_leaves=31
num_cat=0
split_feature=65 74 152 203 54 143 158 54 5 150 169 193 55 160 79 161 200 77 153 6 209 192 153 1 34 137 144 28 34 149
split_gain=17.4285 17.3643 12.3871 12.961 14.7376 11.9655 11.7384 17.3705 17.7211 15.378 12.5941 15.1342 13.6193 10.9965 11.7983 10.6697 11.4709 10.6641 10.2696 14.7323 12.846 9.79025 9.63792 9.63768 9.10452 8.63672 9.41183 8.40314 7.91126 7.63851
threshold=-0.020981335309524916 0.0056175808422267446 0.013020799029618503 0.71022198965817396 -0.50712536067829161 -0.30328652920674248 0.01590225991917563 -0.50712641709682826 -0.50719517280902393 -0.29125494615041619 0.63444761601523669 0.85158502651324886 -0.50723078501906593 0.0039080173717793935 0.010956728033459099 -0.67605079476331942 -0.0086521993207015705 -0.0075504724171350174 -1.788083884881994 -0.50721625141459759 -0.48219441401713553 1.1173580060950814 -1.1893969356337106 -0.50717629505631689 -0.00019087623178966115 1.0000000180025095e-35 -0.34249799516454366 -0.16494528786817106 -0.00018675031608678301 -0.18655750187124417
decision_type=2 2 2 2 2 2 2 2 2 2 2 2 2 2 2 2 2 2 2 2 2 2 2 2 2 2 2 2 2 2
left_child=1 2 3 4 6 17 7 9 -9 -1 12 -12 -8 -3 -15 16 22 27 -17 20 -20 28 -5 25 -6 26 -2 -4 -18 -28
right_child=23 13 5 15 24 -7 10 8 -10 -11 11 -13 -14 14 -16 18 21 -19 19 -21 -22 -23 -24 -25 -26 -27 29 -29 -30 -31
leaf_value=0.0032621514063060349 0.10315481785800054 -0.044714637094913502 0.032434527162564029 -0.048747974781619054 0.062334594912945573 -0.083784208265678561 -0.061721195117932851 0.14200556141083193 -0.043986437076753593 -0.078259524943949596 0.058059363615075424 -0.05090943441596664 -0.013727500602111323 0.089938513342324389 -0.061742625704298816 0.071853636383523142 0.021883564650472059 0.0073088001560482401 -0.029877720094705795 0.11491368407332392 0.024376852623198983 0.070293142936996553 0.086113341706160029 -0.055396774427932574 -0.049810329793697046 -0.020596444330707193 0.021213062175272066 0.10917511567713895 -0.052523901023109235 0.0040141580658561325
leaf_weight=358.94810476899147 10.518516153097151 159.62994873523712 54.310054332017899 6.6919225454330471 6.7546347975730887 9.9473581016063672 95.689449280500412 15.787622898817064 6.7080672383308402 23.723053127527237 35.811936378479004 18.497119575738907 156.10356870293617 12.417638897895815 7.3457195311784735 33.444642156362534 16.739408075809479 144.26998014748096 66.096373736858368 12.159071326255797 123.62026855349541 8.0251099169254285 16.73540061712265 21.51731675863266 130.08045436441898 81.032871037721634 485.25376361608505 19.465952634811401 76.081136643886566 555.63540440797806
leaf_count=1049 29 483 153 20 20 30 282 45 21 70 102 55 459 35 23 92 48 425 187 34 342 23 47 70 417 230 1360 55 227 1567
internal_value=-2.60844e-05 -0.00673407 -0.00304992 -0.00709413 -0.0138396 0.0182663 -0.00801026 0.00313732 0.0866068 -0.00195639 -0.0227603 0.0205155 -0.0321782 -0.0359827 0.0328211 0.0087816 -0.0147974 0.0233288 0.0212859 0.0125462 0.00536483 -0.0295152 0.0467628 0.00935149 -0.0437899 0.0106384 0.0130724 0.0540057 -0.0389083 0.0120544
internal_weight=2769.04 1615.08 1435.69 1207.7 848.104 227.993 711.269 405.167 22.4957 382.671 306.102 54.3091 251.793 179.393 19.7634 359.593 124.273 218.046 235.32 201.876 189.717 100.846 23.4273 1153.96 136.835 1132.44 1051.41 73.776 92.8205 1040.89
internal_count=8000 4744 4203 3540 2520 663 2083 1185 66 1119 898 157 741 541 58 1020 365 633 655 563 529 298 67 3256 437 3186 2956 208 275 2927
is_linear=0
shrinkage=0.1


Tree=24
num_leaves=31
num_cat=0
split_feature=137 81 154 28 55 80 162 34 214 153 90 67 74 155 20 143 72 78 90 161 61 200 55 39 151 160 41 77 52 162
split_gain=11.4028 10.0005 11.8942 19.4893 12.0052 11.2973 10.8273 10.7508 11.5518 9.86648 9.62673 12.3902 9.11841 8.84755 8.39407 11.2638 8.91254 13.9563 8.20885 8.17856 8.17817 10.8848 7.22332 7.17441 9.79801 11.6775 7.32331 8.21833 7.76976 15.0287
threshold=1.0000000180025095e-35 0.010137237554253654 1.1666344762687175 0.44673669258693904 -0.50725468757996872 -0.50725026153131691 2.0194596816413983 0.00048676026358030773 -0.0091289315207149033 1.8603958738734798 -0.058095034211874001 1.0348428673379875 0.0074173782486468562 -0.0060372181726770224 0.028247293504343816 -0.31349492482067948 0.12112990766763689 -0.50719615877554813 0.020711710676550869 -0.66637938998941681 -0.22020274903878126 -0.0085671191483584503 -0.50724319250628802 -0.006676741817696904 0.21508810669183734 -0.0067623584875733779 -0.29395778491280394 -0.01512985517712255 1.0430819244368028 -1.3320095971263459
decision_type=2 2 2 2 2 2 2 2 2 2 2 2 2 2 2 2 2 2 2 2 2 2 2 2 2 2 2 2 2 2
left_child=1 2 3 4 -1 -5 18 8 9 -4 -6 12 -12 -2 15 -3 17 20 -7 -10 -17 -22 -21 24 -16 -26 -25 -28 29 -29
right_child=13 14 7 5 10 6 -8 -9 19 -11 11 -13 -14 -15 23 16 -18 -19 -20 22 21 -23 -24 26 25 -27 27 28 -30 -31
