tree
version=v4
num_class=1
num_tree_per_iteration=1
label_index=0
max_feature_idx=227
objective=binary sigmoid:1
feature_names=sma_5 sma_10 sma_20 sma_50 sma_100 sma_200 ema_5 ema_10 ema_20 ema_50 ema_100 sma_5_10_cross sma_10_20_cross sma_20_50_cross ema_5_20_cross price_dist_sma_10 price_dist_ema_10 price_dist_sma_20 price_dist_ema_20 price_dist_sma_50 price_dist_ema_50 rsi_7 rsi_7_oversold rsi_7_overbought rsi_14 rsi_14_oversold rsi_14_overbought rsi_21 rsi_21_oversold rsi_21_overbought rsi_momentum macd macd_signal macd_histogram macd_cross_up macd_cross_down macd_momentum macd_fast macd_signal_fast stoch_k_14 stoch_d_14 stoch_14_oversold stoch_14_overbought stoch_k_21 stoch_d_21 stoch_21_oversold stoch_21_overbought bb_upper_20 bb_lower_20 bb_middle_20 bb_width_20 bb_position_20 bb_squeeze_20 bb_upper_50 bb_lower_50 bb_middle_50 bb_width_50 bb_position_50 bb_squeeze_50 atr_7 atr_pct_7 atr_14 atr_pct_14 atr_21 atr_pct_21 atr_expansion adx plus_di minus_di adx_strong_trend di_cross obv obv_sma_20 obv_momentum vwap_20 price_vwap_dist_20 vwap_50 price_vwap_dist_50 vwap_100 price_vwap_dist_100 williams_r williams_r_oversold williams_r_overbought cci cci_oversold cci_overbought roc_5 roc_10 roc_20 roc_50 momentum_10 momentum_20 price_acceleration trend_strength body_size body_size_pct upper_wick lower_wick upper_wick_pct lower_wick_pct is_bullish is_bearish is_doji is_hammer is_shooting_star bullish_engulfing bearish_engulfing morning_star evening_star three_white_soldiers three_black_crows return_1 log_return_1 return_2 log_return_2 return_3 log_return_3 return_5 log_return_5 return_10 log_return_10 return_20 log_return_20 return_60 log_return_60 hl_range hl_range_avg hl_range_ratio gap_up gap_down gap_size close_position higher_high lower_low higher_close swing_high swing_low near_resistance near_support breakout_up breakout_down volume_sma_10 volume_sma_20 volume_ratio volume_spike volume_dry volume_momentum pv_trend volume_close_position accumulation_distribution ad_momentum mfi cmf volatility_5 volatility_10 volatility_20 volatility_50 volatility_ratio vol_of_vol parkinson_vol gk_vol high_vol_regime low_vol_regime vol_autocorr zscore_10 zscore_20 zscore_50 hurst_50 mr_momentum_indicator vwap_zscore extreme_oversold extreme_overbought avg_trade_size trade_intensity taker_buy_ratio taker_sell_ratio order_imbalance oi_momentum oi_sma buy_pressure sell_pressure net_pressure volume_delta cum_volume_delta cvd_momentum hour minute day_of_week is_weekend hour_sin hour_cos dow_sin dow_cos asian_session european_session us_session rsi_volume_interaction macd_trend_strength vol_momentum_interaction volume_breakout_up volume_breakout_down mean_reversion_signal order_flow_strength rsi_14_lag_1 rsi_14_lag_2 rsi_14_lag_3 rsi_14_lag_5 rsi_14_lag_10 macd_lag_1 macd_lag_2 macd_lag_3 macd_lag_5 macd_lag_10 return_1_lag_1 return_1_lag_2 return_1_lag_3 return_1_lag_5 return_1_lag_10 volume_ratio_lag_1 volume_ratio_lag_2 volume_ratio_lag_3 volume_ratio_lag_5 volume_ratio_lag_10 order_imbalance_lag_1 order_imbalance_lag_2 order_imbalance_lag_3 order_imbalance_lag_5 order_imbalance_lag_10
feature_infos=[0.039480863592279661:89996.268000000011] [0.039508259650630241:90017.744000000006] [0.039527888410142827:90075.76999999999] [0.039601956695840192:90144.738400000002] [0.039739637074614718:90205.361899999989] [0.039814553104203884:89788.426400000011] [0.039476176194476222:90019.488244860724] [0.039508518174675947:90029.190872729392] [0.039557902656476712:90066.816329558424] [0.039654906474301248:89873.34778721843] [0.03976347126939269:89636.858558268577] [0:1] [0:1] [0:1] [0:1] [-0.036733406905249864:1.7268074902200399] [-0.030488529271082379:1.3567720002162247] [-0.045536202452550197:2.0174325776479174] [-0.039763928953469821:1.7530196849110433] [-0.049145631672320868:2.2277617938451075] [-0.044079162581515542:2.0915444342928167] [0.43202951506395948:99.961989007287585] [0:1] [0:1] [2.8717373556964958:99.92496484278918] [0:1] [0:1] [6.6327254463184033:99.88206104780545] [0:1] [0:1] [-54.773288592841979:55.342865077502637] [-712.72583126957761:727.21092849869456] [-611.0563913552669:608.89844281037392] [-363.4174898632337:258.04310677097078] [0:1] [0:1] [-97.67379565370436:140.0368352155686] [-806.75064520961314:825.93082164649968] [-658.69438358022285:683.03914107824812] [0:99.99999999968702] [0:99.999988333334656] [0:1] [0:1] [0:99.99999999971854] [0:99.999995768115909] [0:1] [0:1] [0.039609729762254013:91234.945648478912] [-457.01634649171024:89907.506379236715] [0.039527888410142827:90075.76999999999] [0.0013369155176836236:2.7034523964575352] [-0.45476776146275261:1.5621301828439225] [0:1] [0.03975842403732649:90995.566158234797] [-310.1914639285269:89975.224864130127] [0.039601956695840192:90144.738400000002] [0.0019704407412391325:2.7152486772800701] [-0.75792415972090244:2.232381858584755] [0:1] [5.0325737313738266e-05:709.09279656671913] [0.026611307108419042:17.660489852673926] [5.3956673549457714e-05:605.04513031685315] [0.032026143449853654:9.4430803031576644] [5.6100578261124919e-05:554.93602844357338] [0.035590197559367265:6.4553283261223022] [0:1] [4.3598583439683534:88.754928120380342] [0.75746271167612134:99.57801089463679] [0.19113086631337978:114.41035569531472] [0:1] [0:1] [-1148351726.8076477:11343712.698958717] [-1142397892.7741475:9733327.7577588428] [-42865180.99000001:45777916.151301265] [0.039536858959649188:90045.74128285209] [-0.041994794504276366:2.1489049476732998] [0.039620349309614215:90104.926484100535] [-0.043962429566568359:2.3208292680589779] [0.039747569023355356:90159.889739830585] [-0.0493142236083432:2.3600091357342321] [-99.999999999933166:0] [0:1] [0:1] [-413.8376940735543:666.66666663473495] [0:1] [0:1] [-4.976671850699832:237.67020577884102] [-6.1618411284335428:253.95820983217817] [-6.7323730098559631:252.70104961546153] [-8.0431177446102851:253.48512410879223] [-3451.4700000000012:2476.6399999999994] [-3472.3300000000017:2948.0600000000122] [-3.3559608892813286:237.4305938568163] [0:179.74125855074718] [0:2194.6364836601415] [0:1.0783898304856074] [0:640.04000000000815] [-0.36999999999989086:455.11000000000058] [0:0.99999975000006258] [-0.078389830506793975:0.99999975000006258] [0:1] [0:1] [0:1] [0:1] [0:1] [0:1] [0:1] [0:1] [0:1] [0:1] [0:1] [-0.020734028340150257:2.3723139749680087] [-0.020951996474897903:1.2155991481916364] [-0.026025576977321885:2.370546515040246] [-0.026370235414704648:1.2150749018511222] [-0.034975859276495935:2.3728976989508412] [-0.03560216166226679:1.21577222622462] [-0.04976671850699832:2.3767020577884104] [-0.051047765066023931:1.2168995106200073] [-0.061618411284335428:2.5395820983217816] [-0.063598601703561117:1.2640086688555467] [-0.067323730098559631:2.5270104961546154] [-0.069697115943046825:1.260450627193523] [-0.085232383808095946:2.5599211344866579] [-0.089085217337775191:1.2697383913844678] [0:0.70482916266359708] [0.00042241337876587105:0.037777488800240962] [0:19.113312100588018] [0:1] [0:1] [-0.00065751623243197419:0.0004232266802098964] [0:0.99999999999973244] [0:1] [0:1] [0:1] [0:1] [0:1] [0:1] [0:1] [0:1] [0:1] [11.168240000000115:8322260.1763714897] [13.028055:7662270.8105000006] [0:14.805644931870528] [0:1] [0:1] [-1:77.49800066118064] [-0.99929603667354983:0.99935142527095566] [3.2925184166895769:5488152.3101652218] [-530562391.06313205:30431371.493074667] [-34280814.034714103:40240394.778298706] [0:100] [-0.64656377499076345:0.61100085531531656] [0.014032621873063214:327.53580709576448] [0.10788384028639816:240.76708879279883] [0.16466369797264532:170.28739064631179] [0.21652611223274146:107.68438667423284] [0.0018279592959215059:2.1166297559334355] [0.0065635731613068928:85.316902062727024] [0.18245989773197269:102.71163988081413] [0.16532744121262846:58.558770075170649] [0:1] [0:1] [-0.55189967869757361:0.99004892671520162] [-2.8234698074721472:2.8460482390708877] [-3.8190710428256516:4.2485207313751427] [-5.0316959235036105:6.9295274343375093] [0.47697899019796136:0.82096177429119821] [-10.097467964816024:0.012946676492118806] [-0.038635226873956763:0.96829665709680535] [0:1] [0:1] [0:90141.840441457258] none none none none none none [0:0.99999999999973244] [0:0.99999999999975686] [-0.99999999999975686:0.99999999999973244] [-23855330.65886071:15774783.143737448] [-530562391.06313068:30431371.493075401] [-34280814.034714103:40240394.778298706] [0:23] [0:55] [0:6] [0:1] [-1:1] [-1:1] [-0.97492791218182362:0.97492791218182362] [-0.90096886790241903:1] [0:1] [0:1] [0:1] [-486.04701114099657:364.27359381746328] [-428.49386574163242:108.67688799983598] [0:61141.056048723789] [0:1] [0:1] [-1.0417365581006384:3.1841404304359329] none [2.5186442633467436:99.855266941996518] [2.578960533387729:99.92496484278918] [2.8717373556964958:99.739958721684019] [3.7765498140941816:99.855266941996518] [2.9047982792652931:99.796402146652653] [-712.72583126957761:727.21092849869456] [-685.00319588666025:727.21092849869456] [-673.58524023956852:727.21092849869456] [-712.72583126957761:727.21092849869456] [-712.72583126957761:723.26423540645919] [-0.020734028340150257:0.026113671274961447] [-0.020734028340150257:2.3723139749680087] [-0.020734028340150257:0.026113671274961447] [-0.018618285533196:2.5390095364089897] [-0.017968749999999978:0.026113671274961447] [0.039332306553494831:13.670301132079524] [0.045734903515602457:14.646262041511351] [0.045734903515602457:14.502630522516593] [0.054582260519066922:14.67380174877197] [0.039332306553494831:14.67380174877197] none none none none none
tree_sizes=3523 3486 3552 3514 3560 3544 3484 3555 3544 3549 3551 3530 3560 3544 3544 3542 3525 3533 3544 3517 3523 3532 3506 3556 3489 3524 3493 3479 3524 3482 3464 3517 3484 3521 3529 3455 3465 3459 3490 3509 3509 3453 3437 3499 3438 3462 3448 3485 3472 3453

Tree=0
num_leaves=31
num_cat=0
split_feature=136 135 132 181 182 131 133 180 133 135 180 131 135 127 131 127 127 133 115 132 127 77 180 127 180 127 71 181 180 180
split_gain=1162.82 729.736 658.468 280.264 206.64 143.695 125.228 291.565 112.743 112.126 64.9055 51.8617 46.5098 39.9028 39.1135 30.2364 27.7716 27.0702 25.6371 24.7809 26.4503 23.0129 22.7664 22.604 22.4568 20.9498 20.2559 20.2115 19.59 19.307
threshold=1.0000000180025095e-35 1.0000000180025095e-35 1.0000000180025095e-35 -0.069234737639051927 81.341660635926857 0.42110599779717978 1.0000000180025095e-35 0.55010323656233984 1.0000000180025095e-35 1.0000000180025095e-35 0.23972073377640404 0.17172174264986709 1.0000000180025095e-35 0.76350758662026419 0.78972434963984328 1.0802788190000887 0.88063326241457862 1.0000000180025095e-35 -9.1944032446888966e-05 1.0000000180025095e-35 0.89922207983055913 -0.013712640036035145 0.79863918568270942 0.64049482226712795 0.40184082011901473 0.78371375555412304 -1064886361.6976494 0.45377851488687276 0.26641208274255812 0.63191110937388084
decision_type=2 2 2 2 2 2 2 2 2 2 2 2 2 2 2 2 2 2 2 2 2 2 2 2 2 2 2 2 2 2
left_child=1 2 6 16 12 22 26 13 10 14 -5 -9 21 -8 19 -13 29 27 -14 20 -6 -2 -3 -12 -15 -16 -1 -7 -11 -4
right_child=4 5 3 8 9 17 7 11 -10 28 23 15 18 24 25 -17 -18 -19 -20 -21 -22 -23 -24 -25 -26 -27 -28 -29 -30 -31
leaf_value=0.10015503584514709 -0.0096129885519283878 -0.010276495185547747 0.086047964363799079 0.052430707105292379 0.10612458683768133 -0.029100240050562144 -0.014879724343126316 0.039377279579801507 -0.057662582570382918 -0.049298096955201189 0.043209444294139351 0.019943787045772172 0.10305753329115053 -0.080458693032009559 0.10043287308550747 -0.015022890361860518 0.16306467990034507 -0.08268723670455827 0.03450625078182816 0.1245398347667829 0.065569557109521351 0.12840609258405289 0.012474632785844597 0.090149088101577207 -0.038108007103226642 0.055849267931776483 0.038040871212128055 -0.062128445017345733 0.021375812304367661 0.13479804477418122
leaf_weight=52.977276980876923 11.4950695335865 854.63343054056168 123.9468367099762 1499.6067885011435 290.12555931508541 770.16965875029564 332.35744521021843 1265.7071127742529 75.217737600207329 68.72052438557148 115.95026659965515 967.58498334884644 151.68493928015232 263.88681364059448 123.1971582621336 333.35701647400856 245.39474526047707 156.43290278315544 84.213878974318504 193.16714672744274 366.34286817908287 1301.4417854547501 923.85374055802822 925.60299026966095 262.13756392896175 714.69345360994339 1908.4314353913069 255.39045789837837 92.460341900587082 259.38874295353889
leaf_count=212 46 3420 496 6001 1161 3082 1330 5065 301 275 464 3872 607 1056 493 1334 982 626 337 773 1466 5208 3697 3704 1049 2860 7637 1022 370 1038
internal_value=0.041417 0.0263377 0.0410347 0.0766117 0.092855 -0.0164949 0.0195967 0.00806072 0.0621823 0.0702491 0.0657712 0.0249531 0.119795 -0.0423597 0.0778681 0.0109397 0.136514 -0.0435259 0.0786172 0.0929902 0.0835792 0.127152 0.00151329 0.0849399 -0.0595637 0.062479 0.0397527 -0.0374277 -0.00919168 0.119218
internal_weight=14989.6 11592 8631.55 3245.11 3397.54 2960.48 5386.44 3425.03 2616.38 1848.71 2541.16 2566.65 1548.84 858.382 1687.53 1300.94 628.73 1181.99 235.899 849.636 656.468 1312.94 1778.49 1041.55 526.024 837.891 1961.41 1025.56 161.181 383.336
internal_count=59984 46388 34541 12986 13596 11847 21555 13706 10470 7398 10169 10271 6198 3435 6753 5206 2516 4730 944 3400 2627 5254 7117 4168 2105 3353 7849 4104 645 1534
is_linear=0
shrinkage=1


Tree=1
num_leaves=31
num_cat=0
split_feature=148 158 159 167 74 19 189 33 155 158 149 71 189 142 5 33 150 5 185 210 163 66 54 0 211 123 155 149 152 189
split_gain=113.124 46.1132 59.4651 47.7244 45.0883 42.6302 37.484 36.5489 33.5654 30.4803 30.3243 29.2297 28.3106 28.2997 31.3856 29.0592 35.48 32.3777 31.1079 27.5476 27.1746 26.6249 39.8282 26.1879 41.474 28.1765 25.6355 30.9066 25.4639 25.4254
threshold=69.289778535286203 0.34453799976977856 0.90368260196957739 0.77948025740112226 88367.413826592048 -0.0049365727558399334 -0.60355339059327362 3.5626395509651384e-05 0.53326880287269618 0.085512279495125673 -2681962.9636162985 -1436622.6260975993 0.25881904510252091 317.55305902312995 87556.709880411639 -3.4445773411934302e-05 -3221953.7651059884 0.041114438817858277 9.5000000000000018 0.94356833223741898 0.8001458814938468 55.631381782015829 53.984884335651628 0.069966860053254268 -5.7826620371431705e-06 -0.026485664693826679 0.37455740868342158 1873.4127340580076 0.061442476723279689 -0.98296291314453399
decision_type=2 2 2 2 2 2 2 2 2 2 2 2 2 2 2 2 2 2 2 2 2 2 2 2 2 2 2 2 2 2
left_child=4 2 13 5 8 9 7 -3 29 -4 23 -12 -5 14 19 20 -17 18 -18 -2 -15 -22 -23 24 -7 -25 27 -6 -28 -1
right_child=1 6 3 12 26 10 -8 -9 -10 -11 11 -13 -14 15 -16 16 17 -19 -20 -21 21 22 -24 25 -26 -27 28 -29 -30 -31
leaf_value=0.081734364836854506 -0.052123974926026134 -0.03420953142920044 -0.013837248061578121 -0.045883812100979193 -0.14620930906294552 0.13139789962488474 0.016226651385443176 -0.14492486382931627 0.05895889828731276 0.12881579128369866 -0.054734052584005648 0.031481573970272778 0.048939651798470762 -0.0041343055438612698 0.085200473903736931 0.031121202642480118 0.084844058124378285 -0.0092733728867580995 -0.0033886431640618936 0.0046917699881252901 0.017048164742612646 0.04079724392608839 -0.036448833747588748 -0.12117922442771759 -0.16263448122058016 0.078610074620066819 -0.11323496659912674 0.090882793207421958 0.022894052161249696 0.017660785469170884
leaf_weight=63.647527918219566 291.42927588522434 66.938917770981789 17.980866283178329 111.63935995101929 6.2437421083450344 6.7441976964473751 51.937779530882835 54.461546376347542 257.88335561752319 80.402197942137718 64.934680670499802 96.386757507920265 42.699436977505684 2275.4777398407459 21.723214358091354 234.98504991829395 71.163620516657829 7126.3707136809826 88.909783154726028 119.84728330373764 1648.7591869086027 92.641865953803062 231.2434097379446 6.4949271380901328 11.74352791905403 152.07257647812366 50.199635654687881 21.969040796160698 18.221188947558403 1593.4312718659639
leaf_count=255 1167 268 72 447 25 27 208 218 1033 322 260 386 171 9112 87 941 285 28537 356 480 6603 371 926 26 47 609 201 88 73 6383
internal_value=7.68252e-07 -0.00342194 -0.00272479 0.0282224 0.0220597 0.0450935 -0.0545085 -0.0847376 0.0254318 0.102766 0.0280422 -0.00328351 -0.0194394 -0.0042269 -0.0293078 -0.00330092 -0.00703531 -0.00827132 0.036058 -0.0355722 0.00330869 0.0118971 -0.0142656 0.0564985 -0.0536217 0.0696559 -0.0442384 0.034861 -0.0770307 0.0201757
internal_weight=14978.6 12967 12793.6 591.099 2011.6 436.76 173.338 121.4 1914.96 98.3831 338.377 161.321 154.339 12202.6 433 11769.6 7521.43 7286.44 160.073 411.277 4248.12 1972.64 323.885 177.055 18.4877 158.568 96.6336 28.2128 68.4208 1657.08
internal_count=59984 51926 51232 2367 8058 1749 694 486 7671 394 1355 646 618 48865 1734 47131 30119 29178 641 1647 17012 7900 1297 709 74 635 387 113 274 6638
is_linear=0
shrinkage=0.1


Tree=2
num_leaves=31
num_cat=0
split_feature=136 135 132 181 182 131 133 180 133 135 180 131 125 135 131 125 30 127 180 133 132 127 56 180 127 131 80 111 127 184
split_gain=940.379 587.311 534.772 228.123 162.645 116.175 101.677 235.004 91.1633 90.6893 52.4757 41.4393 40.9169 37.3407 31.5102 27.9285 26.9614 23.9963 23.9781 21.9558 20.3074 22.2661 20.2548 19.8387 19.5785 18.6816 18.4105 18.1956 17.11 16.9494
threshold=1.0000000180025095e-35 1.0000000180025095e-35 1.0000000180025095e-35 -0.069234737639051927 81.341660635926857 0.42110599779717978 1.0000000180025095e-35 0.55010323656233984 1.0000000180025095e-35 1.0000000180025095e-35 0.23972073377640404 0.17172174264986709 0.0014033830875651422 1.0000000180025095e-35 0.78972434963984328 0.0016982124835594544 -1.5165020448317497 0.79809211554164272 0.40184082011901473 1.0000000180025095e-35 1.0000000180025095e-35 0.95231488497150929 0.071825981753938117 0.66820550092364805 0.70781146344886869 0.15741135283977942 -92.066507035458699 0.00018857935291283215 0.78371375555412304 -2890917.4053971167
decision_type=2 2 2 2 2 2 2 2 2 2 2 2 2 2 2 2 2 2 2 2 2 2 2 2 2 2 2 2 2 2
left_child=1 2 6 17 13 25 -1 12 10 14 -5 -9 -8 22 20 -13 -15 -4 -14 29 21 -6 -2 -19 -12 -3 -17 -10 -16 -7
right_child=4 5 3 8 9 19 7 11 27 -11 24 15 18 16 28 26 -18 23 -20 -21 -22 -23 -24 -25 -26 -27 -28 -29 -30 -31
leaf_value=-0.0015062626350470149 0.077702256630660549 -0.023219321899447504 0.064093936888412723 0.0099674529279157476 0.055549915010597556 0.032476581427226772 -0.051597639712939153 -0.0020049410738942793 0.0048813484871534363 -0.045168766779415809 0.011862612111614023 -0.014861502140490403 -0.11915891215278077 0.061375140434754477 0.053659745335763315 -0.0051654382931172705 -0.0071831166652022091 0.075329758426881832 -0.072550176132190725 -0.11159506673175562 0.075343884091091384 0.018495818321479732 -0.10881216268126188 0.12551649539200768 0.046131897384228321 -0.044214340046162474 -0.053109352954663562 -0.11426245246309595 0.013325195321625672 -0.072369651160545043
leaf_weight=1960.9939944446087 1302.3589384704828 716.08650904893875 286.36658571660519 1498.9871205985546 347.34370689094067 14.994536727666853 398.06041330099106 1265.4531390815973 15.983454450964926 161.17514215409756 210.70421290397644 752.29991491138935 226.35309018194675 139.11500898003578 122.93785889446735 98.21309669315815 96.393675148487091 147.18391442298889 233.62092825770378 156.19089017808437 192.5075551122427 308.14208936691284 4.97537937760353 192.2781417965889 829.20074434578419 1062.8033294528723 450.62461899220943 59.185549303889275 714.41532860696316 1010.3611809015274
leaf_count=7849 5234 2865 1150 6001 1393 60 1593 5065 64 645 844 3010 907 558 493 393 386 592 935 626 773 1234 20 774 3324 4252 1803 237 2860 4044
internal_value=1.79403e-06 -0.0135517 -0.000358578 0.0317375 0.0463254 -0.0519747 -0.0196712 -0.0300663 0.0187327 0.026271 0.021962 -0.014902 -0.0753445 0.0702881 0.0331316 -0.0274265 0.0333602 0.0859257 -0.0957168 -0.076288 0.0467235 0.0382008 0.0769022 0.104071 0.039216 -0.0357863 -0.0445731 -0.0890657 0.0193159 -0.0707965
internal_weight=14975.3 11585.9 8625.51 3239.89 3389.36 2960.44 5385.62 3424.63 2614.06 1846.52 2538.89 2566.59 858.034 1542.84 1685.35 1301.14 235.509 625.829 459.974 1181.55 847.993 655.486 1307.33 339.462 1039.9 1778.89 548.838 75.169 837.353 1025.36
internal_count=59984 46388 34541 12986 13596 11847 21555 13706 10470 7398 10169 10271 3435 6198 6753 5206 944 2516 1842 4730 3400 2627 5254 1366 4168 7117 2196 301 3353 4104
is_linear=0
shrinkage=0.1


Tree=3
num_leaves=31
num_cat=0
split_feature=135 131 148 98 113 125 131 49 158 126 167 113 98 77 127 125 56 56 212 115 149 98 149 127 68 158 155 147 169 50
split_gain=732.988 106.307 75.1296 59.1456 66.2414 39.3465 28.6205 28.1731 26.0765 27.1745 31.9055 24.9432 23.6323 22.3628 21.2671 20.9032 20.7695 18.956 18.8183 18.8213 18.0749 18.0567 16.9978 16.9966 16.7199 16.4226 18.7938 16.3924 15.3714 18.6181
threshold=1.0000000180025095e-35 0.42110599779717978 69.289778535286203 0.2396842160241362 -0.00012334511383094157 0.0019286663330514908 0.72815056622861551 88354.893624694581 0.34453799976977856 0.0022442264500957356 0.78815072432527988 -0.00035397975300915924 0.35721090974824227 -0.0052453817238568368 0.99815149322538999 0.003643240382969818 0.030076441916437383 0.015155584369014425 -0.00021363501122362291 -0.0024934925721730168 -478985482.74897808 0.52403864443594983 7471.5226103713921 0.81208232017039206 47.028154384403116 0.032841986364862873 0.3559217721393711 0.40839880883782415 -0.011315083020067817 0.0074667151135222624
decision_type=2 2 2 2 2 2 2 2 2 2 2 2 2 2 2 2 2 2 2 2 2 2 2 2 2 2 2 2 2 2
left_child=2 14 7 8 20 21 15 11 9 -4 13 17 -13 -11 -2 -3 27 22 -10 24 -5 -6 28 -23 -20 -9 -27 -12 -1 -30
right_child=1 6 3 4 5 -7 -8 25 18 10 16 12 -14 -15 -16 -17 -18 -19 19 -21 -22 23 -24 -25 -26 26 -28 -29 29 -31
leaf_value=-0.027769385605764169 -0.037458499561314307 -0.056584166034356134 0.0002241685226707708 0.086409220163646216 0.01742778468554574 0.055806021353645201 -0.086754630274258837 0.029408864835842513 -0.11158804096649172 0.10883980570888381 0.072922111293364775 0.035301957960789103 0.071314780789067653 0.031234163263781308 -0.016317691188459896 0.012726362132622902 -0.12822052749213236 0.10029346565570148 0.067267795021185933 0.036776504911138687 0.0057768563230892259 0.026461382921889973 -0.063932106043905132 0.074110736210320285 -0.12319970406733834 0.039532526537833595 -0.10201046425913177 -0.10592868650404763 0.018459507935890917 0.081882901693073523
leaf_weight=60.783046096563339 870.34777073562145 1023.3967273831367 4636.361447378993 27.097092062234879 1341.5266757160425 455.43071921169758 352.85924880206585 30.338661253452301 32.874142780900002 49.083456099033356 15.215142950415613 631.77631607651711 259.52537512779236 151.85144206881523 1060.3169848322868 44.852573215961456 16.714525654911995 26.848003074526787 5.2341035455465343 29.689494833350182 2899.3613369762897 212.80435614287853 24.643207028508186 117.09837594628334 18.716869160532951 12.132032454013823 33.602849170565605 6.4887124150991431 448.7962604612112 50.942842796444893
leaf_count=244 3484 4108 18588 109 5387 1834 1418 122 132 198 61 2541 1046 610 4246 180 67 108 21 119 11638 856 99 474 75 49 135 26 1804 205
internal_value=3.21749e-06 -0.0411771 0.0119107 0.0087109 0.016325 0.0297523 -0.0619362 0.0321773 0.000953324 0.00192601 0.0347117 0.0351866 0.0458674 0.0506859 -0.0258676 -0.0536555 -0.0477491 0.0195658 -0.053146 -0.0157595 0.00655614 0.0226181 0.0156801 0.0435775 -0.0801475 -0.0268455 -0.0642071 0.0167008 0.0193057 0.0250954
internal_weight=14946.7 3351.77 11594.9 10015.5 5053.32 2126.86 1421.11 1579.39 4962.23 4875.71 239.353 1503.32 891.302 200.935 1930.66 1068.25 38.4184 612.013 86.5146 53.6405 2926.46 1671.43 585.165 329.903 23.951 76.0735 45.7349 21.7039 560.522 499.739
internal_count=59984 13436 46548 40195 20298 8551 5706 6353 19897 19550 962 6047 3587 808 7730 4288 154 2460 347 215 11747 6717 2352 1330 96 306 184 87 2253 2009
is_linear=0
shrinkage=0.1


Tree=4
num_leaves=31
num_cat=0
split_feature=136 135 132 181 181 181 133 181 135 133 125 98 125 180 133 135 127 127 98 125 131 80 131 115 33 189 121 111 146 99
split_gain=753.892 375.273 415.671 178.159 136.67 79.4365 78.0654 193.368 77.8672 74.106 41.9098 37.0462 33.2397 32.1903 25.6109 23.3311 23.132 20.9965 20.942 22.1553 20.3979 20.8572 19.5995 18.2656 17.6138 17.1605 16.978 16.8508 16.2954 16.2041
threshold=1.0000000180025095e-35 1.0000000180025095e-35 1.0000000180025095e-35 -0.069234737639051927 0.20633935206419046 -0.353858132918418 1.0000000180025095e-35 -0.26492206099027837 1.0000000180025095e-35 1.0000000180025095e-35 0.0015206942131824426 0.34078662581434899 0.0013986003517931832 0.47691643899258407 1.0000000180025095e-35 1.0000000180025095e-35 0.74021542283568253 1.0522040866700142 0.23377338704666153 0.0022916600885861276 0.17172174264986709 -92.066507035458699 0.20016764752505087 0.0022572089840237068 -0.0080243836918070365 -0.91597561503675329 -0.0071485043799538453 0.00011946826691566771 -0.65460764069127719 0.40344684704427897
decision_type=2 2 2 2 2 2 2 2 2 2 2 2 2 2 2 2 2 2 2 2 2 2 2 2 2 2 2 2 2 2
left_child=1 2 6 17 15 23 -1 20 12 11 27 24 -6 -12 18 29 -13 -4 -7 -20 -8 -22 -17 -3 28 26 -14 -9 -5 -2
right_child=4 5 3 9 8 14 7 10 -10 -11 13 16 25 -15 -16 22 -18 -19 19 -21 21 -23 -24 -25 -26 -27 -28 -29 -30 -31
leaf_value=-0.0026811394903471257 0.079191407023284643 -0.023406488851818841 0.066697165229019292 -0.021544193878155274 0.056483238663440488 -0.081622584721679381 -0.0023164015365127063 -0.033117910695931979 -0.047879802128372312 -0.082080293410822777 -0.10834977312529066 0.0074989779416902436 0.089732737173051288 -0.05705652614291247 -0.089387856490884238 0.091448491361044548 0.054061176843938179 0.11764804273906104 -0.053659515358708165 -0.01476578371738045 0.0040689007728304622 -0.029524590783314066 0.021712982100934017 -0.080242615412744356 0.0070396026501801032 0.026211746499749791 -0.018001727213918812 -0.068004544042144663 0.037531462044469145 0.056080361206588006
leaf_weight=1959.9446262866259 720.6824534535408 1358.5250888764858 519.52015450596809 52.574478432536125 352.05925562977791 216.96889078617096 1265.0432788580656 445.24845799803734 141.28984981775284 74.825833886861801 250.30748105049133 147.43170119822025 15.146492972970007 250.03649899363518 233.02694317698479 49.75480517745018 393.69993110001087 98.626769840717316 905.2081124484539 176.69658230245113 242.87438942492008 762.66692586243153 204.70312935113907 58.395741373300552 1571.6953316777945 1177.99571621418 153.59167578816414 204.66461451351643 367.812340259552 557.72689792513847
leaf_count=7849 2918 5440 2112 211 1423 878 5065 1784 568 301 1009 592 61 1002 943 200 1587 404 3641 711 972 3053 821 234 6303 4734 617 821 1476 2254
internal_value=4.32837e-06 -0.0121363 -0.00158549 0.0267894 0.0415925 -0.0429174 -0.018602 -0.0277174 0.0231921 0.0153299 -0.0611048 0.0182424 0.0291338 -0.0829019 -0.0587063 0.0636447 0.041431 0.0750195 -0.0531296 -0.0473361 -0.0107798 -0.0214046 0.0356923 -0.0258109 0.0119207 0.0219402 -0.00780053 -0.044207 0.030086 0.0691684
internal_weight=14928.7 11555.8 8606.97 3226.19 3372.95 2948.82 5380.79 3420.84 1840.08 2608.04 1150.26 2533.21 1698.79 500.344 1531.9 1532.87 541.132 618.147 1298.87 1081.9 2270.58 1005.54 254.458 1416.92 1992.08 1346.73 168.738 649.913 420.387 1278.41
internal_count=59984 46388 34541 12986 13596 11847 21555 13706 7403 10470 4616 10169 6835 2011 6173 6193 2179 2516 5230 4352 9090 4025 1021 5674 7990 5412 678 2605 1687 5172
is_linear=0
shrinkage=0.1


Tree=5
num_leaves=31
num_cat=0
split_feature=136 135 132 180 181 131 99 133 135 98 133 180 96 99 127 127 99 127 135 127 115 185 72 156 92 133 56 96 96 218
split_gain=613.972 305.592 337.909 150.481 112.548 68.4821 63.8963 113.947 63.3519 51.6281 58.9398 36.3745 23.7497 23.3062 22.6464 21.3121 21.0699 20.7966 19.3817 18.7645 17.4504 16.8846 16.9701 16.9386 16.325 16.2568 15.9193 15.3537 14.7445 14.9651
threshold=1.0000000180025095e-35 1.0000000180025095e-35 1.0000000180025095e-35 0.63191110937388084 0.20633935206419046 0.42110599779717978 0.32325158023216943 1.0000000180025095e-35 1.0000000180025095e-35 0.32749525310595079 1.0000000180025095e-35 0.48494790680304423 9.2335684987992881 0.11023038864337815 0.76054421872179379 0.87552907987635809 0.17604996261918457 0.7242852022636479 1.0000000180025095e-35 0.92123441848977261 -0.00094790535784405872 17.500000000000004 -1083549147.6318982 1.9045975912391977 -0.072572118894997914 1.0000000180025095e-35 0.071825981753938117 1.0543965203714836 30.22970858846384 1.2309481728947584
decision_type=2 2 2 2 2 2 2 2 2 2 2 2 2 2 2 2 2 2 2 2 2 2 2 2 2 2 2 2 2 2
left_child=1 2 6 9 18 16 13 -8 12 10 24 14 15 21 -9 -6 -3 -13 26 28 -20 22 -1 -24 -4 -7 27 -2 29 -11
right_child=4 5 3 -5 8 25 7 11 -10 19 -12 17 -14 -15 -16 -17 -18 -19 20 -21 -22 -23 23 -25 -26 -27 -28 -29 -30 -31
leaf_value=0.073045005441592745 0.057078476453103349 -0.015967251570309156 0.047033210968632819 0.080661920328309919 0.04067757320554849 -0.052931081273145324 -0.003431233828080547 -0.043761226030862466 -0.043278479829347238 0.0081430835530727896 -0.089905701385989176 -0.0021942644161088505 0.060574325566056887 -0.014065477661603813 -0.084568835512010526 0.014533623555174608 -0.037838544382086593 -0.044197493536693978 0.068816526236007147 0.056492138205258918 0.013341182044520464 0.025299765447514375 -0.0038744658423082836 -0.10805223850416729 0.0081158061512911547 -0.088394206701715564 -0.095669338971950638 0.083035887538399633 0.079746386024508703 0.050940291193601953
leaf_weight=27.138069167733192 950.00007401406765 930.93279178440571 113.71716420352459 410.86373719573021 441.01798808574677 1012.2849727571011 901.30952897667885 230.791743516922 140.81178736686707 321.1109416782856 59.370972976088524 158.51507519185543 180.26531782746315 2157.8702875077724 350.14428380131721 1073.3708285391331 843.46647767722607 465.88804855942726 85.448338106274605 315.34552083909512 168.48436254262924 273.09693209826946 795.98751105368137 14.933743059635161 1842.1544301956892 151.85594844818115 5.4162727892398825 312.45349255204201 43.597453415393829 109.20570290088654
leaf_count=109 3870 3730 457 1695 1782 4104 3609 927 568 1297 241 635 737 8643 1422 4316 3387 1869 345 1284 676 1094 3187 60 7393 626 22 1280 178 441
internal_value=4.72516e-06 -0.0109537 -0.00142961 0.0242083 0.0376334 -0.0387849 -0.016768 -0.0303469 0.0209355 0.0159084 0.00740313 -0.0504457 0.0262994 -0.00800764 -0.0684772 0.0221756 -0.0263849 -0.0335708 0.0577395 0.0375755 0.0322446 0.00374979 -0.00328252 -0.00593602 0.0104065 -0.0576375 0.0628084 0.0635714 0.0248748 0.0191203
internal_weight=14886.8 11529.6 8591.04 3215.37 3357.27 2938.54 5375.68 2106.65 1835.47 2804.5 2015.24 1205.34 1694.65 3269.03 580.936 1514.39 1774.4 624.403 1521.8 789.26 253.933 1111.16 838.059 810.921 1955.87 1164.14 1267.87 1262.45 473.914 430.317
internal_count=59984 46388 34541 12986 13596 11847 21555 8462 7403 11291 8091 4853 6835 13093 2349 6098 7117 2504 6193 3200 1021 4450 3356 3247 7850 4730 5172 5150 1916 1738
is_linear=0
shrinkage=0.1


Tree=6
num_leaves=31
num_cat=0
split_feature=135 132 180 181 180 33 158 156 38 167 190 33 160 187 65 72 24 185 187 181 167 1 158 141 76 66 125 142 125 167
split_gain=394.213 171.182 158.455 65.0569 44.5752 31.5958 29.0099 32.1404 31.1499 24.993 24.7154 30.878 34.5408 29.7198 22.4284 22.0168 24.7297 21.806 20.9459 19.1308 18.7045 18.4386 18.3592 17.9731 17.9499 18.6158 17.342 20.3665 16.4363 15.799
threshold=1.0000000180025095e-35 1.0000000180025095e-35 0.34172273014488791 0.0070273789085552605 0.65304737614413999 -8.0130791563170209 0.34453799976977856 0.87050270047407585 -0.00011355530637968625 0.75406273177355765 1.0000000180025095e-35 5.2918990613885304e-05 1.9986254301495741 2.5000000000000004 1.0000000180025095e-35 -949351660.85981977 39.101419322279334 4.5000000000000009 3.5000000000000004 0.61491583194400889 0.80574805270066685 0.13012040050491222 0.086866679697966964 853414.80934366083 88369.962659012075 19.60065604242612 0.0017966402267172142 752.3459401800676 0.0014087346131446776 0.78517505977200064
decision_type=2 2 2 2 2 2 2 2 2 2 2 2 2 2 2 2 2 2 2 2 2 2 2 2 2 2 2 2 2 2
left_child=1 5 19 26 14 24 7 15 20 17 11 12 -8 -14 -4 16 23 -10 -11 -3 22 -18 -9 -7 25 -1 27 -2 -6 -27
right_child=3 2 4 -5 28 6 10 8 9 18 -12 -13 13 -15 -16 -17 21 -19 -20 -21 -22 -23 -24 -25 -26 29 -28 -29 -30 -31
leaf_value=0.12852659527216631 -0.01298900478540564 0.022457286346764679 0.030143488787038226 -0.050812645530614556 0.057192885158907775 0.12526990221778089 -0.15200188325428532 -0.028624024871380018 -0.042432661123333576 -0.067806779773845846 0.037122355142572262 -0.14955716340010441 -0.052743105352844516 0.14886851403697418 0.061841069508514694 -0.0030538745882706091 0.032124712762897918 0.078535694743003995 0.041402709930850851 0.0043226909563155056 -0.07578807319642665 -0.072604020728297164 0.1081580481575643 0 -0.047621596144114514 0.036033126516403648 -0.012195353490475026 -0.040840812687364704 0.098324856161487006 -0.016330940502875872
leaf_weight=17.979398533701897 439.40504376590252 896.48171372711658 663.27277958393097 1058.2507472336292 182.8513984978199 38.442041173577309 12.615369483828543 10.668710082769392 19.330075338482857 53.535852789878845 21.523182600736618 35.242963016033173 14.845751553773882 12.649598613381384 340.87202437222004 6629.8576862066984 57.241436839103699 56.042601987719536 24.979916989803314 1660.5288849771023 6.434948816895484 22.626421421766281 77.414270848035812 16.356115311384201 29.871513292193413 320.17761559784412 1161.4047217518091 660.92999258637428 227.55085201561451 69.310885101556778
leaf_count=73 1770 3618 2700 4324 761 155 51 43 78 216 87 143 60 51 1402 26729 231 227 101 6668 26 91 315 66 121 1297 4677 2665 957 281
internal_value=6.57599e-06 0.00875813 0.0255603 -0.0303474 0.0524055 -8.46161e-05 -0.00169217 -0.000936007 0.0343159 0.00635915 -0.0557599 -0.0825594 -0.0212431 0.0416293 0.0409645 -0.00223689 0.0376373 0.0472318 -0.0328521 0.0106908 0.0791856 0.00180067 0.0913433 0.0887214 0.0259707 0.0314937 -0.0207492 -0.0297495 0.0802067 0.0266712
internal_weight=14838.7 11518.7 3971.56 3319.99 1414.55 7547.15 7109.81 7012.93 248.406 153.888 96.8769 75.3537 40.1107 27.4954 1004.14 6764.52 134.666 75.3727 78.5158 2557.01 94.5179 79.8679 88.083 54.7982 437.339 407.468 2261.74 1100.34 410.402 389.489
internal_count=59984 46548 16106 13436 5820 30442 28670 28278 1006 622 392 305 162 111 4102 27272 543 305 317 10286 384 322 358 221 1772 1651 9112 4435 1718 1578
is_linear=0
shrinkage=0.1


Tree=7
num_leaves=31
num_cat=0
split_feature=136 135 132 180 181 99 131 127 135 180 181 96 99 96 127 99 30 182 113 126 19 135 212 215 213 73 96 127 15 154
split_gain=495.88 195.191 237.699 105.799 91.5465 51.9142 49.0679 44.0304 43.0383 33.4364 19.2006 18.9014 18.5358 18.3437 18.2301 17.4425 16.7743 19.5329 22.1376 15.775 15.7646 15.2488 15.053 14.1079 13.8875 13.6283 14.6288 13.5056 13.213 13.1784
threshold=1.0000000180025095e-35 1.0000000180025095e-35 1.0000000180025095e-35 0.63191110937388084 0.20633935206419046 0.32325158023216943 0.42110599779717978 0.73030763807263988 1.0000000180025095e-35 0.23972073377640404 -0.30717335368172466 9.2335684987992881 0.11023038864337815 31.700938285299348 0.90214796855287183 0.1081812984995611 13.926165135520778 116.57862110475376 -0.00016287631689820833 0.0022082157232298778 -0.010969458109262501 1.0000000180025095e-35 0.062098976948959723 0.0023605332322862442 -0.00069426237836978089 -738258.97154343117 1.1326013309900797e-05 0.79809211554164272 0.00090248292267445672 0.5375945676580377
decision_type=2 2 2 2 2 2 2 2 2 2 2 2 2 2 2 2 2 2 2 2 2 2 2 2 2 2 2 2 2 2
left_child=1 2 5 9 10 12 15 24 11 28 20 14 -1 -11 -6 -3 17 18 -9 22 -2 -12 -8 -14 -7 -26 -27 -5 -4 -18
right_child=4 6 3 27 8 7 19 16 -10 13 21 -13 23 -15 -16 -17 29 -19 -20 -21 -22 -23 -24 -25 25 26 -28 -29 -30 -31
leaf_value=0.003294438702508297 -0.043733413007057201 -0.0066657163607053167 0.014643692109198546 0.047470813374092792 0.035309230261226419 -0.031376288404345948 -0.058002996803716358 -0.041630802789734099 -0.034316294050927419 0.021040764413862552 0.048619299921128969 0.054074135690164928 -0.0115599645497967 0.066375809709108932 0.011900288591705468 -0.028286690583493375 0.046831195139056578 -0.058785857899904453 0.00015161704144385244 -0.0020799398070665801 0.069457638723354809 0.012341648491217385 -0.030109940331794424 -0.07630993805883661 0.041682102424578399 -0.063938379155943623 -0.0026713237768975517 0.085097261401565483 -0.0045384690404949709 -0.033262645808344052
leaf_weight=1110.0320110917091 11.843039780855177 538.29028131067753 569.76105637848377 187.17042791843414 497.18554686009884 221.5046094506979 816.37769976258278 549.59785237908363 139.41667611896992 1160.7501690536737 809.62003102898598 178.15220914781094 2123.8821350932121 96.304417312145233 1013.3531369566917 1230.6558741927147 38.055053547024727 449.65178368985653 164.12164670228958 69.854398027062416 547.85346186161041 137.04126606881618 260.59998175501823 33.292417705059052 62.336352065205574 41.110278829932213 531.49497659504414 210.44330731034279 966.41056075692177 42.289808422327042
leaf_count=4450 49 2160 2289 785 2017 890 3369 2213 568 4725 3335 737 8509 400 4081 4957 153 1831 659 287 2259 550 1074 134 250 165 2131 910 3877 170
internal_value=9.29198e-06 -0.00985524 -0.0022397 0.0193701 0.0339492 -0.0150895 -0.032196 -0.0273544 0.0188838 0.012483 0.0522012 0.0232996 -0.00719666 0.0245719 0.0196301 -0.0217206 -0.0393662 -0.0424167 -0.0320221 -0.0483124 0.066971 0.0433968 -0.0512971 -0.0125988 -0.00987386 -0.0023193 -0.00719123 0.0675738 0.00257452 0.00465993
internal_weight=14808.5 11474 8558.21 3190.84 3334.47 5367.37 2915.78 2100.16 1828.11 2793.23 1506.36 1688.69 3267.21 1257.05 1510.54 1768.95 1243.72 1163.37 713.719 1146.83 559.697 946.661 1076.98 2157.17 856.446 634.942 572.605 397.614 1536.17 80.3449
internal_count=59984 46388 34541 12986 13596 21555 11847 8462 7403 11291 6193 6835 13093 5125 6098 7117 5026 4703 2872 4730 2308 3885 4443 8643 3436 2546 2296 1695 6166 323
is_linear=0
shrinkage=0.1


Tree=8
num_leaves=31
num_cat=0
split_feature=136 135 132 181 182 99 181 127 135 180 33 158 72 98 127 126 98 154 73 127 180 127 115 37 91 182 151 198 180 185
split_gain=404.162 159.216 193.305 89.1452 76.4131 42.2979 41.4407 37.7469 28.374 20.8647 17.6986 21.6569 19.7126 17.2952 16.8652 16.6247 15.9748 15.9508 15.9971 16.3602 15.7156 17.1403 14.5647 14.1483 13.7186 13.6468 13.2767 13.1597 12.9466 12.8744
threshold=1.0000000180025095e-35 1.0000000180025095e-35 1.0000000180025095e-35 -0.069234737639051927 26.959008194038272 0.32325158023216943 -0.34580307643196534 0.89419770458446735 1.0000000180025095e-35 0.19028723413012127 -1.5213828728056507 0.34453799976977856 -1066430856.5038992 0.2165497048334846 1.0522040866700142 0.0021822496676202076 0.2396842160241362 0.53589394131088564 4588527.1332419785 0.54756858246421347 0.80554605838095428 1.065850539119199 0.0022572089840237068 2.4057875768551189 209.63248406691858 34.058872205714842 52.837127298334785 0.39838511033753443 0.26641208274255812 17.500000000000004
decision_type=2 2 2 2 2 2 2 2 2 2 2 2 2 2 2 2 2 2 2 2 2 2 2 2 2 2 2 2 2 2
left_child=1 2 5 14 20 10 22 17 13 -5 -1 12 -12 -6 -4 16 -8 18 19 -7 21 -2 24 25 27 -19 -26 -3 -10 -14
right_child=4 6 3 9 8 7 15 -9 28 -11 11 -13 29 -15 -16 -17 -18 23 -20 -21 -22 -23 -24 -25 26 -27 -28 -29 -30 -31
leaf_value=0.017351723074543308 0.056637648124066436 -0.019072079552106852 0.045196814995218368 0.00020438520427686383 0.014401441160032594 0.033414433600858391 -0.066724637123755051 -0.045259635033043942 -0.052610908911425919 0.018166688069740301 0.056107565229108286 -0.078087468520729411 -0.012522140395476861 0.034498227103802064 0.092318800548848182 0.00041502512869879507 -0.038482223324539919 -0.0061673718037568506 -0.13201167476568268 -0.0099940082377235825 0.077475137557663179 0.031911982603417495 -0.065538044411904944 -0.088132991668554025 -0.072161641667668197 -0.035452157328544086 0.075859607914958979 0.020825169491947564 0.0025506461436762165 0.0030272610152126994
leaf_weight=283.33768908679485 605.52827532589436 1241.5007041394711 496.24102787673473 1247.1959514021873 1128.2520150840282 98.761602595448494 246.9408301115036 625.44951710104942 70.994788259267807 1344.6650977283716 46.61173751950264 43.422453492879868 2191.922276288271 694.79299634695053 91.05297614634037 91.158868625760078 1142.030656427145 270.71748626232147 8.9515206366777402 666.35123087465763 175.41770185530186 537.17606824636459 58.228535681962967 35.026054605841637 6.7184630036354056 390.03538271784782 28.381290107965469 87.523098587989807 103.02911464869976 701.52287013828754
leaf_count=1137 2526 4996 2112 5006 4561 396 1038 2544 293 5464 189 177 8779 2839 404 374 4710 1087 36 2682 733 2228 236 141 27 1576 114 352 416 2811
internal_value=1.10516e-05 -0.0088954 -0.00201706 0.0175159 0.0307518 -0.013601 -0.0291255 -0.0246896 0.0183948 0.00953055 -0.00648049 -0.00875222 -0.00769859 0.0220809 0.052664 -0.0408417 -0.0435549 -0.0159049 -0.00599918 -0.00434144 0.0494379 0.0450611 -0.0169062 -0.0268865 -0.0147765 -0.0234964 0.0460357 -0.0164234 -0.0200679 -0.00874895
internal_weight=14758.9 11443.7 8541.26 3179.16 3315.19 5362.11 2902.48 2095.29 1997.07 2591.86 3266.82 2983.48 2940.06 1823.05 587.294 1480.13 1388.97 1469.84 774.064 765.113 1318.12 1142.7 1422.35 695.779 1364.12 660.753 35.0998 1329.02 174.024 2893.45
internal_count=59984 46388 34541 12986 13596 21555 11847 8462 8109 10470 13093 11956 11779 7400 2516 6122 5748 5918 3114 3078 5487 4754 5725 2804 5489 2663 141 5348 709 11590
is_linear=0
shrinkage=0.1


Tree=9
num_leaves=31
num_cat=0
split_feature=136 133 135 180 181 111 132 182 131 135 131 127 208 43 125 125 160 184 214 152 214 181 135 181 127 160 205 33 5 156
split_gain=329.42 130.624 175.755 158.108 65.1437 34.6329 31.2087 55.0287 30.4692 29.274 27.3126 28.7107 23.024 20.0836 19.9187 19.5308 16.8902 15.2733 15.4026 16.6366 15.5948 14.8669 16.2396 14.8158 15.5345 14.5917 14.5115 14.3747 13.9819 13.6061
threshold=1.0000000180025095e-35 1.0000000180025095e-35 1.0000000180025095e-35 0.55010323656233984 0.20633935206419046 0.00040101479102261367 1.0000000180025095e-35 12.912812367620063 0.51354288794414782 1.0000000180025095e-35 0.17172174264986709 0.90214796855287183 45.473820521219757 8.2566905602245715 0.0013986003517931832 0.0016820302429917803 0.70339166878243009 -2890917.4053971167 -0.00073965890825866676 -0.030697389930790301 -0.00085658642475039393 -0.59959775634610868 1.0000000180025095e-35 -0.33776583715740943 0.72106809284178497 0.71218847436927113 85.581299540504531 -0.0088196220377265971 0.041114438817858277 0.48644595826828646
decision_type=2 2 2 2 2 2 2 2 2 2 2 2 2 2 2 2 2 2 2 2 2 2 2 2 2 2 2 2 2 2
left_child=1 2 6 5 21 15 26 23 -4 14 -5 -12 13 -13 -6 16 -3 -10 19 -19 -21 -2 -23 24 -8 -25 -1 -9 -29 -18
right_child=4 3 8 10 9 -7 7 27 17 -11 11 12 -14 -15 -16 -17 29 18 -20 20 -22 22 -24 25 -26 -27 -28 28 -30 -31
leaf_value=0.001509386288361864 0.070028756178980717 -0.052120858493741151 -0.015220305725473693 -0.0019088145675147925 0.040267777603820692 -0.089770312964767091 0.027483025252312301 0.024800877490668963 0.069234345193483524 -0.028935654781784 -0.0048335613839518808 -0.0051791743436525334 0.056117609157791695 -0.042141929535943472 0.013241916150413466 -0.069712401055922815 0.058333417795383348 0.024328565365697687 -0.050177764088858615 -0.061180167677031008 0.053100653853996829 0.044397179842158546 0.01346317594233503 0.043630790714269931 0.07712885631767534 0.0071787823117115956 -0.092067259134986437 0.072765745413992236 0.0040315965758717263 -0.023960944756249519
leaf_weight=1943.3843615800142 185.56122151017189 294.57062408328056 1383.9401512145996 1658.1175921559334 343.18752580881119 232.17646446824074 102.1602379232645 469.88509723544121 11.509848862886427 138.1125221401453 699.45507748425007 186.35850778222084 27.988595381379128 712.06712435185909 1335.6697432547808 240.48349469900131 20.809282526373863 64.180534183979034 557.19611866772175 71.587569639086723 13.396541774272917 1090.5314574539661 203.41050997376442 283.95358288288116 174.06143866479397 180.59696078300476 15.712916016578673 29.121495321393013 1787.9893143177032 252.90022541582584
leaf_count=7786 788 1204 5623 6659 1423 968 438 1902 47 568 2812 750 113 2885 5412 1009 85 268 2337 300 56 4584 821 1186 778 756 63 118 7212 1033
internal_value=1.10075e-05 -0.00803095 0.000324384 -0.0217248 0.0278522 -0.0556688 0.0105481 0.01691 -0.0239217 0.0151457 -0.0109487 -0.0201549 -0.0316942 -0.0345002 0.0187931 -0.045768 -0.0355131 -0.0406382 -0.042538 -0.0137896 -0.0426411 0.0434295 0.0395562 0.0405837 0.0589689 0.0295272 0.000707166 0.00922321 0.00517807 -0.0174784
internal_weight=14710.1 11413.6 7088.68 4324.93 3296.47 1040.94 4986.87 3027.77 2101.81 1816.97 3283.99 1625.87 926.414 898.426 1678.86 808.764 568.28 717.871 706.361 149.165 84.9841 1479.5 1293.94 740.772 276.222 464.551 1959.1 2287 1817.11 273.71
internal_count=59984 46388 28870 17518 13596 4299 20239 12390 8631 7403 13219 6560 3748 3635 6835 3331 2322 3008 2961 624 356 6193 5405 3158 1216 1942 7849 9232 7330 1118
is_linear=0
shrinkage=0.1


Tree=10
num_leaves=31
num_cat=0
split_feature=136 135 133 180 131 132 180 96 135 80 180 99 56 132 180 99 156 68 213 183 10 183 68 213 72 187 150 212 180 19
split_gain=268.571 109.219 147.203 125.526 53.8226 38.5414 29.6363 28.5215 23.7422 19.5261 18.5121 17.1495 16.7299 16.5992 34.1667 15.8909 15.8218 15.8079 15.0543 14.8836 22.4248 17.1421 14.3174 14.1416 14.1293 14.0927 13.0988 13.178 12.8674 12.9093
threshold=1.0000000180025095e-35 1.0000000180025095e-35 1.0000000180025095e-35 0.48494790680304423 0.5777379199251238 1.0000000180025095e-35 0.51038322925732094 1.0833147563815262 1.0000000180025095e-35 -92.701167221812867 0.23972073377640404 0.17604996261918457 0.036014309174397033 1.0000000180025095e-35 0.67210414294465826 0.17183059894029842 0.48124403080319511 53.473642234912717 0.00072375163636162487 -500084.61672955385 0.12761989186360209 -1122896.819840238 40.590724614027884 -0.00013582185208049766 -6502.5136179970823 5.5000000000000009 -4256425.0331878206 0.062098976948959723 0.65304737614413999 -0.010969458109262501
decision_type=2 2 2 2 2 2 2 2 2 2 2 2 2 2 2 2 2 2 2 2 2 2 2 2 2 2 2 2 2 2
left_child=1 2 7 10 24 9 26 13 16 -5 -4 -8 -9 17 19 -11 -6 -1 -13 21 -21 -15 -17 -18 28 -19 -3 -28 -2 -30
right_child=4 6 3 5 8 -7 11 12 -10 15 -12 18 -14 14 -16 22 23 25 -20 20 -22 -23 -24 -25 -26 -27 27 -29 29 -31
leaf_value=-0.0046667914839401648 0.028791433706138694 0.077271366270555419 -0.079501034483013128 0.0034862336230283546 0.038440415632928486 0.064610779303260646 -0.0078046988243033457 0.025469008554068879 -0.023253772367728881 -0.0030728157684151102 -0.043973331437185049 -0.03587562312322351 -0.083911030160762942 0.007385357639812757 0.052092130832710908 -0.014056873262875273 0.0072236512123499547 0.060281099052200582 -0.010697547049501238 0.1093103105581793 -0.0098638289594681194 0.034233648575254925 -0.036715982677361696 0.029036693112658399 0.073449567602611107 -0.064170950228169057 -0.047618296757697014 -0.018988603889565494 -0.049965996877075376 0.052352868360344598
leaf_weight=1487.3348314464092 736.55425748229027 8.5905754864215833 215.45414148271084 801.47120648622513 305.3675425350666 70.699463203549385 975.0531233549118 1051.5726290792227 152.44213712215424 709.83828860521317 486.78143671154976 632.37628102302551 13.180142119526861 1305.5333746373653 184.3377780020237 818.34296956658363 1053.7588409781456 62.771069675683975 383.88140521943569 15.242926150560377 556.64915922284126 290.55076570808887 425.82505597174168 414.6425683349371 119.58274237811565 9.6980261057615262 659.14726406335831 216.80013924837112 11.802138477563856 482.97018887102604
leaf_count=5956 3091 35 900 3211 1274 311 3932 4323 628 2844 2017 2589 54 5301 823 3298 4288 253 1569 62 2249 1179 1721 1690 513 39 2806 916 49 2063
internal_value=1.14632e-05 -0.00725158 -0.00155306 -0.0171758 0.0252329 -0.00776139 -0.024095 0.00952209 0.0144804 -0.00964469 -0.0549854 -0.0173055 0.0240282 0.0055663 0.0108696 -0.0150347 0.0177403 -0.00242699 -0.0263945 0.00733758 -0.00648471 0.0122975 -0.0218434 0.0134055 0.0405349 0.0428437 -0.0393317 -0.0405735 0.0372732 0.0497962
internal_weight=14658.3 11381.1 8505.28 3528.41 3277.12 2826.18 2875.85 4976.87 1926.21 2755.48 702.236 1991.31 1064.75 3912.12 2352.31 1954.01 1773.77 1559.8 1016.26 2167.98 571.892 1596.08 1244.17 1468.4 1350.91 72.4691 884.538 875.947 1231.33 494.772
internal_count=59984 46388 34541 14302 13596 11385 11847 20239 7880 11074 2917 8090 4377 15862 9614 7863 7252 6248 4158 8791 2311 6480 5019 5978 5716 292 3757 3722 5203 2112
is_linear=0
shrinkage=0.1


Tree=11
num_leaves=31
num_cat=0
split_feature=136 133 180 182 125 72 56 79 131 5 159 131 125 33 155 53 149 127 160 152 143 155 156 127 19 131 158 157 156 221
split_gain=218.944 89.2068 110.237 46.9373 29.1244 25.3298 23.9359 26.578 20.5799 17.9584 19.1953 17.931 23.3979 17.7127 21.4644 19.216 18.7744 17.1249 16.4605 16.082 14.9264 13.7419 18.0624 13.684 16.9027 16.5261 13.394 14.2355 13.3074 13.0148
threshold=1.0000000180025095e-35 1.0000000180025095e-35 0.55010323656233984 209.17395252876653 0.0015206942131824426 -2665.5415418026491 0.071825981753938117 -0.027643595218047136 0.74382086738548259 87885.627701084901 0.76914003773301765 0.17172174264986709 0.0016982124835594544 -0.026933563923208333 0.62973851237260414 89341.602211129328 -440413467.48692071 0.88887776134575558 0.72159845557889857 -0.26011517748663682 0.2507018083431341 0.37455740868342158 0.35983360945677723 1.0189769818585239 -0.013184540407805418 0.2594455279120686 0.043950478168861919 0.90516399118988555 0.87050270047407585 1.3333303622727197
decision_type=2 2 2 2 2 2 2 2 2 2 2 2 2 2 2 2 2 2 2 2 2 2 2 2 2 2 2 2 2 2
left_child=1 5 4 23 29 6 7 -1 -6 10 -7 -4 20 14 18 16 -15 -5 -9 -16 -13 22 -11 24 -2 -25 27 -19 -27 -3
right_child=3 2 11 17 8 9 -8 13 -10 21 -12 12 -14 15 19 -17 -18 26 -20 -21 -22 -23 -24 25 -26 28 -28 -29 -30 -31
leaf_value=0.14927871995809622 -0.10571303602821598 -0.022136568024378366 -0.0016333294336487521 0.026705939463259207 -0.052705997597417835 0.029457371015059821 -0.090499726817670545 0.011229835631870043 -0.10191945081707905 -0.090544462965688702 -0.085559187895230038 -0.061989735803629445 -0.029144365723879059 0.031565730912751021 -0.032912234844315248 -0.15128271563123027 -0.0044615763789174574 0.044467574647058833 -0.020025524033370417 0.037895709843597504 -0.0019744614100460686 -0.068595143527705543 0.073481821546168155 0.050668579065045141 0.046084668252045755 0.016347373894078327 -0.0034151015904033558 0.0035722418894873864 0.099609131462047237 -0.060133030451477942
leaf_weight=10.741650536656378 6.4567448496818534 421.31947633624077 1657.3776251673698 466.31977297365665 371.11576606333256 514.91633270680904 29.044527798891068 500.20009429752827 112.90668569505215 8.8162179738283175 13.94326640665531 42.703778937458992 764.07572665810585 147.76951336860657 34.799855291843414 7.8113918453454962 5159.2987087368965 141.61083328723907 252.80101652443409 313.50037740170956 812.76524379849434 36.836604923009872 20.254816278815269 212.59259244799614 746.13177141547203 677.11052073538303 776.49799528717995 213.09921115636826 18.865709826350212 115.33128707110882
leaf_count=44 27 1737 6659 1921 1591 2119 119 2049 495 36 57 172 3111 604 142 32 21120 577 1032 1281 3277 151 84 923 3193 2850 3158 865 82 476
internal_value=1.15552e-05 -0.00654859 -0.0179031 0.0228553 -0.0465864 0.000372418 -0.00144657 -0.00102855 -0.064393 0.0201029 0.0262504 -0.00895453 -0.016435 -0.00130497 0.0102294 -0.00369836 -0.00345079 0.0105981 0.000710737 0.0307185 -0.00505089 -0.0287317 0.0220491 0.0346234 0.0446305 0.0262834 0.00393138 0.0200061 0.0187584 -0.0304176
internal_weight=14607 11348.3 4297.6 3258.69 1020.67 7050.73 6455.97 6426.92 484.022 594.767 528.86 3276.92 1619.54 6416.18 1101.3 5314.88 5307.07 1597.53 753.001 348.3 855.469 65.9076 29.071 1661.16 752.589 908.569 1131.21 354.71 695.976 536.651
internal_count=59984 46388 17518 13596 4299 28870 26423 26304 2086 2447 2176 13219 6560 26260 4504 21756 21724 6521 3081 1423 3449 271 120 7075 3220 3855 4600 1442 2932 2213
is_linear=0
shrinkage=0.1


Tree=12
num_leaves=31
num_cat=0
split_feature=136 135 132 181 181 181 98 99 125 179 125 126 56 214 56 185 183 135 36 179 221 67 217 127 219 143 99 213 73 68
split_gain=178.486 90.7584 98.5293 59.1071 39.7766 24.0814 22.8168 22.0344 25.3964 23.1692 19.2149 17.3203 15.5726 14.7723 14.5006 18.7772 14.3985 14.003 14.7521 14.4922 16.2521 13.9958 15.6666 13.9716 13.9475 13.8216 13.4847 13.2586 12.9566 14.4551
threshold=1.0000000180025095e-35 1.0000000180025095e-35 1.0000000180025095e-35 -0.26492206099027837 0.20633935206419046 -0.020576942531368572 0.32749525310595079 0.11023038864337815 0.0013555764038044496 0.60064700671607085 0.0015421747187460216 0.002274359520906293 0.0068455730007771229 -0.00010303621041801712 0.030076441916437383 19.500000000000004 -510326.11119672289 1.0000000180025095e-35 2.5125687282948013e-06 0.87499994520312507 0.82745946457180108 32.178357189294807 0.00015637143153612867 0.92123441848977261 2.6475311867702103 1.1130530191561254 0.15616914132978768 0.00072375163636162487 -4697.3019093816392 29.366124436825135
decision_type=2 2 2 2 2 2 2 2 2 2 2 2 2 2 2 2 2 2 2 2 2 2 2 2 2 2 2 2 2 2
left_child=1 2 7 -4 -2 26 24 12 -9 14 -6 -11 -1 21 16 -16 -10 18 -12 -20 -21 -7 -23 28 25 -5 -3 -28 -8 -30
right_child=4 5 3 6 10 13 23 8 9 11 17 -13 -14 -15 15 -17 -18 -19 19 20 -22 22 -24 -25 -26 -27 27 -29 29 -31
leaf_value=0.026541029351446529 0.033090037218048395 -0.0057495753856008219 0.050618019725726382 0.010017558171302446 0.027293069949154564 -0.026199513802387771 -0.024021714951404906 -0.003088889970301227 -0.0060271511248955328 -0.043200420139970941 -0.0061285354384477148 0.02263603749191468 -0.0025507841697932424 -0.047744174096337987 -0.094563853564895828 0.066860956542853026 -0.024300851807992862 -0.02640102992977704 0.029662043790579934 0.021740049613459426 -0.023792290040438271 -0.027147707485916939 0.12579303900028505 0.039513271281765655 -0.03682171557015692 -0.0084198409126843357 -0.03085640873762507 -0.0084196850072340654 -0.045909661362875061 0.025326519833371613
leaf_weight=231.65156690776348 1439.3419498205185 859.4283457249403 373.43351508677006 1334.8069007992744 505.82395766675472 396.16427932679653 81.559614419937134 1754.0647263675928 1236.4862274378538 473.00861620903015 458.0333210080862 42.821453005075455 877.32892248034477 451.66863098740578 40.658371970057487 7.8887253552675238 663.61494405567646 132.12576127052307 392.66253559291363 169.78398694097996 143.87787050008774 12.747944936156275 12.29052324593067 304.95172041654587 84.696208596229553 583.08498047292233 700.91127833724022 425.41262263059616 29.97340501844883 353.35365530848503
leaf_count=929 6193 3467 1693 5394 2121 1701 334 7063 5002 1978 1862 178 3521 1947 168 32 2684 548 1603 687 582 54 52 1286 342 2355 2885 1741 124 1458
internal_value=7.32735e-06 -0.00591121 -0.000711181 0.0133179 0.0206956 -0.0213157 0.00827375 -0.00899809 -0.0122954 -0.01884 0.0107789 -0.0376825 0.00353554 -0.0351644 -0.0138303 -0.0673111 -0.012424 0.00431208 0.0078255 0.0168843 0.000813178 -0.0215699 0.0494895 0.0228952 0.00263933 0.00440547 -0.0152086 -0.0224059 0.0119114 0.0196254
internal_weight=14573.7 11332 8473.38 3145.86 3241.65 2858.62 2772.43 5327.52 4218.54 2464.48 1802.31 515.83 1108.98 872.871 1948.65 48.5471 1900.1 1296.48 1164.36 706.324 313.662 421.203 25.0385 769.838 2002.59 1917.89 1985.75 1126.32 464.887 383.327
internal_count=59984 46388 34541 12986 13596 11847 11293 21555 17105 10042 7403 2156 4450 3754 7886 200 7686 5282 4734 2872 1269 1807 106 3202 8091 7749 8093 4626 1916 1582
is_linear=0
shrinkage=0.1


Tree=13
num_leaves=31
num_cat=0
split_feature=136 135 133 180 179 132 179 127 180 135 97 71 99 98 127 142 24 157 207 217 181 220 39 157 19 93 221 17 189 186
split_gain=145.393 73.9991 92.1145 84.7844 34.196 27.9334 20.6262 19.355 23.7126 18.7297 18.4022 18.2617 17.3483 16.1521 28.2843 24.2737 16.1303 15.784 15.6316 16.1588 15.4502 15.4227 14.6892 15.4169 15.246 17.7451 14.0866 12.9905 12.7117 12.5862
threshold=1.0000000180025095e-35 1.0000000180025095e-35 1.0000000180025095e-35 0.48494790680304423 0.74382086738548259 1.0000000180025095e-35 0.66094702852085907 0.65782885280032988 0.23972073377640404 1.0000000180025095e-35 2.2357789585475989 -4656.0392453694449 0.15616914132978768 0.16258197305535863 0.92123441848977261 327.30610094508648 87.758757362854581 1.3513812548234079 41.370274949232702 0.0006961544876109561 -0.30717335368172466 0.79033101295559283 9.2881184160807226 0.27025555989368405 -0.0043526309182729218 2.2039292021620578 0.66174559154422219 0.0016377185037276807 0.12940952255126045 47.500000000000007
decision_type=2 2 2 2 2 2 2 2 2 2 2 2 2 2 2 2 2 2 2 2 2 2 2 2 2 2 2 2 2 2
left_child=1 2 10 7 11 22 12 18 -9 28 13 20 -3 15 -15 -1 -16 29 -4 27 -2 -19 24 -24 -5 -26 -22 -20 -6 -17
right_child=4 6 3 5 9 -7 -8 8 -10 -11 -12 -13 -14 14 16 17 -18 21 19 -21 26 -23 23 -25 25 -27 -28 -29 -30 -31
leaf_value=-0.081133606128368299 0.039199605099993706 -0.0054498192127383971 -0.056547356102769397 -0.0097702771851758477 -0.0011071875048946987 0.057180064014035373 -0.040659495984564337 -0.085235405051074895 -0.039340838896070568 -0.045249208908971023 0.022206433051204191 0.058464334508816135 -0.022661664658480168 0.0030514017523974508 0.025896386001037958 0.008596951046283937 -0.1089082472216822 0.0027892255155308062 0.062259467315828904 -0.048962338730343037 0.0060949772594841786 -0.050659299886249488 0.072217400411306795 -0.013324922119207775 0.0027266114010984122 0.044178786522810244 0.02664440651968368 -0.065726039221427862 0.020328441048433381 -0.021008673649522719
leaf_weight=38.325987160205841 481.64236216247082 970.22584539651871 46.158459410071373 471.4072147756815 625.41720302402973 68.590465366840363 389.48365212976933 160.62492161989212 390.57565426826477 68.190618753433228 781.59228171408176 165.08498990535736 1486.126085087657 1992.2110249847174 875.75501863658428 874.54393465816975 7.9733345508575431 99.812668845057487 51.713998064398766 26.431526944041252 561.36538264155388 115.47934052348137 20.308953583240509 1770.2575273513794 338.26833179593086 148.12109771370888 829.13329969346523 8.4194363802671415 493.79327642917633 170.6693372130394
leaf_count=154 2128 3940 190 1892 2558 311 1707 707 1664 288 3223 729 6200 8134 3633 3511 33 401 212 109 2368 464 82 7150 1356 594 3501 35 2024 686
internal_value=7.08192e-06 -0.00533582 -0.000640314 -0.0130571 0.0187342 -0.00537848 -0.0192813 -0.0446152 -0.0528632 0.00522887 0.008129 0.0265944 -0.0158723 0.00548637 0.00966639 -0.00376185 0.0245471 -0.00133896 -0.0101475 0.0148431 0.0237491 -0.0259352 -0.00696361 -0.0123093 0.00302201 0.0154354 0.0183658 0.0433943 0.00835094 0.00373773
internal_weight=14527.7 11303.1 8457.24 3500.88 3224.63 2816.95 2845.84 683.924 551.201 1187.4 4956.36 2037.23 2456.35 4174.77 2875.94 1298.83 883.728 1260.51 132.723 86.565 1872.14 215.292 2748.36 1790.57 957.797 486.389 1390.5 60.1334 1119.21 1045.21
internal_count=59984 46388 34541 14302 13596 11385 11847 2917 2371 4870 20239 8726 10140 17016 11800 5216 3666 5062 546 356 7997 865 11074 7232 3842 1950 5869 247 4582 4197
is_linear=0
shrinkage=0.1


Tree=14
num_leaves=31
num_cat=0
split_feature=136 135 132 181 182 181 98 99 127 149 127 18 182 159 187 92 115 135 132 127 92 168 77 113 91 95 146 127 75 56
split_gain=118.485 60.2541 69.2948 47.2985 28.7645 18.0496 17.2383 16.8034 17.911 18.2101 15.2558 14.163 13.6574 13.374 15.5931 13.0579 13.0155 12.858 17.2972 15.1693 13.559 13.3744 12.6271 15.0931 12.6203 12.3324 12.3024 12.2408 14.3674 12.2167
threshold=1.0000000180025095e-35 1.0000000180025095e-35 1.0000000180025095e-35 -0.26492206099027837 209.17395252876653 -0.353858132918418 0.34078662581434899 0.11023038864337815 0.82883153781259 5502.4386742102788 0.74021542283568253 0.0030324094527352536 95944.895120979418 0.8923373305801735 2.5000000000000004 -0.072572118894997914 0.0022572089840237068 1.0000000180025095e-35 1.0000000180025095e-35 1.0418598484496957 0.0074825387918031625 -0.0052216852518687275 -0.013712640036035145 -0.0019279990180731119 6.3676182757415072 0.57466759044780258 0.21299230121466475 1.1511733812535307 0.0036495664704632325 0.0068455730007771229
decision_type=2 2 2 2 2 2 2 2 2 2 2 2 2 2 2 2 2 2 2 2 2 2 2 2 2 2 2 2 2 2
left_child=1 2 7 27 17 16 15 29 9 11 -8 -9 -10 -7 -15 -5 24 18 19 22 26 -22 -2 -24 -3 -21 -19 28 -4 -1
right_child=4 5 3 6 -6 13 10 8 12 -11 -12 -13 -14 14 -16 -17 -18 20 -20 25 21 -23 23 -25 -26 -27 -28 -29 -30 -31
leaf_value=0.023798981303614138 -0.096621341868973087 -0.010641276136568794 0.044822456901691884 0.033646589805881755 0.0073718990706996418 -0.027666862449787402 -0.0028259965350524497 -0.0044293592156080287 -0.015250606896043257 0.040681891980550042 0.029535893087382227 -0.048802555918128085 -0.051849215827439538 -0.030362827432304208 0.056522922503287637 8.4793959683078447e-05 -0.055833881785786944 0.048773842908473974 0.054656923137359564 0.0020455855219603208 0.087658894134617998 -0.039495126942545651 0.084363883939430506 0.031339105352015645 0.020877852374850847 0.038467223275259158 -0.0063586359064050375 0.10536227511079513 -0.036506678840609486 -0.0019802205373797683
leaf_weight=231.35249081254005 6.2540107965469351 1200.4292013496161 311.72312055528164 122.36296308040619 1587.543631747365 1355.3363699764013 203.84636624157429 2030.5204780697823 1906.8039870113134 85.946226954460144 503.2903406471014 73.656122222542763 107.25310705602169 39.44496676325798 41.168228194117546 1933.4416680634022 56.775646537542343 83.571318775415421 237.56142002344131 360.99975454807281 8.2476873695850355 78.344818383455276 58.965254962444305 586.04666785895824 140.93783982098103 124.58504068851471 76.686905473470688 30.336313053965569 22.474045515060425 877.31880129873753
leaf_count=929 26 4870 1439 499 6521 5834 838 8207 7794 347 2131 299 458 166 173 7825 234 352 1046 1570 34 321 263 2580 570 560 323 151 103 3521
internal_value=3.94513e-06 -0.00482086 -0.00058283 0.0112234 0.0169556 -0.0174341 0.00674419 -0.00753542 -0.0104235 -0.00415522 0.020202 -0.00600983 -0.0172293 -0.0253106 0.0140351 0.00210267 -0.00932515 0.0263236 0.0300971 0.0249127 0.00523619 -0.0264074 0.0348869 0.0363251 -0.00730902 0.0114706 0.022454 0.0450348 0.0392308 0.00340685
internal_weight=14483.2 11274.4 8440.33 3127.47 3208.81 2834.09 2762.94 5312.85 4204.18 2190.12 707.137 2104.18 2014.06 1435.95 80.6132 2055.8 1398.14 1621.26 1374.41 1136.85 246.851 86.5925 651.266 645.012 1341.37 485.585 160.258 364.533 334.197 1108.67
internal_count=59984 46388 34541 12986 13596 11847 11293 21555 17105 8853 2969 8506 8252 6173 339 8324 5674 7075 6045 4999 1030 355 2869 2843 5440 2130 675 1693 1542 4450
is_linear=0
shrinkage=0.1


Tree=15
num_leaves=31
num_cat=0
split_feature=136 135 132 180 181 131 72 221 112 99 125 98 156 99 125 213 98 30 113 156 147 212 157 98 33 163 148 72 67 66
split_gain=96.5373 49.1133 56.3641 39.8016 26.371 16.2101 14.9852 14.5529 15.2252 14.4061 18.6526 14.2256 13.166 13.052 12.9666 12.4214 13.8726 12.8697 12.3229 13.444 13.2892 12.3167 15.2192 14.3708 12.2262 18.5896 25.8919 13.8315 17.0271 12.6056
threshold=1.0000000180025095e-35 1.0000000180025095e-35 1.0000000180025095e-35 0.63191110937388084 0.49407443727178463 0.66094702852085907 -4516.6278030930544 0.22610610856290195 0.00090984843631522255 0.32325158023216943 0.0013719132616992699 0.22243954433837784 2.239522112677212 0.15616914132978768 0.0015421747187460216 0.0010899699729932657 0.4803744037790027 -8.2267249377851446 -0.00014995386171007261 0.55234682485294273 -0.67471376983102993 7.2634873484085663e-05 1.3832393528673033 0.24151230965406609 -0.032313571811789399 0.7517025510252433 1512.0941046550104 -949351660.85981977 13.625614526079454 49.38477924576339
decision_type=2 2 2 2 2 2 2 2 2 2 2 2 2 2 2 2 2 2 2 2 2 2 2 2 2 2 2 2 2 2
left_child=1 2 9 11 6 13 -2 8 -6 12 18 -4 24 -3 -9 16 -12 -18 19 -11 -20 -7 23 -23 25 -1 -27 28 -26 -29
right_child=4 5 3 -5 7 21 -8 14 -10 10 15 -13 -14 -15 -16 -17 17 -19 20 -21 -22 22 -24 -25 27 26 -28 29 -30 -31
leaf_value=-0.0091387089752781852 0.019673664244021276 -0.0037087666821928817 -0.00063294960355283363 0.041442296732151898 -0.12116730688521507 -0.048316192455969041 0.051298647059756876 0.023234137016187383 0.020261759348912153 -0.02946104375570199 -0.030588119319075048 0.013753754883254738 -0.060880893024391231 -0.018674157303160892 -0.0010896838079554442 0.011496525859046005 -0.031989028345300839 0.04103915381915476 0.053794214385435191 0.0018330988728023228 0.0017809969061458324 -0.056740882532460603 0.074965868550345358 0.01200983975188236 0.10019524571352988 0.013738087592820962 0.096673640624831386 -0.0039837166537289581 0.006650429994379552 -0.023975779950855463
leaf_weight=362.00356444716454 1862.5416352152824 967.9086185246706 1474.7520455867052 358.67940467596054 17.708391100168232 244.95928232371807 163.04244677722454 294.70351120829582 12.229413151741026 278.65957885980606 831.78624060750008 1284.012796998024 37.380059137940407 1473.1161305308342 843.71916523575783 94.254838481545448 41.57780909538269 54.602011039853096 54.554212406277657 268.30976603925228 429.20847874879837 61.657254070043564 17.039927288889885 58.127408623695374 24.826768085360527 469.38116529583931 40.059227213263512 1861.43572306633 80.69651947915554 379.42024759948254
leaf_count=1455 8047 3940 5950 1695 73 1100 739 1245 50 1135 3515 5341 156 6200 3442 380 170 222 220 1089 1731 278 75 254 101 1887 161 7482 327 1524
internal_value=8.01964e-06 -0.00434807 -0.000521595 0.0101479 0.0153489 -0.0157617 0.0222482 0.00337034 -0.0642836 -0.00679032 -0.0133494 0.00606199 -0.0026478 -0.0127482 0.00521311 -0.0229163 -0.026431 0.0093624 -0.00383888 -0.0141165 0.00776606 -0.0349193 -0.0106856 -0.0234725 -0.00194952 0.00815422 0.0204558 -0.00570818 0.0294869 -0.0073824
internal_weight=14442.4 11248.4 8425.6 3117.44 3193.94 2822.81 2025.58 1168.36 29.9378 5308.16 2052.95 2758.76 3255.2 2441.02 1138.42 1022.22 927.966 96.1798 1030.73 546.969 483.763 381.784 136.825 119.785 3217.82 871.444 509.44 2346.38 105.523 2240.86
internal_count=59984 46388 34541 12986 13596 11847 8786 4810 123 21555 8462 11291 13093 10140 4687 4287 3907 392 4175 2224 1951 1707 607 532 12937 3503 2048 9434 428 9006
is_linear=0
shrinkage=0.1


Tree=16
num_leaves=31
num_cat=0
split_feature=136 133 181 135 181 111 39 148 37 210 141 50 167 4 39 77 30 37 67 111 64 143 10 127 217 50 135 43 9 98
split_gain=78.5351 49.0326 68.8591 47.7105 24.4573 20.4201 16.2812 15.6204 15.6897 14.9616 16.2047 14.538 16.4647 14.2767 14.8755 14.8696 14.1241 16.2144 16.9401 14.0142 13.778 13.7415 13.7028 13.4479 13.495 13.6744 13.3421 13.0658 13.1137 13.0021
threshold=1.0000000180025095e-35 1.0000000180025095e-35 -1.0000000180025095e-35 1.0000000180025095e-35 -0.1953178715072538 0.00040101479102261367 14.997852064563439 69.289778535286203 3.1271513638538413 90.574950161402754 77.315087064487003 0.0042021532322859372 0.8035292103413082 0.040330250630763252 9.2881184160807226 -0.0059155268143186758 1.5510906196877488 -1.7450411793874989 22.574451363433699 -0.00025231497770528127 0.17828687467618645 1.9865643073745647 87884.209546650658 0.59465626572171482 -0.00042172317317318292 0.011170494750672775 1.0000000180025095e-35 88.207481835010398 87964.428393316004 0.79999988000002842
decision_type=2 2 2 2 2 2 2 2 2 2 2 2 2 2 2 2 2 2 2 2 2 2 2 2 2 2 2 2 2 2
left_child=1 3 9 7 21 23 -6 22 11 13 -11 -9 -13 -3 15 -15 17 -5 19 -19 -14 -2 -1 24 -4 -26 -8 28 -18 -21
right_child=4 2 5 16 6 -7 26 8 -10 10 -12 12 20 14 -16 -17 27 18 -20 29 -22 -23 -24 -25 25 -27 -28 -29 -30 -31
leaf_value=0.024585339769849609 0.035878615447034447 0.10277900691733584 -0.05099713206665353 0.05096913642875614 0.035007642478548207 -0.066132392861800546 0.0094018306777345715 -0.0077216024248533792 -0.032731838445625994 0.098942961774199034 -0.031431859859133021 0.0088716922606241373 0.030476501560579725 -0.015295523667181267 -0.012004459397897739 0.0097127798577204168 -0.012119997182799713 0.0021364846200581473 0.016347348730306726 -0.041686869415955383 -0.078716455136047858 -0.0091873196351422142 -0.030483667056749521 -0.035019673599782586 0.062271790032318711 -0.072789230907694999 -0.015516620043494349 -0.040839577001943489 -0.10630293891870142 0.061455844795411878
leaf_weight=629.65907435119152 597.2997023165226 10.801191940903662 23.323281794786453 56.25576351583004 223.90968215465546 204.33543464541435 2045.4153705239296 708.84590031206608 110.32210697233677 26.150132685899734 13.940808311104773 3382.7703571766615 15.668897494673727 341.19897882640362 2276.9161165207624 777.35193178057671 1132.6189981549978 192.44665019214153 239.93103873729706 193.63056434690952 37.77293036878109 75.496123254299164 47.677547350525856 519.63945131003857 42.360961928963661 8.1229758560657483 238.90230059623718 204.18230493366718 14.030607134103773 12.098192796111105
leaf_count=2623 2706 44 96 232 970 930 8596 2905 453 106 57 13843 64 1375 9303 3130 4794 786 993 819 154 340 197 2269 174 34 984 898 60 49
internal_value=8.69246e-06 -0.00392222 -0.0123967 0.0012318 0.0138762 -0.0388545 0.00932205 0.0065573 0.00430666 -0.00625977 0.0537028 0.00530252 0.0079936 -0.00698401 -0.00736627 0.00206855 -0.0116046 0 -0.00457936 -0.0172237 -0.0465462 0.0308007 0.0206551 -0.0293499 0.0103692 0.0393542 0.00678574 -0.017559 -0.0133728 -0.0353051
internal_weight=14403.1 11222.1 4244.14 6977.91 3181.02 797.782 2508.23 4932.72 4255.38 3446.36 40.0909 4145.06 3436.21 3406.27 3395.47 1118.55 2045.19 694.362 638.106 398.175 53.4418 672.796 677.337 593.447 73.8072 50.4839 2284.32 1350.83 1146.65 205.729
internal_count=59984 46388 17518 28870 13596 3503 10550 20239 17419 14015 163 16966 14061 13852 13808 4505 8631 2879 2647 1654 218 3046 2820 2573 304 208 9580 5752 4854 868
is_linear=0
shrinkage=0.1


Tree=17
num_leaves=31
num_cat=0
split_feature=136 133 181 125 181 19 212 212 126 158 189 156 160 66 71 62 10 158 130 71 123 0 185 214 150 158 27 212 125 206
split_gain=63.9461 39.8625 58.6395 29.9372 20.2265 17.6071 20.6865 18.2406 27.1091 38.9863 23.2766 21.1886 32.6755 20.2153 19.3185 24.2274 18.7613 24.9499 18.2245 17.8337 17.5323 19.532 17.4763 15.982 16.1826 15.8781 15.6622 15.5922 15.4293 14.7863
threshold=1.0000000180025095e-35 1.0000000180025095e-35 -0.26492206099027837 0.0016820302429917803 -0.1953178715072538 0.013298174253104289 0.00031438376966431986 0.031467769478677361 0.0022082157232298778 0.28506923462521411 -0.78656609248549303 0.60381912642597169 0.76176566043813787 38.360717752997324 -1369088.576351071 0.19157755341838875 2591.2574937469458 0.071310112708220949 6.9392638132242525e-05 -2763.127097125192 -0.0083281541110191131 86187.976435434059 20.500000000000004 -0.0008725043849491797 238.25168774294255 0.044761398549395315 61.211963634695572 0.0063218805264320119 0.0015421747187460216 24.615794011215439
decision_type=2 2 2 2 2 2 2 2 2 2 2 2 2 2 2 2 2 2 2 2 2 2 2 2 2 2 2 2 2 2
left_child=1 5 -3 -4 -2 7 -7 8 19 18 29 13 23 16 -14 -16 17 -9 -10 25 -21 -22 -18 -13 -25 -1 -12 -27 -6 -11
right_child=4 2 3 -5 28 6 -8 11 9 10 26 12 14 -15 15 -17 22 -19 -20 20 21 -23 -24 24 -26 27 -28 -29 -30 -31
leaf_value=0.0031835864952461895 0.028032765785524993 -0.0032142191508180368 -0.01738767647615224 -0.048770141035482495 0.020898131116863408 0.079265941367097525 -0.098325960492540262 -0.0056895967083115465 0.055038740759287358 0.046678527657633119 0.10022122835093102 0.0030540363668063539 0.023260081802348558 0.026950755194094733 0.040092136789877927 -0.049668029834719456 0.018585613049465804 -0.058411442380254447 -0.06461426102409619 0.094113447320596844 0.028137812168386747 -0.030618802077159363 -0.047789541255951001 0.092534506805164451 0.035697107091232631 -0.0075634564085844715 -0.084607854437798266 -0.039715192340461947 0.0034661276840874445 -0.1180662671319114
leaf_weight=1551.2413461208344 665.81442326307297 2900.6859800368547 858.75164464116096 472.60441765189171 708.64744299650192 7.2928041666746131 32.503244861960411 435.66323639452457 206.76646290719509 5.90921427309513 13.390485242009165 53.42688125371933 241.20017084479332 259.16652499139309 41.799236819148064 100.20728309452534 372.18677212297916 112.33256112039089 12.665250569581984 27.83418333530426 205.92235000431538 76.813480705022812 43.358013600111008 103.33103765547276 101.80338826775551 2766.9264651238918 5.7857395708560935 158.82260778546333 1793.4525111466646 30.885226145386696
leaf_count=6429 3046 11750 3642 2126 3082 30 134 1803 855 24 55 220 996 1073 173 412 1552 465 52 117 860 322 182 427 420 11459 24 656 7468 130
internal_value=5.5462e-06 -0.00354215 -0.0111961 -0.0285636 0.0125478 0.00110651 -0.0643911 0.00149346 -0.00161909 0.0288286 -0.0450048 0.00994725 0.024648 0.00220918 0.00604555 -0.0230818 -0.00445632 -0.0166019 0.0478254 -0.00337832 0.0197499 0.012088 0.0115379 0.0520502 0.064686 -0.00498902 0.0425305 -0.00932519 0.00841361 -0.0908085
internal_weight=14367.2 11199.3 4232.04 1331.36 3167.91 6967.23 39.796 6927.44 5062.96 275.402 55.9707 1864.48 641.768 1222.71 383.207 142.007 963.541 547.996 219.432 4787.56 310.57 282.736 415.545 258.561 205.134 4476.99 19.1762 2925.75 2502.1 36.7944
internal_count=59984 46388 17518 5768 13596 28870 164 28706 20983 1140 233 7723 2648 5075 1581 585 4002 2268 907 19843 1299 1182 1734 1067 847 18544 79 12115 10550 154
is_linear=0
shrinkage=0.1


Tree=18
num_leaves=31
num_cat=0
split_feature=136 133 111 131 99 125 56 79 123 190 126 75 71 123 149 63 167 142 127 91 90 72 125 66 209 111 192 185 209 79
split_gain=52.017 32.4287 50.9492 18.3688 18.0823 16.6283 15.7727 21.0792 14.3277 14.7985 24.4486 21.4569 20.8038 15.7195 15.2934 14.1119 15.9149 16.7402 13.9506 13.2762 21.6714 12.4448 12.1912 17.4681 12.9708 11.8987 11.5555 11.2636 11.0788 12.6282
threshold=1.0000000180025095e-35 1.0000000180025095e-35 0.00013748173805794298 0.78972434963984328 0.28977670520992466 0.0017034946410566121 0.071825981753938117 -0.027643595218047136 -0.018513348194449383 -0.12940952255126037 0.0022241670960206675 0.0066910557637874886 -22777.750139021922 0.011765944729562052 -436439487.42970628 4.3888863217631373 0.78966997030085195 611.57957336197489 2.3594124432327024 -0.00055262083627314804 -0.012866818158350666 -4516.6278030930544 0.0061242297931340351 51.78857894420738 90.686595728489934 0.00092618576195668833 -0.56174490092936669 18.500000000000004 58.510414831696842 0.0051025427230511873
decision_type=2 2 2 2 2 2 2 2 2 2 2 2 2 2 2 2 2 2 2 2 2 2 2 2 2 2 2 2 2 2
left_child=1 6 4 21 22 15 7 -1 19 11 12 14 -11 -12 -10 16 -6 -18 -13 20 -9 -2 24 -24 -3 -4 -21 -8 -23 -30
right_child=3 2 25 -5 5 -7 27 8 9 10 13 18 -14 -15 -16 -17 17 -19 -20 26 -22 28 23 -25 -26 -27 -28 -29 29 -31
leaf_value=0.13695157500827151 0.01419661823131854 -0.0014100727561933207 -0.036636622832006187 -5.0587060525473443e-05 -0.0064836820905761388 -0.031282919530330661 -0.10984094470513094 -0.060850983557512575 0.042248516283140872 0.0010439162214160706 0.057146838477267752 -0.10916532536315067 0.0233807210676963 -0.021442313059939086 -0.0036887362071677554 -0.029262402361525931 -0.057433381345819504 0.05691388529504128 0.054080298183028931 -0.0028510474214634139 0.058551573563879078 0.053587833591641224 -0.11353240082102022 0.048816002784568352 0.067932157416510972 -0.092529999755140382 -0.13789821629787899 0.028595320344654413 -0.065468349152110611 0.06156577961728809
leaf_weight=10.438560396432875 2006.4249755144119 2455.7115788310766 400.56112277507782 976.2296187132597 501.52878150343895 458.14509904384613 20.42869666218758 35.720997005701065 73.235607653856277 3064.7699081003666 138.61029739677906 28.512213230133057 481.8662591278553 30.362890556454659 3013.4547790139914 215.73451575636864 14.367636755108832 77.693615943193436 5.6333390921354285 9.6377571225166339 24.917193785309792 143.71891301870346 20.510829851031307 8.7998804450035077 26.272381022572517 42.102433666586876 18.662998229265213 7.4698853045701972 17.704173743724827 12.436915308237074
leaf_count=44 8762 9930 1799 4025 2089 1988 88 148 303 12686 575 118 2017 125 12491 896 60 324 23 40 103 668 85 36 107 204 78 31 82 59
internal_value=4.8818e-06 -0.00319387 -0.0101086 0.0113403 -0.00633979 -0.0160726 0.000997304 0.00130571 0.00108007 0.00160291 0.00586717 -0.00347109 0.00408728 0.0429232 -0.00258225 -0.00742205 0.000534666 0.0385353 -0.0811761 -0.0385688 -0.0114704 0.0164429 -0.00141912 -0.0644586 -0.000644978 -0.0421718 -0.0939164 -0.0727215 0.0420788 -0.0124362
internal_weight=14341.7 11185.1 4221.43 3156.51 3778.76 1267.47 6963.72 6935.82 6925.38 6836.45 3715.61 3120.84 3546.64 168.973 3086.69 809.325 593.59 92.0613 34.1456 88.9389 60.6382 2180.28 2511.29 29.3107 2481.98 442.664 28.3008 27.8986 173.86 30.1411
internal_count=59984 46388 17518 13596 15515 5357 28870 28751 28707 28338 15403 12935 14703 700 12794 3369 2473 384 141 369 251 9571 10158 121 10037 2003 118 119 809 141
is_linear=0
shrinkage=0.1


Tree=19
num_leaves=31
num_cat=0
split_feature=135 132 111 136 98 181 127 164 111 127 57 56 221 94 72 185 90 40 77 146 57 43 53 72 127 215 216 66 150 56
split_gain=58.4947 32.0694 49.0598 30.6571 19.5831 19.0601 16.0364 17.166 16.014 15.9192 19.4929 15.7246 15.1435 16.3215 14.1982 13.3951 18.3082 16.655 15.123 13.8136 13.1092 12.8828 13.2989 12.3707 11.437 12.8667 12.1245 11.9169 11.2804 13.8277
threshold=1.0000000180025095e-35 1.0000000180025095e-35 -0.00013017338284398991 1.0000000180025095e-35 0.22243954433837784 0.45377851488687276 1.0189769818585239 -1.6132906049218716 -0.0010202590279861366 1.2064399661886758 1.2036349642154816 0.017050933637798322 0.70391456841711231 41.259859877187417 -949351660.85981977 11.500000000000002 -6.2108513814218886 26.580105176013706 -0.0071333831049596704 -0.61822057580928702 -0.28590376010748403 5.8310755665782326 89341.602211129328 4705.8063418766797 0.57567371202046191 0.00052009731998614594 -0.0024816782330224214 34.153498428936466 -3221953.7651059884 0.0092838761286025244
decision_type=2 2 2 2 2 2 2 2 2 2 2 2 2 2 2 2 2 2 2 2 2 2 2 2 2 2 2 2 2 2
left_child=1 3 8 20 12 24 7 -5 -3 10 -6 -11 13 -4 -8 17 18 19 -17 -9 -1 23 28 -22 25 -2 -26 -27 29 -23
right_child=5 2 4 6 9 -7 14 15 -10 11 -12 -13 -14 -15 -16 16 -18 -19 -20 -21 21 22 -24 -25 26 27 -28 -29 -30 -31
leaf_value=-0.06009669076734462 -0.080574020412992456 0.11149593646845252 0.0050524844644116301 0.060496668442502413 0.012178836313358803 -0.035336307369556876 0.080930233762051051 0.062994270509398251 0.037313991015307336 0.049534557904184512 -0.12879816406109393 -0.042105234836018149 -0.007968558909619828 0.049253944340410173 -0.0026408966536793899 -0.072529573794272759 -0.0029179715359721539 0.038156348867078665 0.071639266029150814 -0.011147964440145765 0.0064289648100602434 0.069075829307781028 -0.08281197278534555 0.0851250739081299 0.04420471843777931 -0.061772708479456109 -0.0092392779345160277 0.083760366725716073 -0.0063603056434603164 -0.0025409743180846277
leaf_weight=41.094911530613899 44.1628747433424 31.03153458237648 734.01414284110069 85.053103148937225 1315.5142804533243 313.98982238769531 19.839901283383369 29.00695925951004 387.80481788516045 191.0594632178545 8.8765585720539075 19.869879990816116 1050.3537997305393 93.448720127344131 825.90382453799248 7.4550443887710562 509.99071131646633 350.77034625411034 55.92060199379921 153.46349886059761 652.25396656990051 43.462576523423195 21.424191609025002 19.648917987942696 42.078348055481911 9.8330152034759539 2752.7887273877859 10.689619466662405 4429.2140659689903 67.671172231435776
leaf_count=167 185 157 2971 393 5599 1431 88 129 1790 820 37 86 4259 387 3584 32 2203 1532 256 670 2619 177 90 79 175 41 11559 45 18144 279
internal_value=1.94949e-06 0.00341371 0.0108228 -0.000468635 0.00684923 -0.0119729 0.00994542 0.0174148 0.0430864 0.0152223 0.0111299 0.0406968 0 0.0101098 -0.000575368 0.0140429 0.00340106 0.0254391 0.0536617 0.00086288 -0.00449413 -0.00404423 -0.00594983 0.00886827 -0.00939251 -0.0506811 -0.00841555 0.0139361 -0.00556679 0.0257442
internal_weight=14317.7 11144.1 3831.97 7312.17 3413.14 3173.54 2037.4 1191.66 418.836 1535.32 1324.39 210.929 1877.82 827.463 845.744 1106.61 573.366 533.241 63.3756 182.47 5274.77 5233.67 4561.77 671.903 2859.55 64.6855 2794.87 20.5226 4540.35 111.134
internal_count=59984 46548 16106 30442 14159 13436 8887 5215 1947 6542 5636 906 7617 3358 3672 4822 2491 2331 288 799 21555 21388 18690 2698 12005 271 11734 86 18600 456
is_linear=0
shrinkage=0.1


Tree=20
num_leaves=31
num_cat=0
split_feature=135 136 133 181 181 123 181 132 167 126 212 96 86 62 21 57 43 218 132 96 126 5 151 159 16 201 27 152 158 165
split_gain=47.5904 26.7276 30.1715 43.121 15.7984 15.6281 15.1996 13.5276 13.2173 12.9464 15.5739 14.0617 13.006 12.7217 12.4098 12.0151 11.7181 13.7647 11.6758 11.4446 13.6939 11.8839 11.2064 10.9999 13.3774 11.0029 10.7114 10.2956 11.8362 10.8019
threshold=1.0000000180025095e-35 1.0000000180025095e-35 1.0000000180025095e-35 0.16037512592115746 0.45377851488687276 -0.019948141266377725 -0.1953178715072538 1.0000000180025095e-35 0.76813531139758873 0.0021944284818239588 0.018491312180525913 0.80747238788012521 -0.097197608010096678 0.11247096540423963 54.816335929616024 -0.28590376010748403 6.1419878929273368 0.23364522191630083 1.0000000180025095e-35 33.351018394925639 0.0025573812760812669 0.041114438817858277 16.100845097698926 0.81679718774958843 0.0028448166623554231 -0.68459830824001544 19.050494870126816 0.23552655867414132 0.052412356048737993 1.632333568516571
decision_type=2 2 2 2 2 2 2 2 2 2 2 2 2 2 2 2 2 2 2 2 2 2 2 2 2 2 2 2 2 2
left_child=1 2 19 7 -2 8 18 15 -3 11 -11 23 -12 -5 -9 -4 17 -17 -7 21 -21 -1 -10 25 -25 -8 -18 28 -13 -29
right_child=4 5 3 13 -6 6 9 14 22 10 12 27 -14 -15 -16 16 26 -19 -20 20 -22 -23 -24 24 -26 -27 -28 29 -30 -31
leaf_value=0.049407830279501297 -0.0084694435914303822 0.030298757102494408 -0.059041868508008702 0.070527294065044488 -0.032221008129446539 0.023136232930796398 -0.079240003123036584 0.064411972653438385 0.050614985791963475 0.0692905987136163 0.052568949112934776 0.011949328160269041 -0.062331559111032692 -0.036817662183174435 -0.029124807446270735 -0.068219399154025348 -0.11052666219109769 0.011907969522231826 0.07450610574175226 0.035082237285799123 -0.090664580494664193 0.0037623327467116914 -0.10564133975595863 -0.035555712563695961 0.090756803716178114 0.0060033975734445659 -0.0056690576076151959 -0.069390951258898922 0.044981506253521285 0.080598882034468161
leaf_weight=56.794952109456062 2855.1044026911259 15.043446704745291 37.342550158500671 10.345390290021895 310.21574468910694 459.18579995632172 14.28689508140087 53.335954740643501 4.7753755003213909 72.097815111279488 17.234439760446548 258.27841113507748 20.392813608050346 478.46048997342587 18.363008737564087 21.183244526386261 8.800044044852255 624.54204222559929 48.582229658961296 182.8449337631464 8.107158809900282 4667.1327657997608 26.933772385120392 111.43392457067966 8.0720401257276517 1488.6567373424768 2195.7030283510685 20.98629200458527 188.76117424666882 5.1886217147111884
leaf_count=235 12005 65 152 44 1431 2167 58 258 20 308 75 1166 86 2170 83 85 37 2508 245 809 34 19161 114 468 33 6245 8965 93 841 23
internal_value=6.11061e-06 0.00308567 0.000267991 -0.00690072 -0.0108098 0.0116169 0.0126137 -0.00234731 -0.045077 0.00900773 0.0423582 0.00723742 -0.00944623 -0.034386 0.0402474 -0.00342197 -0.0026693 0.00916248 0.0282076 0.00529968 0.0292469 0.00432358 -0.0809755 0.00280104 -0.0262586 0.00513428 -0.00614209 0.0223888 0.0259887 -0.0374188
internal_weight=14288.2 11122.9 8362.96 3448.08 3165.32 2759.91 2713.16 2959.27 46.7526 2205.39 109.725 2095.66 37.6273 488.806 71.699 2887.57 2850.23 645.725 507.768 4914.88 190.952 4723.93 31.7091 1622.45 119.506 1502.94 2204.5 473.214 447.04 26.1749
internal_count=59984 46548 34541 14302 13436 12007 11808 12088 199 9396 469 8927 161 2214 341 11747 11595 2593 2412 20239 843 19396 134 6804 501 6303 9002 2123 2007 116
is_linear=0
shrinkage=0.1


Tree=21
num_leaves=31
num_cat=0
split_feature=135 132 180 127 136 219 15 125 59 127 164 95 181 92 89 205 214 214 216 71 190 31 123 221 62 147 71 158 33 79
split_gain=38.6779 23.4108 38.3789 25.5396 19.9579 16.6553 19.8816 16.0639 19.713 13.5971 14.1669 13.6672 13.0823 12.0477 11.8894 11.5899 11.4562 15.1612 11.1326 11.0033 15.4413 19.9551 12.9562 10.9516 10.7406 10.5913 10.5248 10.3498 14.7148 11.3685
threshold=1.0000000180025095e-35 1.0000000180025095e-35 0.36169693818493559 0.74021542283568253 1.0000000180025095e-35 0.90239776427036278 0.00084527165806616079 0.0021780223207940796 90.872963921955716 1.0189769818585239 -1.6132906049218716 0.62042026303517284 0.45377851488687276 0.2724119871486464 -0.88490054674990037 87.866401262179934 3.4612500322217528e-05 -0.0011983384163183894 -0.001173468390127774 -1064886361.6976494 -0.60355339059327384 4.532348363620043e-05 0.012448585166579542 0.46228456217637776 0.22316230776932786 -0.88455304786693356 -939842208.77587032 0.34453799976977856 -0.63323978348676702 -0.027643595218047136
decision_type=2 2 2 2 2 2 2 2 2 2 2 2 2 2 2 2 2 2 2 2 2 2 2 2 2 2 2 2 2 2
left_child=1 4 5 -4 19 6 18 8 24 10 -6 23 -2 -9 -8 -12 17 -16 -3 20 -1 -22 -23 -11 -5 -7 -25 29 -29 -21
right_child=12 2 3 7 9 25 14 13 -10 11 15 -13 -14 -15 16 -17 -18 -19 -20 27 21 22 -24 26 -26 -27 -28 28 -30 -31
leaf_value=0.097909988226488595 -0.0076337436749688882 -0.0085742836942697322 0.00074147305988278014 0.022840656997332232 0.054554946188597755 0.046068691320600506 -0.048849075786043805 0.07470862004918051 0.071352053940349103 -0.031462424591968956 0.01257098757800016 0.030048754541375962 -0.029361987107343369 -0.07561955342193552 0.050469733044531617 -0.12105255183770243 0.011700906597516885 -0.019044824804446497 0.027928945056017701 0.10109839106187604 0.041568881587990936 -0.12692762190825455 0.032944804876494031 0.083058239063371703 -0.099720123868296193 -0.009060093339395274 -0.0029056340221161416 0.041851508895762314 -0.07552842049086006 -0.0041313706767421073
leaf_weight=23.80446395277977 2851.2228588163853 97.64351561665535 341.1135970056057 647.80741868913174 82.623025313019753 35.02370522916317 47.433434128761292 110.4925642311573 89.964128270745277 144.14469857513905 1092.4261985719204 115.1697783023119 306.67073895037174 4.7559920251369467 33.897046625614166 5.5242828428745261 502.55210350453854 307.92325595021248 546.65332274138927 9.2815492600202543 47.057251051068306 13.859869241714479 7.0381896793842307 13.605051279067991 6.2322018891572943 1039.9654408097267 569.43691265583038 13.340949311852453 42.25177189707756 5108.7798337191343
leaf_count=99 12005 401 1482 2931 393 143 193 524 440 620 4798 529 1431 21 137 24 2049 1252 2254 39 198 57 29 61 28 4251 2462 56 184 20893
internal_value=6.74352e-06 0.00278567 0.00913536 0.023928 -0.000534349 0.00232451 0.00900625 0.0331097 0.0276354 0.00790416 0.0148258 -0.00179077 -0.00975562 0.0678218 -0.000656422 0.01178 0.0020936 -0.011995 0.0223767 -0.00377914 0.030347 0.00545824 -0.0735824 -0.0068815 0.0215071 -0.00721353 -0.000743801 -0.00439208 -0.0469415 -0.00391887
internal_weight=14257.7 11099.8 3811.46 1200.37 7288.34 2611.09 1536.1 859.252 744.004 2022.93 1180.57 842.356 3157.89 115.249 891.806 1097.95 844.372 341.82 644.297 5265.41 91.7598 67.9553 20.8981 727.187 654.04 1074.99 583.042 5173.65 55.5927 5118.06
internal_count=59984 46548 16106 5426 30442 10680 6286 3944 3399 8887 5215 3672 13436 545 3631 4822 3438 1389 2655 21555 383 284 86 3143 2959 4394 2523 21172 240 20932
is_linear=0
shrinkage=0.1


Tree=22
num_leaves=31
num_cat=0
split_feature=135 132 111 205 75 189 111 131 127 24 33 71 123 167 151 191 190 66 212 5 160 151 168 217 57 50 207 192 209 127
split_gain=31.4465 19.0559 34.9134 13.6599 15.2027 14.5051 13.429 13.2522 19.0933 18.2829 14.5337 13.227 16.8737 22.1272 15.9684 15.1134 14.2332 16.4842 16.3436 15.1457 13.412 17.6722 13.3165 13.1361 12.7469 12.3303 12.2671 17.1004 11.1598 10.9294
threshold=1.0000000180025095e-35 1.0000000180025095e-35 -0.00013017338284398991 85.581299540504531 0.0041729846541682424 0.60355339059327384 -0.0010202590279861366 0.86018070747423148 0.92123441848977261 87.758757362854581 -0.58892291976452582 -1064886361.6976494 -0.019948141266377725 0.78204436601916405 42.517773185703341 0.87837969732492682 -0.60355339059327384 39.995144440744845 0.00015752070748557143 0.12580954780145265 0.41583391225192279 32.758307631373427 -0.0020279465780816326 -0.0011011959923463153 1.2036349642154816 0.004227504295154714 36.95226659036301 -0.56174490092936669 -0.00014544672277094076 1.0159731414809039
decision_type=2 2 2 2 2 2 2 2 2 2 2 2 2 2 2 2 2 2 2 2 2 2 2 2 2 2 2 2 2 2
left_child=1 3 6 11 5 -5 -3 8 10 23 -4 14 13 15 -1 22 18 19 -16 -18 21 -14 -13 29 25 -12 27 -15 -19 -10
right_child=-2 2 7 4 -6 -7 -8 -9 9 -11 24 12 20 26 16 -17 17 28 -20 -21 -22 -23 -24 -25 -26 -27 -28 -29 -30 -31
leaf_value=0.082669432150675584 -0.0088026948778548424 0.10196729919942554 0.037844818748094838 -0.050204380859882172 -0.10698382357142436 0.085277704007435645 0.030797180509923118 -0.0034640466174661547 -0.058007507950539418 -0.10511573445992531 -0.024964719511817401 0.017089473249071088 0.084530461027576775 0.050527365226750123 0.12309598281247046 0.096984363385689443 0.071152461766141761 -0.057372519829613201 -0.064861451950687751 -0.097447104167886711 0.00031547017171033918 -0.11191346648679348 -0.088105725907600546 0.023958793584669714 -0.11661250923446875 0.0032200678690877992 -0.1384865029008143 -0.08310734500863512 0.114224577424757 0.0074253405100906892
leaf_weight=41.150307863950729 3151.0084209293127 27.971249312162399 91.72483503818512 22.040651127696037 24.31968791782856 11.019929245114325 377.01481415331364 1207.4755036085844 33.640918731689453 10.801317021250723 192.99888886511326 33.869799420237541 4.9777122437953976 12.602706193923948 15.244173765182497 13.182683646678923 5.7646003961563101 4.9034509956836692 5.6620571911334983 26.551837563514709 6958.2084778994322 20.353948712348938 17.3720583319664 979.68726333975792 8.8805142641067487 774.13449828326702 20.977447643876076 32.053009882569313 10.142975792288778 95.692500323057175
leaf_count=177 13436 157 403 91 102 46 1790 4899 143 45 813 143 21 52 65 55 24 21 24 111 29085 85 73 4175 36 3240 89 135 43 405
internal_value=9.83616e-06 0.00251738 0.00825663 -0.000477584 -0.0486553 -0.00357333 0.0359764 0.00493744 0.00957887 0.0186953 0 -8.67896e-05 -0.000621197 -0.0361711 0.0342567 0.00539127 0.00415855 -0.0260411 0.0710977 -0.0658392 4.45165e-05 -0.0711879 -0.0193863 0.0200038 -0.00358166 -0.00241407 -0.0765868 -0.0448934 0.0575895 -0.00983216
internal_weight=14231.4 11080.4 3800.02 7280.4 57.3803 33.0606 404.986 3395.04 2187.56 1119.82 1067.74 7223.02 7113.6 130.058 109.419 64.4245 68.2691 47.3629 20.9062 32.3164 6983.54 25.3317 51.2419 1109.02 976.014 967.133 65.6332 44.6557 15.0464 129.333
internal_count=59984 46548 16106 30442 239 137 1947 14159 9260 4768 4492 30203 29738 547 465 271 288 199 89 135 29191 106 216 4723 4089 4053 276 187 64 548
is_linear=0
shrinkage=0.1


Tree=23
num_leaves=31
num_cat=0
split_feature=136 133 111 135 181 213 181 125 90 125 121 208 30 40 37 111 163 222 212 206 172 192 115 125 92 56 65 164 98 187
split_gain=25.5599 19.1253 37.7597 15.8056 14.1739 12.9957 12.7711 18.8201 12.5579 12.1599 17.9828 15.4568 13.6342 15.0878 13.3739 14.3813 12.1353 11.9342 11.5588 15.2031 11.4939 12.0802 11.0399 11.5089 10.8708 12.4471 10.8657 10.4425 10.3967 11.32
threshold=1.0000000180025095e-35 1.0000000180025095e-35 0.00013748173805794298 1.0000000180025095e-35 -0.59959775634610868 -0.0019023916200432975 -0.26492206099027837 0.0017208852273687791 11.66395390311027 0.0022798670686454488 -0.00030605154258706019 -0.029932238938940255 1.5510906196877488 88.631043020108464 -1.7450411793874989 -0.0002616922306798441 0.90583997621334766 1.6818579487531389 1.7424007148629246 85.628204794533488 0.040294830450339804 -0.56174490092936669 0.0061191513780822779 0.0013776301020948694 -0.076714767693297756 0.0040292457902132844 1.0000000180025095e-35 1.4195546919718118 0.55407497673746775 3.5000000000000004
decision_type=2 2 2 2 2 2 2 2 2 2 2 2 2 2 2 2 2 2 2 2 2 2 2 2 2 2 2 2 2 2
left_child=1 3 6 -1 5 -2 18 8 -8 12 -11 -12 13 14 -5 -16 -10 -13 19 20 -3 -22 23 -6 -20 -26 -15 -4 -14 -30
right_child=4 2 27 9 22 -7 7 -9 16 10 11 17 28 26 15 -17 -18 -19 24 -21 21 -23 -24 -25 25 -27 -28 -29 29 -31
leaf_value=0.0040642796158970769 -0.075253239880792896 0.10409059021921541 -0.031486533400463493 0.04499728170883463 0.019915922148817249 0.043747789874230725 -0.00040204874742437257 -0.036373516958586198 -0.066173885387215442 0.039420990832081879 -0.072316859345500348 0.014094511769626734 -0.0232938613064596 0.021193359719119589 0.010284410919690658 -0.023387204324102826 0.083389498363315329 -0.063420345448753232 -0.00014278481653884234 -0.096468592839075828 -0.013658436775576606 0.0014217236038123599 0.1358185109838029 0.0032908757518654952 -0.076860385284020866 0.047423438263503412 0.12240714566745343 -0.097100877527472026 0.013972297306685009 -0.02314707350072373
leaf_weight=4895.4000958055258 8.8082235306501371 9.063180670142172 405.34931197762489 52.305797934532166 501.67641119658947 152.78502880036831 554.04733675718307 277.5053274333477 48.98099122941494 132.47340887784958 30.416726395487785 150.411995023489 740.14986474812031 33.270791068673134 237.01078209280968 270.19666963815689 5.1704968512058249 21.84703540802002 148.6327156573534 16.36008907854557 748.36021976172924 1821.0469622015953 5.5887526571750632 2444.7424631416798 7.6837528944015494 121.12829056382179 15.20127137005329 25.313974767923355 189.8047733604908 143.20259429514408
leaf_count=20239 42 37 1877 215 2288 746 2345 1261 208 567 137 654 3250 139 971 1156 22 96 605 67 3042 7402 24 10496 31 495 63 126 788 595
internal_value=9.28424e-06 -0.00223599 -0.00756743 0.000994166 0.00801529 0.0367768 -0.00434564 -0.0148373 -0.00495083 -0.00645319 0.0109023 -0.00779105 -0.00992352 0.00202525 -0.00263351 -0.00764399 -0.0504589 0.00389654 -0.0011029 -0.00318274 -0.00254981 -0.00297021 0.00642558 0.00613075 0.0182548 0.0393978 0.0549697 -0.0355825 -0.0166979 -0.00198165
internal_weight=14213.9 11100.3 4188.64 6911.69 3113.6 161.593 3757.98 885.704 608.199 2016.29 335.149 202.676 1681.14 607.985 559.513 507.207 54.1515 172.259 2872.28 2594.83 2578.47 2569.41 2952.01 2946.42 277.445 128.812 48.4721 430.663 1073.16 333.007
internal_count=59984 46388 17518 28870 13596 788 15515 3836 2575 8631 1454 887 7177 2544 2342 2127 230 750 11679 10548 10481 10444 12808 12784 1131 526 202 2003 4633 1383
is_linear=0
shrinkage=0.1


Tree=24
num_leaves=31
num_cat=0
split_feature=136 185 38 211 47 212 152 158 56 149 149 156 156 206 72 172 149 56 208 72 167 209 154 142 160 169 72 190 167 211
split_gain=20.8092 15.7782 25.7446 29.756 24.558 24.2007 23.3885 23.313 21.4181 21.2712 34.7639 23.5983 20.1431 27.7673 17.3802 32.4918 24.5695 17.4932 17.1925 21.9765 16.8904 16.3447 20.3784 16.8743 15.9854 20.3986 15.6638 15.649 15.6263 25.8717
threshold=1.0000000180025095e-35 17.500000000000004 27.379810294381958 51.598582439371974 83791.102303369946 -38.669864973133365 -0.36381123423102907 0.11014849742703221 0.017050933637798322 -476330.50273517548 -197524.77410235032 2.7627301161734708 1.9045975912391977 21.639273707019495 -949351660.85981977 0.13170022030728321 -431990460.21863163 0.0072691723256973094 8.3023420186000312 7972.9462980093185 0.78966997030085195 2.8190282309874252e-05 0.54947425230386271 1887170.346223424 0.79547841414764753 -0.0015626453388159483 6465.6995217057101 -0.78656609248549325 0.78461796360331271 90.241067782113547
decision_type=2 2 2 2 2 2 2 2 2 2 2 2 2 2 2 2 2 2 2 2 2 2 2 2 2 2 2 2 2 2
left_child=1 12 4 20 6 26 8 21 -3 11 -11 -9 14 -14 15 17 -17 -1 -16 28 -4 22 -8 -23 25 -19 -6 -15 -20 -30
right_child=-2 2 3 -5 5 -7 7 9 -10 10 -12 -13 13 27 18 16 -18 24 19 -21 -22 23 -24 -25 -26 -27 -28 -29 29 -31
leaf_value=0.098854739179520534 0.0072400306541416 0.1322384217526644 -0.097305585057876537 0.024754012909649396 0.02012354289127594 0.08053828504868521 0.0039892093250942602 0.043962568055527299 -0.050982677293122093 -0.091157197301287352 0.043177764900819891 -0.062028135160902415 0.12396043972325566 0.078255959718152107 -0.0057126648343012454 -0.10815536083580371 0.047404276375622501 0.059567175354532653 0.024470807932417047 -0.15303568306659868 0.075540407728457909 0.012221962038104384 -0.021032467972202883 -0.088440158534099242 0.066703027383161834 -0.040670624679226455 -0.11936979450536729 -0.08627610090112757 -0.055993103341456241 0.04311467105493394
leaf_weight=41.34907653927803 3105.9173069447279 24.526207223534584 63.12873849272728 40.236947447061539 38.600094765424728 83.715030819177628 679.51509828865528 298.93714319169521 7.8122208416461936 36.446929082274437 38.685077458620071 21.650388613343239 7.0064147412776938 5.4855283200740805 7476.9463847130537 27.723403975367546 14.880189433693884 31.784960433840752 408.86257000267506 6.8513901829719535 5.4061340391635886 793.53879533708096 622.33648787438869 15.99923901259899 54.25356987118721 52.290532156825066 9.0959693491458875 66.991529732942581 67.443667843937874 41.807183593511581
leaf_count=174 13596 102 267 169 163 354 2847 1251 33 152 161 96 29 23 31272 115 61 133 1718 29 23 3320 2592 68 228 220 38 290 284 176
internal_value=6.51875e-06 -0.00202012 0.00449835 -0.0429562 0.00645006 0.0484442 0.0042548 0.00314293 0.0874749 0.0253857 -0.0221989 0.0366029 -0.00420365 -0.0539991 -0.00371467 0.0237983 -0.0537525 0.0424375 -0.00448307 0.0129883 -0.0826371 -0.00103114 -0.00797143 0.0101135 0.0249132 -0.00240318 -0.00817848 -0.0727916 0.0154936 -0.0179296
internal_weight=14189.2 11083.3 2779.63 108.772 2670.86 131.411 2539.45 2507.11 32.3384 395.72 75.132 320.588 8303.68 79.4835 8224.19 222.282 42.6036 179.678 8001.91 524.965 68.5349 2111.39 1301.85 809.538 138.329 84.0755 47.6961 72.4771 518.113 109.251
internal_count=59984 46388 11636 459 11177 555 10622 10487 135 1660 313 1347 34752 342 34410 931 176 755 33479 2207 290 8827 5439 3388 581 353 201 313 2178 460
is_linear=0
shrinkage=0.1


Tree=25
num_leaves=31
num_cat=0
split_feature=135 98 132 127 56 216 166 56 30 192 152 156 126 149 48 167 127 131 155 215 212 38 93 89 156 155 56 190 63 86
split_gain=21.8665 15.3146 20.5042 18.5602 16.1682 14.6114 13.7478 12.3414 19.4439 14.738 16.7102 18.332 12.5161 12.5398 19.7029 12.9911 12.2203 13.883 11.7765 11.5259 11.9957 11.4938 12.8333 11.3658 15.0608 19.5472 15.2937 14.8482 14.0109 13.2231
threshold=1.0000000180025095e-35 0.2396842160241362 1.0000000180025095e-35 1.2408684817392619 0.017050933637798322 -0.0027308813022263729 2.8145398558041803 0.022930159874317686 22.799786204833744 -0.56174490092936669 -0.058383604407940701 1.0175704678898889 0.0021944284818239588 -2665956.5992668318 66.768361839712767 0.67123912431698374 0.64535681553290536 0.49585253668404777 0.64552312453996319 -0.0015587613592901171 4.2590142365379515 -0.00012439857730558391 2.6210417495749287 -0.040885828546016738 0.47140261912313747 0.33052338238776918 0.0048633625919170028 1.0000000180025095e-35 7.7538117985163742e-05 0.12359082628152775
decision_type=2 2 2 2 2 2 2 2 2 2 2 2 2 2 2 2 2 2 2 2 2 2 2 2 2 2 2 2 2 2
left_child=1 7 5 6 -5 -3 16 12 9 10 11 -9 23 15 -15 -14 -4 -18 -19 -16 -21 -17 -23 24 25 -1 27 -26 -27 -25
right_child=-2 2 3 4 -6 -7 -8 8 -10 -11 -12 -13 13 14 19 21 17 18 -20 20 -22 22 -24 29 26 28 -28 -29 -30 -31
